svm_type c_svc
kernel_type rbf
gamma 0.045
nr_class 2
total_sv 196
rho 3.94324
label 1 -1
nr_sv 114 82
SV
0.95 1:0.674077 4:0.628607 5:0.759604 6:0.569497 7:0.716067 9:0.453737 18:0.529796 23:0.142055 28:0.272727 29:0.388544 30:0.705552 32:0.482218 35:0.173963 36:0.054644 39:0.28465 41:0.328075 43:0.538895 45:0.43079 47:0.280859 48:0.482218 49:0.870249 51:0.227519 55:0.52728 58:0.234181 59:0.454834 60:0.829365 61:0.213897 62:0.218776 63:0.233962 64:0.339948 65:0.149815 
0.95 1:1.425336 4:1.078099 5:1.50726 6:0.29631 7:0.748771 9:0.479692 18:0.767392 23:0.164239 28:0.484848 29:0.445355 30:0.35087 32:0.53571 35:0.4011 36:0.315767 39:0.472763 41:0.564342 43:0.597966 45:0.67114 47:0.195556 48:0.53571 49:0.96292 51:0.208088 55:0.248561 58:0.14929 59:0.505728 60:1.690476 61:0.135253 62:0.442109 63:0.357584 64:0.456333 65:0.107616 
0.95 1:1.425336 4:1.078099 5:1.50726 6:0.29631 7:0.748771 9:0.479692 18:0.767392 23:0.164239 28:0.484848 29:0.445355 30:0.35087 32:0.53571 35:0.4011 36:0.315767 39:0.472763 41:0.564342 43:0.597966 45:0.67114 47:0.195556 48:0.53571 49:0.96292 51:0.208088 55:0.248561 58:0.14929 59:0.505728 60:1.690476 61:0.135253 62:0.442109 63:0.357584 64:0.456333 65:0.107616 
0.95 1:0.551174 4:0.543505 5:0.646946 6:0.539486 7:0.711452 9:0.665671 18:0.675025 23:0.186218 28:0.227273 29:0.227921 30:0.446166 32:0.396665 35:0.154876 36:0.054027 39:0.239125 41:0.30276 43:0.46684 45:0.231278 47:0.449612 48:0.396665 49:0.771128 51:0.222392 55:0.567041 58:0.409836 59:0.37601 60:0.65873 61:0.217703 62:0.189426 63:0.00293 64:0.250547 65:0.09669 
0.95 1:0.577601 4:0.576112 5:0.735993 6:0.563685 7:0.647885 9:0.661728 18:0.639198 23:0.195748 28:0.181818 29:0.176948 30:0.540704 32:0.331035 35:0.179627 36:0.061426 39:0.194286 41:0.226817 43:0.371942 45:0.283345 47:0.404873 48:0.331035 49:0.769955 51:0.286891 55:0.570406 58:0.365312 59:0.313188 60:0.777778 61:0.283086 62:0.165282 63:0.1538 64:0.222333 65:0.072279 
0.95 1:-0.011745 4:-0.040539 5:0.056196 6:0.052367 7:0.546172 9:0.54782 18:0.170626 23:0.804237 28:0.257576 29:0.131899 30:0.632349 32:0.295369 35:0.663579 36:0.279365 39:0.152106 41:0.243044 43:0.288543 45:0.101745 47:0.653378 48:0.295369 49:0.304187 51:0.479348 55:0.894317 58:0.705194 59:0.304979 60:-0.031746 61:0.677884 62:0.388229 63:0.219592 64:0.205447 65:0.023237 
0.95 1:0.438758 4:0.494766 5:0.728697 6:0.567272 7:0.652181 9:0.589371 18:0.725591 23:0.200435 28:0.227273 29:0.185718 30:0.357464 32:0.4624 35:0.32269 36:0.055669 39:0.243025 41:0.277446 43:0.517009 45:0.24657 47:0.39175 48:0.4624 49:0.870732 51:0.342721 55:0.507631 58:0.352252 59:0.438932 60:0.678571 61:0.396969 62:0.211312 63:0.35406 64:0.341627 65:0.201583 
0.95 1:0.687919 4:0.782589 5:0.821143 6:0.779814 7:0.698405 9:0.556597 18:0.690627 23:0.134657 28:0.257576 29:0.253779 30:0.47167 32:0.355538 35:0.185221 36:0.08543 39:0.270235 41:0.311198 43:0.399 45:0.35576 47:0.299419 48:0.355538 49:0.8607 51:0.232185 55:0.432632 58:0.260366 59:0.336642 60:0.892857 61:0.244551 62:0.223136 63:0.205066 64:0.350914 65:0.189336 
0.95 1:0.25755 4:0.34569 5:0.433701 6:0.417756 7:0.632924 9:0.642194 18:0.545743 23:0.140568 28:0.606061 29:0.406943 30:0.35059 32:0.539745 35:0.86735 36:0.771816 39:0.507605 41:0.586411 43:0.527273 45:0.856283 47:0.139943 48:0.539745 49:0.960058 51:0.145389 55:0.382281 58:0.194234 59:0.557246 60:0.321429 61:0.335799 62:0.678852 63:0.780619 64:0.77362 65:0.557539 
0.95 1:0.568372 4:0.481479 5:0.846453 6:0.381083 7:0.658708 9:0.529133 18:0.613998 23:0.186061 28:0.30303 29:0.213226 30:0.275843 32:0.483943 35:0.37367 36:0.171104 39:0.310471 41:0.361827 43:0.540799 45:0.359765 47:0.275422 48:0.483943 49:0.937129 51:0.300674 55:0.366732 58:0.236485 59:0.459553 60:0.857143 61:0.359393 62:0.320733 63:0.406715 64:0.394953 65:0.214431 
0.95 1:0.704279 4:0.750636 5:0.959501 6:0.665965 7:0.685461 9:0.58005 18:0.821629 23:0.183748 28:0.363636 29:0.379489 30:0.381498 32:0.53663 35:0.350324 36:0.111768 39:0.370372 41:0.429332 43:0.598982 45:0.488462 47:0.189828 48:0.53663 49:0.953128 51:0.231655 55:0.379683 58:0.159019 59:0.51341 60:0.900794 61:0.2334 62:0.357179 63:0.358866 64:0.346495 65:0.12704 
0.95 1:0.489933 4:0.431699 5:0.561624 6:0.434167 7:0.757724 9:0.604905 18:0.581611 23:0.173641 28:0.560606 29:0.792089 30:0.302585 32:0.301141 35:0.484076 36:0.226611 39:0.567931 41:0.541624 43:0.294183 45:1.325222 47:-0.210803 48:0.301141 49:0.953009 51:0.033662 55:0.447382 58:-0.15482 59:0.310938 60:0.539683 61:0.189056 62:0.435476 63:0.717025 64:0.709216 65:0.699242 
0.3188184656167166 1:1.793205 4:1.250767 5:1.619755 6:0.821475 7:0.91299 9:0.158743 18:1.269755 23:0.163986 28:0.969697 29:1.222304 30:0.157434 32:0.930291 35:0.728967 36:0.659366 39:0.968984 41:0.944707 43:0.908794 45:1.072461 47:0.034259 48:0.930291 49:0.966642 51:0.146469 55:-0.030943 58:0.08906 59:0.960403 60:2.126984 61:0.123315 62:0.941916 63:1.045838 64:1.042217 65:0.869872 
0.95 1:0.352349 4:0.528596 5:0.578465 6:0.578112 7:0.643027 9:0.562812 18:0.664241 23:0.128894 28:0.19697 29:0.121621 30:0.53112 32:0.497687 35:0.274358 36:0.153159 39:0.222629 41:0.166187 43:0.46637 45:0.100807 47:0.752907 48:0.497687 49:0.609848 51:0.563349 55:0.797147 58:0.804243 59:0.51383 60:0.515873 61:0.381996 62:0.168871 63:0.298669 64:0.285531 65:0.134839 
0.95 1:0.005453 4:0.070644 5:0.203931 6:0.21866 7:0.55754 9:0.523813 18:0.376052 23:0.250004 28:0.257576 29:0.236229 30:0.408922 32:0.404383 35:0.592412 36:0.093341 39:0.119514 41:0.243044 43:0.395039 45:0.197174 47:0.704319 48:0.404383 49:0.529105 51:0.777455 55:0.912356 58:0.755889 59:0.417513 60:0.011905 61:0.698306 62:0.235252 63:0.32279 64:0.309959 65:0.15886 
0.95 1:0.385487 4:0.692511 5:0.7526 6:0.769518 7:0.58566 9:0.43868 18:0.556879 23:0.097178 28:0.651515 29:0.579467 30:0.391587 32:0.90676 35:1.066497 36:0.657997 39:0.638037 41:0.631198 43:0.885807 45:1.134865 47:-0.333333 48:0.90676 49:0.980827 51:0.368325 55:0.780363 58:-0.27676 59:0.936113 60:0.738095 61:0.56221 62:0.695932 63:0.907077 64:0.901688 65:1.116235 
0.95 1:0.508389 4:0.322542 5:0.257463 6:0.233182 7:0.947344 9:0.807444 18:0.243161 23:0.311587 28:0.575758 29:0.7089 30:0.348365 32:0.345505 35:0.495715 36:0.311158 39:0.590301 41:0.556553 43:0.337521 45:0.475893 47:0.28182 48:0.345505 49:0.692 51:0.064148 55:0.248743 58:0.327713 59:0.354083 60:0.444444 61:0.081763 62:0.553487 63:0.409667 64:0.511586 65:0.121522 
0.95 1:0.784396 4:0.520952 5:0.45427 6:0.451249 7:1.027068 9:0.838797 18:0.314835 23:0.179359 28:0.424242 29:0.728733 30:0.648838 32:0.323882 35:0.15398 36:0.035846 39:0.431365 41:0.434733 43:0.331009 45:0.868336 47:0.156934 48:0.323882 49:0.675771 51:0.07028 55:0.281637 58:0.195714 59:0.329432 60:0.547619 61:-0.062246 62:0.342782 63:0.238105 64:0.413597 65:0.112741 
0.95 1:0.792366 4:0.526232 5:0.433389 6:0.437561 7:0.909886 9:0.812148 18:0.277865 23:0.136582 28:0.363636 29:0.537859 30:0.742081 32:0.523114 35:0.037145 36:0.11045 39:0.3733 41:0.372628 43:0.533422 45:0.715537 47:0.222911 48:0.523114 49:0.784452 51:0.064874 55:0.349434 58:0.261374 59:0.532444 60:0.507937 61:-0.091776 62:0.266728 63:0.313192 64:0.332756 65:0.047628 
0.95 1:0.625 4:0.696571 5:0.72464 6:0.726965 7:0.770723 9:0.756369 18:0.522877 23:0.067569 28:0.424242 29:0.857772 30:0.590506 32:0.487934 35:0.268329 36:0.086892 39:0.43313 41:0.434733 43:0.497681 45:0.795253 47:0.253719 48:0.487934 49:0.803088 51:0.266826 55:0.557683 58:0.292033 59:0.496597 60:0.706349 61:0.173754 62:0.38407 63:0.205066 64:0.50297 65:0.215795 
0.95 1:0.351091 4:0.521094 5:0.573463 6:0.601488 7:0.713921 9:0.613679 18:0.567107 23:0.095711 28:0.393939 29:0.344241 30:0.470857 32:-0.05003 35:0.356429 36:0.329077 39:0.404919 41:0.40368 43:-0.048874 45:0.297897 47:0.544897 48:-0.05003 49:0.185511 51:0.454395 55:0.622959 58:0.581806 59:-0.051573 60:0.456349 61:0.315373 62:0.380107 63:0.654162 64:0.645552 65:0.639204 
0.95 1:0.036493 4:0.04542 5:0.158042 6:0.150983 7:0.559052 9:0.40257 18:0.288389 23:0.297643 28:0.454545 29:0.273508 30:0.480432 32:0.660865 35:0.831805 36:0.579444 39:0.468357 41:0.465785 43:0.673372 45:0.233863 47:0.550388 48:0.660865 49:0.842927 51:0.484365 55:0.610986 58:0.587271 59:0.672808 60:0.011905 61:0.489006 62:0.524173 63:0.645959 64:0.637245 65:0.482266 
0.95 1:0.04656 4:0.050115 5:0.156859 6:0.145208 7:0.631669 9:0.405115 18:0.257323 23:0.265125 28:0.439394 29:0.22639 30:0.462362 32:0.588401 35:0.699861 36:0.573666 39:0.4541 41:0.480664 43:0.626777 45:0.190701 47:0.579673 48:0.588401 49:0.806508 51:0.452503 55:0.618063 58:0.624129 59:0.603193 60:0.015873 61:0.445931 62:0.491169 63:0.591994 64:0.582592 65:0.354959 
0.95 1:0.293205 4:0.290803 5:0.447274 6:0.413388 7:0.679279 9:0.574047 18:0.397772 23:0.185597 28:0.151515 29:0.080736 30:0.503362 32:0.234163 35:0.129249 36:0.12948 39:0.163675 41:0.123059 43:0.21847 45:0.110188 47:0.676264 48:0.234163 49:0.498157 51:0.258643 55:0.683823 58:0.673968 59:0.228962 60:0.357143 61:0.306451 62:0.123091 63:0.188661 64:0.202225 65:0.09706 
0.95 1:0.314178 4:0.123991 5:0.03163 6:0.040246 7:1.171263 9:0.528267 18:0.075217 23:0.677582 28:0.242424 29:0.087615 30:0.197529 32:0.319582 35:-0.052334 36:0.259027 39:0.256838 41:0.209316 43:0.298824 45:0.195259 47:0.553206 48:0.319582 49:0.640919 51:-0.040864 55:0.570883 58:0.559218 59:0.315576 60:0.099206 61:-0.057824 62:0.162512 63:0.194813 64:0.195467 65:0.032533 
0.95 1:0.508809 4:0.331855 5:0.451674 6:0.307322 7:0.739653 9:0.724044 18:0.486272 23:0.434 28:0.19697 29:0.279174 30:0.729126 32:0.342324 35:0.090397 36:0.028652 39:0.216172 41:0.166187 43:0.320218 45:0.36677 47:0.380595 48:0.342324 49:0.712788 51:0.168747 55:0.548145 58:0.379724 59:0.335731 60:0.464286 61:0.09893 62:0.143026 63:0.03076 64:0.232869 65:0.069004 
0.95 1:0.531879 4:0.350491 5:0.358549 6:0.234171 7:0.816233 9:0.843633 18:0.272486 23:0.380367 28:0.166667 29:0.072448 30:0.354269 32:0.364299 35:0.043673 36:0.142206 39:0.189256 41:0.137435 43:0.34089 45:0.155307 47:0.601362 48:0.364299 49:0.672579 51:0.1857 55:0.626538 58:0.599427 59:0.357423 60:0.444444 61:0.057505 62:0.126955 63:0.287093 64:0.273807 65:0.146195 
0.95 1:0.532718 4:0.365214 5:0.392512 6:0.234315 7:0.924101 9:0.848901 18:0.28833 23:0.334652 28:0.166667 29:0.067119 30:0.29142 32:0.35983 35:0.017348 36:0.14081 39:0.189525 41:0.137435 43:0.336686 45:0.156317 47:0.577872 48:0.35983 49:0.66255 51:0.174043 55:0.635083 58:0.583764 59:0.355556 60:0.452381 61:0.063472 62:0.114421 63:0.232409 64:0.218427 65:0.084494 
0.95 1:0.386326 4:0.377435 5:0.462434 6:0.420918 7:0.655496 9:0.701582 18:0.51441 23:0.227711 28:0.318182 29:0.244863 30:0.402274 32:0.465021 35:0.230655 36:0.180276 39:0.330538 41:0.281196 43:0.43564 45:0.319264 47:0.402504 48:0.465021 49:0.841231 51:0.194774 55:0.535697 58:0.401528 59:0.456848 60:0.436508 61:0.232716 62:0.257122 63:0.510103 64:0.499658 65:0.38614 
0.95 1:0.319211 4:0.301082 5:0.380604 6:0.315631 7:0.672167 9:0.63895 18:0.451941 23:0.169391 28:0.181818 29:0.182892 30:0.631402 32:0.486129 35:0.129066 36:0.069823 39:0.195831 41:0.151811 43:0.455497 45:0.175068 47:0.491191 48:0.486129 49:0.810522 51:0.201411 55:0.6406 58:0.497502 59:0.481013 60:0.34127 61:0.235879 62:0.125055 63:0.095698 64:0.240951 65:0.110977 
0.95 1:0.386326 4:0.377435 5:0.462434 6:0.420918 7:0.655496 9:0.701582 18:0.51441 23:0.227711 28:0.318182 29:0.244863 30:0.402274 32:0.465021 35:0.230655 36:0.180276 39:0.330538 41:0.281196 43:0.43564 45:0.319264 47:0.402504 48:0.465021 49:0.841231 51:0.194774 55:0.535697 58:0.401528 59:0.456848 60:0.436508 61:0.232716 62:0.257122 63:0.510103 64:0.499658 65:0.38614 
0.95 1:0.348993 4:0.312047 5:0.500762 6:0.330058 7:0.773033 9:0.739579 18:0.544655 23:0.200079 28:0.30303 29:0.315235 30:0.412323 32:0.395646 35:0.243005 36:0.140639 39:0.307556 41:0.26682 43:0.370378 45:0.287441 47:0.421512 48:0.395646 49:0.795216 51:0.251373 55:0.539118 58:0.420444 59:0.388366 60:0.400794 61:0.2545 62:0.217246 63:0.457371 64:0.446255 65:0.346784 
0.95 1:0.511326 4:0.417508 5:0.624074 6:0.358258 7:0.852703 9:0.631547 18:0.574554 23:0.147278 28:0.30303 29:0.37319 30:0.485432 32:0.320238 35:0.196617 36:0.122433 39:0.311637 41:0.287831 43:0.312838 45:0.360339 47:0.377665 48:0.320238 49:0.72793 51:0.214882 55:0.527053 58:0.376808 59:0.313928 60:0.555556 61:0.176914 62:0.215423 63:0.441681 64:0.430365 65:0.231632 
0.95 1:0.008389 4:0.043091 5:0.17326 6:0.136459 7:0.535248 9:0.397114 18:0.310695 23:0.846713 28:0.075758 29:0.040302 30:0.632055 32:0.264507 35:0.401112 36:0.076106 39:0.097044 41:0.051179 43:0.247014 45:0.500615 47:0.367248 48:0.264507 49:0.605533 51:0.532159 55:0.96924 58:0.374156 59:0.260868 60:0.051587 61:0.814488 62:0.126421 63:0.126589 64:0.111259 65:0.038774 
0.95 1:0.018876 4:0.036096 5:0.154948 6:0.146537 7:0.585684 9:0.492132 18:0.279048 23:0.660401 28:0.075758 29:0.042166 30:0.638474 32:0.231943 35:0.241437 36:0.067947 39:0.098433 41:0.051179 43:0.216381 45:0.501069 47:0.418605 48:0.231943 49:0.548852 51:0.373406 55:1.066737 58:0.425265 59:0.228521 60:0.015873 61:0.612052 62:0.098324 63:0.028197 64:0.087858 65:0.017207 
0.95 1:0.158138 4:0.271377 5:0.337753 6:0.354477 7:0.632945 9:0.577347 18:0.372476 23:0.06844 28:0.242424 29:0.122983 30:0.454028 32:0.399758 35:0.446781 36:0.248601 39:0.242496 41:0.209316 43:0.374246 45:0.914748 47:0.146253 48:0.399758 49:0.908901 51:0.299787 55:0.806326 58:0.146512 59:0.392425 60:0.27381 61:0.549063 62:0.292278 63:0.28453 64:0.271211 65:0.099203 
0.95 1:0.165688 4:0.24243 5:0.385006 6:0.320237 7:0.674983 9:0.459366 18:0.399284 23:0.214555 28:0.227273 29:0.097425 30:0.373595 32:0.372819 35:0.366912 36:0.247009 39:0.226391 41:0.213186 43:0.364204 45:0.411266 47:0.144186 48:0.372819 49:0.872739 51:0.147503 55:1.053484 58:0.144455 59:0.365833 60:0.25 61:0.478395 62:0.236484 63:0.235826 64:0.280526 65:0.115394 
0.95 1:0.228188 4:0.35641 5:0.464305 6:0.364642 7:0.662883 9:0.273901 18:0.540754 23:0.192626 28:0.227273 29:0.127022 30:0.468406 32:0.380516 35:0.403538 36:0.218984 39:0.224359 41:0.213186 43:0.371723 45:0.521337 47:0.192076 48:0.380516 49:0.805684 51:0.283426 55:1.204897 58:0.192114 59:0.37343 60:0.396825 61:0.524135 62:0.239932 63:0.379373 64:0.367263 65:0.22278 
0.95 1:0.609899 4:0.503891 5:0.618666 6:0.531545 7:0.841131 9:0.846331 18:0.500981 23:0.188717 28:0.19697 29:0.232797 30:0.701965 32:0.342031 35:0.079931 36:0.041408 39:0.211809 41:0.166187 43:0.319942 45:0.284302 47:0.343023 48:0.342031 49:0.748196 51:0.163666 55:0.526855 58:0.342334 59:0.335441 60:0.619048 61:0.122229 62:0.188757 63:0.102533 64:0.167489 65:0.024952 
0.95 1:0.102349 4:0.153246 5:0.242872 6:0.261555 7:0.664415 9:0.691207 18:0.378915 23:0.162478 28:0.166667 29:0.163288 30:0.455328 32:0.309961 35:0.229574 36:-0.001973 39:0.172771 41:0.15347 43:0.302798 45:0.113811 47:0.560078 48:0.309961 49:0.692156 51:0.300633 55:0.63575 58:0.558341 59:0.303784 60:0.09127 61:0.387471 62:0.112049 63:0.325543 64:0.312747 65:0.191093 
0.95 1:0.860738 4:0.908048 5:0.92137 6:0.874387 7:0.794122 9:0.760431 18:0.763883 23:0.1246 28:0.212121 29:0.181651 30:0.76248 32:0.345338 35:0.128894 36:0.129456 39:0.224212 41:0.180564 43:0.323053 45:0.208838 47:0.400355 48:0.345338 49:0.672932 51:0.234081 55:0.562009 58:0.407104 59:0.34116 60:0.920635 61:0.112153 62:0.143364 63:0.193881 64:0.200012 65:0.048879 
0.95 1:0.131292 4:0.167482 5:0.246114 6:0.255766 7:0.700128 9:0.769631 18:0.352128 23:0.114442 28:0.212121 29:0.219633 30:0.404102 32:0.418075 35:0.2971 36:-0.008623 39:0.215799 41:0.198257 43:0.408414 45:0.153378 47:0.522958 48:0.418075 49:0.784222 51:0.328753 55:0.59231 58:0.5214 59:0.410506 60:0.130952 61:0.367085 62:0.186573 63:0.323712 64:0.310893 65:0.159754 
0.6408276214148038 1:0.627517 4:0.488613 5:0.425673 6:0.456839 7:0.938545 9:0.906741 18:0.259472 23:0.082363 28:0.469697 29:0.366295 30:0.220804 32:0.452193 35:0.285475 36:0.329853 39:0.483331 41:0.45205 43:0.441744 45:0.557963 47:0.419024 48:0.452193 49:0.807055 51:0.227782 55:0.319379 58:0.417968 59:0.444185 60:0.547619 61:0.051469 62:0.462283 63:0.21532 64:0.436395 65:0.115323 
0.95 1:0.440436 4:0.298711 5:0.241839 6:0.256496 7:1.075373 9:1.017854 18:0.193551 23:0.158854 28:0.424242 29:0.235695 30:0.245398 32:0.468549 35:0.184155 36:0.404743 39:0.436282 41:0.407263 43:0.457722 45:0.307323 47:0.515504 48:0.468549 49:0.742223 51:0.156954 55:0.436897 58:0.513983 59:0.46033 60:0.31746 61:0.037056 62:0.342808 63:0.430639 64:0.419182 65:0.166859 
0.95 1:0.074664 4:0.017104 5:0.034542 6:0.040246 7:0.463303 9:0 18:0.127887 23:0.000857 28:0 29:0.007362 30:0.953402 32:0.124353 35:0.049803 36:0.029219 39:0.01429 41:-0.010749 43:0.12148 45:0.029288 47:0.892882 48:0.124353 49:0.415149 51:0.387427 55:0.863604 58:0.889542 59:0.120565 60:0.095238 61:0.517425 62:0.002792 63:0.051267 64:0.034977 65:0.017918 
0.95 1:0.109899 4:0.036776 5:0.057631 6:0.064833 7:0.744493 9:0.579314 18:0.135651 23:0.42506 28:0.015152 29:0.012838 30:0.96333 32:0.1456 35:-0.042641 36:0.029648 39:0.03137 41:0.00418 43:0.142235 45:0.044129 47:0.867571 48:0.1456 49:-0.010438 51:0.227538 55:0.856462 58:0.864352 59:0.141538 60:0.055556 61:0.280628 62:0.000287 63:0.03076 64:0.018882 65:0.007278 
0.95 1:0.072987 4:0.030171 5:0.032118 6:0.04032 7:0.760463 9:0.492232 18:0.115168 23:0.888007 28:0.015152 29:0.010848 30:0.872747 32:0.030788 35:0.121154 36:0.029367 39:0.029929 41:0.00418 43:0.030076 45:0.040916 47:0.873855 48:0.030788 49:0.155242 51:0.509172 55:0.859638 58:0.87832 59:0.028706 60:0.134921 61:0.626507 62:0.011046 63:0.051267 64:0.044208 65:0.019083 
0.95 1:0.410654 4:0.349372 5:0.424474 6:0.412244 7:0.946857 9:0.825161 18:0.365233 23:0.088692 28:0.424242 29:0.439836 30:0.394613 32:0.448957 35:0.205662 36:0.252021 39:0.426119 41:0.407263 43:0.438582 45:0.500857 47:0.418605 48:0.448957 49:0.687898 51:0.210527 55:0.504981 58:0.417551 59:0.440991 60:0.321429 61:0.076133 62:0.289351 63:0.348613 64:0.430253 65:0.173317 
0.95 1:0.564597 4:0.544128 5:0.62471 6:0.566597 7:0.836823 9:0.858445 18:0.55196 23:0.141161 28:0.287879 29:0.302422 30:0.55666 32:0.550328 35:0.192098 36:0.110924 39:0.291922 41:0.272902 43:0.537612 45:0.386733 47:0.333333 48:0.550328 49:0.811511 51:0.204561 55:0.601447 58:0.33269 59:0.541057 60:0.519841 61:0.088125 62:0.174936 63:0.351176 64:0.338707 65:0.128685 
0.95 1:0.36745 4:0.39863 5:0.483217 6:0.435487 7:0.729283 9:0.607664 18:0.549518 23:0.104341 28:0.19697 29:0.19398 30:0.579145 32:0.401562 35:0.146913 36:0.061458 39:0.208769 41:0.183328 43:0.392283 45:0.200017 47:0.473798 48:0.401562 49:0.72932 51:0.308591 55:0.660907 58:0.472478 59:0.394206 60:0.369048 61:0.187755 62:0.084755 63:0.317853 64:0.34006 65:0.283309 
0.95 1:0.564597 4:0.544128 5:0.62471 6:0.566597 7:0.836823 9:0.858445 18:0.55196 23:0.141161 28:0.287879 29:0.302422 30:0.55666 32:0.550328 35:0.192098 36:0.110924 39:0.291922 41:0.272902 43:0.537612 45:0.386733 47:0.333333 48:0.550328 49:0.811511 51:0.204561 55:0.601447 58:0.33269 59:0.541057 60:0.519841 61:0.088125 62:0.174936 63:0.351176 64:0.338707 65:0.128685 
0.95 1:0.564597 4:0.544128 5:0.62471 6:0.566597 7:0.836823 9:0.858445 18:0.55196 23:0.141161 28:0.287879 29:0.302422 30:0.55666 32:0.550328 35:0.192098 36:0.110924 39:0.291922 41:0.272902 43:0.537612 45:0.386733 47:0.333333 48:0.550328 49:0.811511 51:0.204561 55:0.601447 58:0.33269 59:0.541057 60:0.519841 61:0.088125 62:0.174936 63:0.351176 64:0.338707 65:0.128685 
0.95 1:0.692953 4:0.630525 5:0.772417 6:0.581153 7:0.798874 9:0.355297 18:0.641379 23:0.094928 28:0.227273 29:0.28336 30:0.710734 32:0.62238 35:0.156085 36:0.090862 39:0.23659 41:0.213186 43:0.607998 45:0.33819 47:0.361822 48:0.62238 49:0.851701 51:0.29469 55:0.654633 58:0.368756 59:0.616356 60:0.738095 61:0.131601 62:0.122268 63:0.27684 64:0.301891 65:0.158637 
0.4793061572132079 1:0.548238 4:0.375284 5:0.790143 6:0.003814 7:0.657891 9:0.369893 18:0.617169 23:0.190164 28:0.469697 29:0.424421 30:0.346361 32:0.565379 35:0.638846 36:0.301571 39:0.463668 41:0.481311 43:0.576361 45:0.420647 47:0.398403 48:0.565379 49:0.78808 51:0.385287 55:0.39563 58:0.405161 59:0.559735 60:0.753968 61:0.30108 62:0.474259 63:0.469089 64:0.493811 65:0.265363 
0.95 1:0.295302 4:0.544889 5:0.613386 6:0.646259 7:0.590957 9:0.428826 18:0.779189 23:0.076746 28:0.151515 29:0.112912 30:0.547776 32:0.232258 35:0.258121 36:0.084943 39:0.16289 41:0.155262 43:0.237922 45:0.235738 47:0.482097 48:0.232258 49:0.541674 51:0.439957 55:0.709906 58:0.488451 59:0.228834 60:0.527778 61:0.524491 62:0.127612 63:0.341564 64:0.328972 65:0.266834 
0.95 1:0.596057 4:0.642729 5:0.765058 6:0.694768 7:0.777069 9:0.722883 18:0.787521 23:0.116795 28:0.272727 29:0.241555 30:0.505317 32:0.459607 35:0.186581 36:0.151739 39:0.2841 41:0.279471 43:0.468901 45:0.241408 47:0.484711 48:0.459607 49:0.801936 51:0.299114 55:0.618828 58:0.491053 59:0.454668 60:0.607143 61:0.126701 62:0.236759 63:0.116204 64:0.308529 65:0.100565 
0.95 1:0.337668 4:0.284083 5:0.419605 6:0.304861 7:0.869913 9:0.687409 18:0.419306 23:0.184941 28:0.212121 29:0.159841 30:0.374731 32:0.383723 35:0.147388 36:0.100939 39:0.220836 41:0.217366 43:0.391805 45:0.163638 47:0.522076 48:0.383723 49:0.770708 51:0.196691 55:0.632841 58:0.528238 59:0.379289 60:0.325397 61:0.184766 62:0.170938 63:0.232098 64:0.225926 65:0.074563 
0.95 1:0.458054 4:0.563351 5:0.646574 6:0.592208 7:0.685793 9:0.602413 18:0.740298 23:0.116856 28:0.181818 29:0.164215 30:0.673853 32:0.397636 35:0.184375 36:0.088998 39:0.197071 41:0.186314 43:0.40594 45:0.184023 47:0.448543 48:0.397636 49:0.737032 51:0.346502 55:0.668275 58:0.455059 59:0.393109 60:0.519841 61:0.212369 62:0.098614 63:0.284163 64:0.293964 65:0.203096 
0.95 1:0.57005 4:0.72214 5:0.714236 6:0.762953 7:0.749074 9:0.833607 18:0.789416 23:0.00899 28:0.454545 29:0.40868 30:0.442702 32:-0.05003 35:0.421602 36:0.356087 39:0.464851 41:0.465785 43:-0.048874 45:0.345168 47:0.458732 48:-0.05003 49:0.304542 51:0.400212 55:0.531511 58:0.465199 59:-0.051573 60:0.503968 61:0.069829 62:0.33291 63:0.48384 64:0.473061 65:0.19273 
0.95 1:0.291107 4:0.54257 5:0.597162 6:0.630452 7:0.5087 9:0.44701 18:0.759695 23:0.069815 28:0.136364 29:0.111807 30:0.618605 32:0.339969 35:0.256316 36:0.076849 39:0.147684 41:0.139735 43:0.347353 45:0.236178 47:0.492433 48:0.339969 49:0.603217 51:0.447872 55:0.725585 58:0.498737 59:0.335827 60:0.511905 61:0.51436 62:0.123087 63:0.330472 64:0.317739 65:0.274838 
0.95 1:0.58557 4:0.653462 5:0.750172 6:0.695475 7:0.778509 9:0.709056 18:0.772918 23:0.120022 28:0.272727 29:0.234895 30:0.488171 32:0.475009 35:0.193373 36:0.154044 39:0.283923 41:0.279471 43:0.484549 45:0.232573 47:0.495238 48:0.475009 49:0.809231 51:0.331682 55:0.621957 58:0.501529 59:0.469967 60:0.603175 61:0.134222 62:0.237347 63:0.114837 64:0.305886 65:0.108813 
0.95 1:0.327601 4:0.284083 5:0.437546 6:0.308324 7:0.827445 9:0.670271 18:0.438016 23:0.195517 28:0.212121 29:0.157819 30:0.381652 32:0.471649 35:0.208483 36:0.106766 39:0.220237 41:0.217366 43:0.481135 45:0.160874 47:0.52848 48:0.471649 49:0.816553 51:0.234607 55:0.627591 58:0.534611 59:0.466629 60:0.345238 61:0.225778 62:0.192587 63:0.191395 64:0.215579 65:0.054121 
0.95 1:0.431208 4:0.55016 5:0.637384 6:0.580462 7:0.659305 9:0.625567 18:0.731781 23:0.122979 28:0.166667 29:0.162213 30:0.761269 32:0.363368 35:0.195882 36:0.091324 39:0.182295 41:0.170788 43:0.371125 45:0.183928 47:0.453212 48:0.363368 49:0.706488 51:0.380683 55:0.688707 58:0.459705 59:0.35907 60:0.503968 61:0.234787 62:0.097124 63:0.297346 64:0.29759 65:0.232908 
0.95 1:0.556628 4:0.375284 5:0.794688 6:0.001181 7:0.66767 9:0.368177 18:0.619104 23:0.191622 28:0.424242 29:0.38592 30:0.41712 32:0.427065 35:0.580332 36:0.272601 39:0.421125 41:0.434733 43:0.435839 45:0.395962 47:0.429777 48:0.427065 49:0.675273 51:0.373739 55:0.427933 58:0.436383 59:0.422342 60:0.761905 61:0.296728 62:0.417212 63:0.447301 64:0.462387 65:0.265753 
0.95 1:0.474832 4:0.353568 5:0.31234 6:0.335499 7:1.079854 9:1.073781 18:0.257261 23:0.092013 28:0.393939 29:0.218157 30:0.348483 32:0.410125 35:0.127178 36:0.393946 39:0.401675 41:0.40368 43:0.418629 45:0.24657 47:0.545478 48:0.410125 49:0.687442 51:0.07366 55:0.482779 58:0.551527 59:0.405516 60:0.27381 61:-0.040057 62:0.356992 63:0.305125 64:0.353991 65:0.085321 
0.95 1:0.432047 4:0.417061 5:0.534447 6:0.509761 7:0.883728 9:0.770818 18:0.458002 23:0.102574 28:0.318182 29:0.263937 30:0.375343 32:0.420375 35:0.163497 36:0.187107 39:0.320617 41:0.326049 43:0.429042 45:0.310312 47:0.499446 48:0.420375 49:0.718553 51:0.219296 55:0.598418 58:0.505717 59:0.415697 60:0.380952 61:0.11021 62:0.208051 63:0.271713 64:0.345456 65:0.167391 
0.95 1:0.293624 4:0.540315 5:0.596134 6:0.628377 7:0.519059 9:0.470967 18:0.730099 23:0.070662 28:0.166667 29:0.134369 30:0.583036 32:0.404427 35:0.27473 36:0.103113 39:0.176132 41:0.170788 43:0.41284 45:0.279655 47:0.482835 48:0.404427 49:0.648851 51:0.448952 55:0.702222 58:0.489186 59:0.399855 60:0.515873 61:0.513195 62:0.144473 63:0.366385 64:0.35411 65:0.304322 
0.95 1:0.593121 4:0.642729 5:0.720404 6:0.696329 7:0.769439 9:0.703268 18:0.760885 23:0.11467 28:0.257576 29:0.228918 30:0.493615 32:0.447382 35:0.178947 36:0.125334 39:0.268823 41:0.263945 43:0.456481 45:0.229092 47:0.505426 48:0.447382 49:0.790973 51:0.310729 55:0.613015 58:0.511668 59:0.442525 60:0.603175 61:0.126533 62:0.228545 63:0.077925 64:0.292571 65:0.089402 
0.95 1:0.33557 4:0.290361 5:0.42282 6:0.304492 7:0.868344 9:0.666526 18:0.409588 23:0.197309 28:0.257576 29:0.205037 30:0.367635 32:0.43712 35:0.187333 36:0.135382 39:0.263132 41:0.263945 43:0.446055 45:0.203249 47:0.511965 48:0.43712 49:0.807565 51:0.211343 55:0.608845 58:0.518175 59:0.43233 60:0.309524 61:0.169215 62:0.221365 63:0.062659 64:0.256684 65:0.076834 
0.95 1:0.411493 4:0.521414 5:0.581197 6:0.526834 7:0.632649 9:0.603558 18:0.701868 23:0.110556 28:0.136364 29:0.134268 30:0.790666 32:0.427573 35:0.163041 36:0.074279 39:0.152918 41:0.139735 43:0.436355 45:0.160952 47:0.481481 48:0.427573 49:0.736597 51:0.356478 55:0.686817 58:0.487839 59:0.422847 60:0.5 61:0.260574 62:0.070928 63:0.222927 64:0.246956 65:0.138509 
0.95 1:0.547399 4:0.375284 5:0.742913 6:0.031296 7:0.65214 9:0.479714 18:0.557789 23:0.193843 28:0.439394 29:0.415891 30:0.410756 32:0.529892 35:0.645452 36:0.266515 39:0.436235 41:0.450259 43:0.540308 45:0.409019 47:0.416256 48:0.529892 49:0.763475 51:0.412487 55:0.432893 58:0.415213 59:0.520884 60:0.753968 61:0.302188 62:0.455564 63:0.446019 64:0.461681 65:0.232739 
0.95 1:0.440856 4:0.349775 5:0.289739 6:0.311472 7:1.077253 9:0.979884 18:0.24449 23:0.087581 28:0.424242 29:0.229119 30:0.240666 32:0.422474 35:0.261983 36:0.405566 39:0.430211 41:0.434733 43:0.431175 45:0.247745 47:0.545681 48:0.422474 49:0.682111 51:0.158672 55:0.493016 58:0.544014 59:0.414849 60:0.345238 61:0.064034 62:0.420722 63:0.348613 64:0.364407 65:0.081703 
0.95 1:-0.002517 4:0.013027 5:0.146016 6:0.146401 7:0.603558 9:0.462152 18:0.275193 23:0.357962 28:0.212121 29:0.259765 30:0.673248 32:0.231247 35:0.44069 36:0.066928 39:0.225806 41:0.217366 43:0.236894 45:0.206161 47:0.679956 48:0.231247 49:0.145708 51:0.531638 55:0.821441 58:0.677642 59:0.226083 60:-0.027778 61:0.616424 62:0.275426 63:0.207345 64:0.239541 65:0.086801 
0.95 1:0.407718 4:0.399921 5:0.502583 6:0.480797 7:0.893133 9:0.791753 18:0.434151 23:0.09265 28:0.30303 29:0.252891 30:0.420789 32:0.444496 35:0.16731 36:0.18383 39:0.306036 41:0.310523 43:0.453549 45:0.300161 47:0.513925 48:0.444496 49:0.71472 51:0.237935 55:0.613708 58:0.512411 59:0.436587 60:0.365079 61:0.125439 62:0.20902 63:0.24608 64:0.333702 65:0.139567 
0.95 1:0.285654 4:0.535227 5:0.624033 6:0.653616 7:0.577157 9:0.464101 18:0.80649 23:0.10766 28:0.151515 29:0.14012 30:0.653577 32:0.315773 35:0.277932 36:0.083742 39:0.160691 41:0.155262 43:0.322771 45:0.292814 47:0.48948 48:0.315773 49:0.569575 51:0.465531 55:0.719992 58:0.488084 59:0.309522 60:0.519841 61:0.538941 62:0.139104 63:0.373221 64:0.361032 65:0.343845 
0.95 1:0.593121 4:0.642729 5:0.741805 6:0.696205 7:0.767204 9:0.711414 18:0.761278 23:0.110729 28:0.257576 29:0.215594 30:0.449436 32:0.248225 35:0.16662 36:0.124634 39:0.268706 41:0.263945 43:0.254144 45:0.216275 47:0.517165 48:0.248225 49:0.63191 51:0.321524 55:0.627998 58:0.515636 59:0.242843 60:0.599206 61:0.123404 62:0.217689 63:0.092921 64:0.283632 65:0.082059 
0.95 1:0.338087 4:0.294819 5:0.436611 6:0.308729 7:0.867515 9:0.682128 18:0.425662 23:0.191407 28:0.242424 29:0.194377 30:0.398203 32:0.431767 35:0.204619 36:0.128369 39:0.248501 41:0.248419 43:0.440616 45:0.197035 47:0.526458 48:0.431767 49:0.785428 51:0.242926 55:0.623418 58:0.524884 59:0.424022 60:0.333333 61:0.193534 62:0.214169 63:0.049985 64:0.239357 65:0.070097 
0.95 1:0.397232 4:0.485648 5:0.552909 6:0.502991 7:0.651537 9:0.587583 18:0.660177 23:0.130551 28:0.136364 29:0.124954 30:0.747882 32:0.333613 35:0.140202 36:0.080149 39:0.152296 41:0.139735 43:0.340895 45:0.149359 47:0.49523 48:0.333613 49:0.662639 51:0.359143 55:0.688761 58:0.493806 59:0.327131 60:0.452381 61:0.232697 62:0.065789 63:0.208987 64:0.240709 65:0.124783 
0.95 1:0.535654 4:0.375284 5:0.780705 6:0.000247 7:0.647307 9:0.373682 18:0.583089 23:0.190514 28:0.439394 29:0.423368 30:0.451318 32:0.488753 35:0.617367 36:0.284212 39:0.435788 41:0.450259 43:0.498513 45:0.421292 47:0.405215 48:0.488753 49:0.706922 51:0.394458 55:0.427731 58:0.404225 59:0.480275 60:0.757937 61:0.321354 62:0.445275 63:0.466526 64:0.479944 65:0.286447 
0.95 1:0.46854 4:0.353568 5:0.252126 6:0.2743 7:1.006488 9:0.975396 18:0.237922 23:0.171168 28:0.378788 29:0.221592 30:0.36903 32:0.402163 35:0.124512 36:0.352111 39:0.387075 41:0.388154 43:0.41054 45:0.246798 47:0.560465 48:0.402163 49:0.660971 51:0.091929 55:0.501088 58:0.558727 59:0.394799 60:0.269841 61:-0.037871 62:0.335125 63:0.295258 64:0.346557 65:0.089371 
0.95 1:0.408977 4:0.399921 5:0.491934 6:0.470488 7:0.903592 9:0.799023 18:0.426391 23:0.102385 28:0.30303 29:0.250642 30:0.391023 32:0.419656 35:0.159933 36:0.173631 39:0.306245 41:0.310523 43:0.428312 45:0.301076 47:0.512776 48:0.419656 49:0.696411 51:0.233003 55:0.619606 58:0.511268 59:0.412067 60:0.365079 61:0.123763 62:0.202515 63:0.247789 64:0.325294 65:0.144972 
0.95 1:0.600671 4:0.644588 5:0.740352 6:0.686397 7:0.776344 9:0.750515 18:0.765805 23:0.109293 28:0.242424 29:0.202985 30:0.495133 32:0.439044 35:0.153109 36:0.125939 39:0.254311 41:0.248419 43:0.44801 45:0.205926 47:0.523902 48:0.439044 49:0.766336 51:0.309211 55:0.632522 58:0.52234 59:0.431205 60:0.599206 61:0.115898 62:0.204934 63:0.087153 64:0.273021 65:0.077134 
0.95 1:0.34396 4:0.284083 5:0.429331 6:0.310438 7:0.869369 9:0.678233 18:0.419874 23:0.181513 28:0.227273 29:0.177854 30:0.415426 32:0.479132 35:0.154212 36:0.120601 39:0.233241 41:0.232892 43:0.488738 45:0.183962 47:0.536176 48:0.479132 49:0.812977 51:0.199321 55:0.631191 58:0.534555 59:0.470777 60:0.329365 61:0.17924 62:0.186479 63:0.231269 64:0.242444 65:0.075508 
0.95 1:0.503775 4:0.325151 5:0.388218 6:0.255011 7:0.843961 9:0.735366 18:0.339469 23:0.200137 28:0.090909 29:0.0358 30:0.396528 32:0.251432 35:-0.043353 36:0.075913 39:0.118523 41:0.093157 43:0.257402 45:0.103352 47:0.660665 48:0.251432 49:0.48052 51:0.13079 55:0.714907 58:0.658444 59:0.246008 60:0.396825 61:0.044134 62:0.048459 63:0.104111 64:0.092089 65:0.022805 
0.95 1:0.392617 4:0.478525 5:0.548202 6:0.497602 7:0.648271 9:0.605236 18:0.647959 23:0.123392 28:0.121212 29:0.123424 30:0.841408 32:0.317322 35:0.145374 36:0.078438 39:0.137379 41:0.124209 43:0.324344 45:0.145872 47:0.49523 48:0.317322 49:0.659054 51:0.35939 55:0.69637 58:0.493806 59:0.31105 60:0.444444 61:0.231394 62:0.065693 63:0.189909 64:0.237863 65:0.131939 
0.95 1:0.399748 4:0.380051 5:0.44739 6:0.435044 7:0.717886 9:0.756098 18:0.518855 23:0.188344 28:0.227273 29:0.19937 30:0.505356 32:0.401404 35:0.124226 36:0.108128 39:0.241432 41:0.19494 43:0.375795 45:0.194527 47:0.657722 48:0.401404 49:0.537226 51:0.314632 55:0.660447 58:0.593799 59:0.372829 60:0.448413 61:0.2246 62:0.142916 63:0.1538 64:0.258726 65:0.066052 
0.95 1:0.421141 4:0.494031 5:0.50869 6:0.52184 7:0.777012 9:0.693478 18:0.486183 23:0.087128 28:0.212121 29:0.190764 30:0.651706 32:0.335652 35:0.112977 36:0.133712 39:0.227496 41:0.180564 43:0.313941 45:0.22505 47:0.650876 48:0.335652 49:0.400291 51:0.396646 55:0.663355 58:0.579271 59:0.308869 60:0.428571 61:0.17279 62:0.118078 63:0.298372 64:0.28696 65:0.163767 
0.95 1:0.32844 4:0.328674 5:0.311008 6:0.333197 7:0.882886 9:0.879148 18:0.338744 23:0.061831 28:0.439394 29:0.403819 30:0.55203 32:0.358498 35:0.326929 36:0.321903 39:0.444727 41:0.396205 43:0.335433 45:0.3464 47:0.611729 48:0.358498 49:0.176398 51:0.265792 55:0.624016 58:0.548027 59:0.332493 60:0.277778 61:0.142345 62:0.384234 63:0.377094 64:0.397455 65:0.103935 
0.95 1:0.32802 4:0.33328 5:0.319763 6:0.342755 7:0.866867 9:0.847535 18:0.341139 23:0.068332 28:0.424242 29:0.43001 30:0.544202 32:0.349425 35:0.310294 36:0.254504 39:0.430103 41:0.381829 43:0.326898 45:0.368532 47:0.625885 48:0.349425 49:0.154679 51:0.255752 55:0.627913 58:0.562115 59:0.323963 60:0.281746 61:0.147836 62:0.34386 63:0.397083 64:0.405424 65:0.143941 
0.95 1:0.41443 4:0.746169 5:0.729292 6:0.780975 7:0.591166 9:0.636843 18:0.976521 23:-0.003079 28:0.333333 29:0.1568 30:0.340894 32:0.467661 35:0.477408 36:0.372085 39:0.362163 41:0.295572 43:0.438123 45:0.15464 47:0.742751 48:0.467661 49:0.583461 51:0.443338 55:0.667744 58:0.670703 59:0.432239 60:0.710317 61:0.473352 62:0.376368 63:0.280941 64:0.346597 65:0.110364 
0.95 1:0.595218 4:0.494766 5:0.645156 6:0.382808 7:0.701734 9:0.684414 18:0.559936 23:0.153631 28:0.227273 29:0.24511 30:0.617932 32:0.429652 35:0.16804 36:0.089309 39:0.239125 41:0.177996 43:0.386252 45:0.216458 47:0.599699 48:0.429652 49:0.679629 51:0.321985 55:0.499293 58:0.52834 59:0.396718 60:0.611111 61:0.130665 62:0.177376 63:0.041013 64:0.235346 65:0.06793 
0.95 1:0.681208 4:0.602526 5:0.746664 6:0.568715 7:0.952468 9:0.650969 18:0.582847 23:0.111564 28:0.242424 29:0.181863 30:0.380945 32:0.360361 35:0.080177 36:0.149364 39:0.264941 41:0.209316 43:0.337185 45:0.342896 47:0.514147 48:0.360361 49:0.635868 51:0.243157 55:0.535574 58:0.443202 59:0.331961 60:0.65873 61:0.086237 62:0.121788 63:0.330669 64:0.330153 65:0.211902 
0.9258808400242925 1:0.588926 4:0.679725 5:0.681666 6:0.683194 7:0.722265 9:0.596431 18:0.66636 23:0.064462 28:0.272727 29:0.13797 30:0.390199 32:0.28819 35:0.19808 36:0.273297 39:0.296704 41:0.279471 43:0.294746 45:0.126594 47:0.666667 48:0.28819 49:0.473778 51:0.353232 55:0.67015 58:0.618129 59:0.270225 60:0.59127 61:0.121345 62:0.263278 63:0.278548 64:0.315088 65:0.137724 
0.95 1:1.399748 4:1.91807 5:1.736501 6:1.822665 7:0.789653 9:0.353022 18:1.247076 23:0.05514 28:0.727273 29:1.185206 30:0.368981 32:0.788823 35:0.489149 36:0.329153 39:0.730549 41:0.745256 43:0.803374 45:1.195633 47:0.159439 48:0.788823 49:0.873173 51:0.45552 55:0.243963 58:0.113347 59:0.746553 60:1.797619 61:0.188687 62:0.606624 63:1.063782 64:1.060389 65:1.459969 
0.95 1:1.042785 4:1.157467 5:0.947353 6:0.964643 7:0.692114 9:0.614909 18:0.80763 23:0.125092 28:0.242424 29:0.213381 30:0.654782 32:0.412116 35:0.391302 36:0.139858 39:0.204424 41:0.248419 43:0.420652 45:0.342285 47:0.386917 48:0.412116 49:0.739935 51:0.488265 55:0.566949 58:0.339728 59:0.388135 60:1.678571 61:0.373773 62:0.26927 63:0.041013 64:0.262965 65:0.075164 
0.95 1:1.042785 4:1.157467 5:0.947353 6:0.964643 7:0.692114 9:0.614909 18:0.80763 23:0.125092 28:0.242424 29:0.213381 30:0.654782 32:0.412116 35:0.391302 36:0.139858 39:0.204424 41:0.248419 43:0.420652 45:0.342285 47:0.386917 48:0.412116 49:0.739935 51:0.488265 55:0.566949 58:0.339728 59:0.388135 60:1.678571 61:0.373773 62:0.26927 63:0.041013 64:0.262965 65:0.075164 
0.95 1:0.46854 4:0.813134 5:0.792957 6:0.844905 7:0.55752 9:0.554947 18:0.89963 23:0.039426 28:0.242424 29:0.161824 30:0.413262 32:0.35673 35:0.386075 36:0.147891 39:0.259229 41:0.270414 43:0.3816 45:0.294102 47:0.567183 48:0.35673 49:0.605498 51:0.495504 55:0.670185 58:0.519126 59:0.335438 60:0.730159 61:0.396937 62:0.324113 63:0.080318 64:0.22908 65:0.034229 
0.95 1:1.375839 4:1.900867 5:1.735252 6:1.819311 7:0.742041 9:0.341183 18:1.23682 23:0.05779 28:0.681818 29:1.120632 30:0.389008 32:0.765809 35:0.452197 36:0.315575 39:0.685369 41:0.739434 43:0.814528 45:1.132085 47:0.196347 48:0.765809 49:0.853709 51:0.477286 55:0.297594 58:0.150077 59:0.724656 60:1.797619 61:0.201483 62:0.527794 63:1.008243 64:1.004143 65:1.513982 
0.95 1:1.07802 4:1.15795 5:1.151275 6:0.647296 7:0.606719 9:0.146641 18:0.597315 23:0.183732 28:0.287879 29:0.300053 30:0.709022 32:0.375081 35:0.392319 36:0.154866 39:0.248015 41:0.318933 43:0.401021 45:0.410899 47:0.309421 48:0.375081 49:0.729888 51:0.446469 55:0.50162 58:0.262606 59:0.352898 60:1.666667 61:0.339406 62:0.323742 63:0.170889 64:0.303578 65:0.091509 
0.95 1:1.07802 4:1.15795 5:1.151275 6:0.647296 7:0.606719 9:0.146641 18:0.597315 23:0.183732 28:0.287879 29:0.300053 30:0.709022 32:0.375081 35:0.392319 36:0.154866 39:0.248015 41:0.318933 43:0.401021 45:0.410899 47:0.309421 48:0.375081 49:0.729888 51:0.446469 55:0.50162 58:0.262606 59:0.352898 60:1.666667 61:0.339406 62:0.323742 63:0.170889 64:0.303578 65:0.091509 
0.95 1:0.195889 4:0.297837 5:0.372971 6:0.380689 7:0.624791 9:0.701202 18:0.552187 23:0.106511 28:0.712121 29:0.913585 30:0.395631 32:0.825055 35:0.966713 36:0.535738 39:0.712882 41:0.508967 43:0.645703 45:0.825601 47:0.26311 48:0.825055 49:0.944322 51:0.438772 55:0.349209 58:0.224233 59:0.786072 60:0.234127 61:0.357846 62:0.903673 63:0.348613 64:0.693588 65:0.310563 
0.95 1:0.036074 4:0.098006 5:0.173133 6:0.188246 7:0.471519 9:0.48201 18:0.263738 23:0.263425 28:-0.015152 29:-0.004077 30:0.762889 32:0.1456 35:0.130265 36:0.059545 39:-0.034237 41:-0.079513 43:0.101697 45:-0.008687 47:1.063738 48:0.1456 49:-0.149349 51:0.717566 55:1.035375 58:1.013286 59:0.134558 60:0.059524 61:0.635045 62:-0.001365 63:0.019042 64:0.002342 65:0.007973 
0.95 1:0.395134 4:0.429027 5:0.479023 6:0.505689 7:0.811296 9:0.80578 18:0.502084 23:0.054008 28:1.060606 29:0.767285 30:0.032627 32:0.737916 35:1.076137 36:1.295312 39:1.031209 41:0.859114 43:0.618232 45:0.775552 47:0.057245 48:0.737916 49:0.962945 51:0.205285 55:-0.008767 58:0.011646 59:0.698117 60:0.380952 61:0.15959 62:1.457723 63:0.748594 64:0.856946 65:0.14352 
0.95 1:0.013003 4:0.172888 5:0.273713 6:0.296891 7:0.397553 9:0.398405 18:0.661852 23:0.088445 28:0.378788 29:0.246021 30:0.49442 32:0.364748 35:1.337388 36:0.401266 39:0.406499 41:0.316623 43:0.327377 45:0.205768 47:0.660853 48:0.364748 49:0.374296 51:1.122262 55:0.642632 58:0.604629 59:0.340703 60:0.071429 61:0.843885 62:0.659088 63:0.353853 64:0.341418 65:0.098083 
0.95 1:0.037332 4:0.129393 5:0.221479 6:0.242393 7:0.505285 9:0.514634 18:0.421686 23:0.08279 28:0.515152 29:0.504338 30:0.401898 32:0.570533 35:1.082957 36:0.41951 39:0.537273 41:0.441387 43:0.514047 45:0.436361 47:0.580534 48:0.570533 49:0.700463 51:0.811739 55:0.515044 58:0.524697 59:0.535325 60:0.02381 61:0.519943 62:0.741377 63:0.635706 64:0.626861 65:0.575336 
0.95 1:0.108641 4:0.259891 5:0.355505 6:0.336181 7:0.504362 9:0.236298 18:0.4934 23:0.165971 28:0.454545 29:0.640774 30:0.548811 32:0.419219 35:0.879109 36:0.217245 39:0.454867 41:0.385936 43:0.376788 45:0.55005 47:0.324289 48:0.419219 49:0.621078 51:0.694284 55:0.537961 58:0.277403 59:0.394893 60:0.210317 61:0.626146 62:0.517616 63:0.656212 64:0.647628 65:0.81274 
0.95 1:0.102349 4:0.266021 5:0.371619 6:0.382364 7:0.443669 9:0.406109 18:0.628365 23:0.147475 28:0.212121 29:0.181728 30:0.524742 32:0.35045 35:0.663937 36:0.087141 39:0.223717 41:0.164134 43:0.314407 45:0.176332 47:0.606589 48:0.35045 49:0.580959 51:0.748069 55:0.714802 58:0.558341 59:0.329462 60:0.210317 61:0.656242 62:0.333814 63:0.211218 64:0.22059 65:0.078605 
0.95 1:0.534396 4:0.838505 5:0.80952 6:0.865769 7:0.662315 9:0.587466 18:0.909858 23:-0.002194 28:0.318182 29:0.318681 30:0.792528 32:0.312366 35:0.432649 36:0.234172 39:0.331674 41:0.281196 43:0.292036 45:0.265291 47:0.399107 48:0.312366 49:0.572627 51:0.461197 55:0.508052 58:0.382718 59:0.301741 60:0.674603 61:0.251821 62:0.293373 63:0.383474 64:0.371416 65:0.136774 
0.95 1:0.658138 4:0.83696 5:0.83568 6:0.854452 7:0.789328 9:0.158855 18:0.81465 23:0.171431 28:0.212121 29:0.485532 30:1.065357 32:0.35719 35:0.122136 36:-0.016547 39:0.223127 41:0.164134 43:0.320521 45:0.380736 47:0.337706 48:0.35719 49:0.56633 51:0.38034 55:0.613027 58:0.321613 59:0.345442 60:0.980159 61:0.339864 62:0.142332 63:0.402315 64:0.390497 65:0.274379 
0.95 1:0.358641 4:0.288045 5:0.486741 6:0.218298 7:0.694451 9:0.446467 18:0.494204 23:0.396815 28:0.636364 29:0.989488 30:0.54059 32:0.543986 35:0.942808 36:0.349819 39:0.641577 41:0.583094 43:0.509923 45:0.709577 47:0.175065 48:0.543986 49:0.862017 51:0.312703 55:0.307695 58:0.16747 59:0.531154 60:0.472222 61:0.319747 62:0.691147 63:0.04614 64:0.624042 65:0.427146 
0.95 1:0.380872 4:0.313943 5:0.446554 6:0.302091 7:0.616117 9:0.38957 18:0.37846 23:0.468483 28:0.621212 29:1.01158 30:0.553715 32:0.643846 35:0.924277 36:0.320515 39:0.626954 41:0.538425 43:0.580551 45:0.784659 47:0.175194 48:0.643846 49:0.929926 51:0.347769 55:0.309802 58:0.159884 59:0.624915 60:0.5 61:0.311111 62:0.685317 63:0.133293 64:0.596628 65:0.310446 
0.95 1:0.358641 4:0.288045 5:0.486741 6:0.218298 7:0.694451 9:0.446467 18:0.494204 23:0.396815 28:0.636364 29:0.989488 30:0.54059 32:0.543986 35:0.942808 36:0.349819 39:0.641577 41:0.583094 43:0.509923 45:0.709577 47:0.175065 48:0.543986 49:0.862017 51:0.312703 55:0.307695 58:0.16747 59:0.531154 60:0.472222 61:0.319747 62:0.691147 63:0.04614 64:0.624042 65:0.427146 
0.95 1:0.387584 4:0.297837 5:0.607832 6:0.108487 7:0.638402 9:0.515379 18:0.614712 23:0.221954 28:0.515152 29:0.656715 30:0.7776 32:0.517342 35:0.659958 36:0.416135 39:0.520096 41:0.468085 43:0.484859 45:0.50081 47:0.22421 48:0.517342 49:0.855751 51:0.299239 55:0.368353 58:0.216379 59:0.505017 60:0.464286 61:0.260839 62:0.494457 63:0.278548 64:0.474316 65:0.143854 
0.95 1:0.397651 4:0.326822 5:0.312741 6:0.284485 7:0.766495 9:0.703704 18:0.215894 23:0.466128 28:0.484848 29:0.638336 30:0.730157 32:0.402876 35:0.397928 36:0.284024 39:0.489772 41:0.413661 43:0.361963 45:0.410057 47:0.288014 48:0.402876 49:0.680552 51:0.199248 55:0.456483 58:0.272161 59:0.389983 60:0.301587 61:0.071537 62:0.456468 63:0.256333 64:0.436879 65:0.111396 
-0.3120125008528927 1:0.277685 4:0.171359 5:0.17856 6:0.187921 7:0.960235 9:1.087566 18:0.207951 23:0.184048 28:0.121212 29:0.255839 30:1.124643 32:0.205617 35:-0.076469 36:0.00315 39:0.120938 41:0.159312 43:0.233441 45:0.347046 47:0.412403 48:0.205617 49:0.386923 51:0.01129 55:0.570064 58:0.357377 59:0.190205 60:0.162698 61:0.076149 62:0.039743 63:0 64:0.122131 65:0.035555 
-1.425 1:0.291527 4:0.373688 5:0.597044 6:0.096034 7:0.417541 9:0.255154 18:0.482973 23:0.275552 28:0.409091 29:0.838687 30:0.748008 32:0.543826 35:0.801311 36:0.128465 39:0.429188 41:0.479961 43:0.606929 45:0.761756 47:0.297158 48:0.543826 49:0.631354 51:0.777564 55:0.575824 58:0.242687 59:0.510067 60:0.56746 61:0.586297 62:0.488409 63:0.109369 64:0.601063 65:0.452275 
-1.425 1:0.356544 4:0.153628 5:0.031633 6:0.041284 7:0.757753 9:0.416253 18:0.095329 23:0.479037 28:0.060606 29:0.013961 30:0.538337 32:0.17286 35:-0.099919 36:0.111162 39:0.09438 41:0.091807 43:0.197266 45:0.052168 47:0.906331 48:0.17286 49:0.372559 51:0.118481 55:0.824552 58:0.848923 59:0.159225 60:0.198413 61:0.009013 62:0.053441 63:0.059469 64:0.051112 65:0.007395 
-1.425 1:0.124161 4:0.137045 5:0.212271 6:0.219762 7:0.539841 9:0.558378 18:0.300292 23:0.300093 28:0.424242 29:0.722005 30:0.40766 32:0.677411 35:0.530717 36:-0.001397 39:0.413835 41:0.407263 43:0.661757 45:0.74025 47:0.2904 48:0.677411 49:0.96512 51:0.265982 55:0.451259 58:0.336251 59:0.694481 60:0.134921 61:0.400382 62:0.449527 63:0.290511 64:0.41841 65:0.146085 
-1.425 1:0.283557 4:0.366961 5:0.584265 6:0.095539 7:0.424214 9:0.255406 18:0.45839 23:0.284258 28:0.409091 29:0.825936 30:0.72665 32:0.540273 35:0.795107 36:0.11509 39:0.428823 41:0.479961 43:0.603005 45:0.746259 47:0.302695 48:0.540273 49:0.635053 51:0.782253 55:0.580908 58:0.255912 59:0.51007 60:0.555556 61:0.592244 62:0.477373 63:0.078609 64:0.603126 65:0.472631 
-1.057466574449906 1:0.141779 4:0.020686 5:-0.086903 6:-0.0816 7:0 9:0 18:0 23:-0.030569 28:0.333333 29:0.838558 30:0.922835 32:-0.05003 35:0.173973 36:0.086343 39:0.355014 41:0.317689 43:-0.048874 45:0.640298 47:0.282946 48:-0.05003 49:1.002253 51:-0.060848 55:0.635594 58:0.328833 59:-0.051573 60:-0.019841 61:0.036306 62:0.318583 63:0.464329 64:0.453301 65:0.189573 
-0.6564657589321462 1:0.161913 4:0.060919 5:0.035863 6:0.048369 7:1.247736 9:0 18:0.075566 23:-0.012272 28:0.151515 29:0.213458 30:1.375748 32:0.374369 35:0.249155 36:0.101416 39:0.181003 41:0.138541 43:0.365718 45:0.177363 47:0.527132 48:0.374369 49:0.598641 51:0.138887 55:0.817305 58:0.571842 59:0.383685 60:0.051587 61:0.126053 62:0.282485 63:0.097407 64:0.095322 65:-0.002149 
-1.425 1:0.114933 4:0.1342 5:0.196878 6:0.209626 7:0.530954 9:0.513839 18:0.275147 23:0.251701 28:0.393939 29:0.677869 30:0.439587 32:0.64573 35:0.587307 36:-0.002897 39:0.383845 41:0.377405 43:0.630808 45:0.680806 47:0.310674 48:0.64573 49:0.953722 51:0.247381 55:0.474519 58:0.356428 59:0.661989 60:0.134921 61:0.434962 62:0.487045 63:0.13073 64:0.373144 65:0.102353 
-1.425 1:0.768876 4:1.20292 5:1.112994 6:1.184345 7:0.615708 9:0.412758 18:1.302072 23:0.037956 28:0.015152 29:-0.000914 30:0.354821 32:0.159141 35:0.077153 36:0.065137 39:0.002433 41:0.00418 43:0.155463 45:-0.003915 47:-0.095666 48:0.159141 49:0.989856 51:-0.152995 55:0.657845 58:-0.047953 59:0.162949 60:1.126984 61:0.317811 62:0.011064 63:0.023303 64:0.006658 65:0.00144 
-1.425 1:0.270973 4:0.360254 5:0.564689 6:0.179161 7:0.407758 9:0.268555 18:0.548512 23:0.278494 28:0.393939 29:0.777099 30:0.756133 32:0.516877 35:0.849078 36:0.142871 39:0.414025 41:0.463085 43:0.577168 45:0.706439 47:0.315891 48:0.516877 49:0.590681 51:0.833817 55:0.592346 58:0.269045 59:0.487809 60:0.559524 61:0.633418 62:0.485254 63:0.133293 64:0.563403 65:0.432402 
-0.5958256094967764 1:0.594799 4:0.254688 5:0.210748 6:0.131447 7:1.093942 9:0.863857 18:0.136538 23:0.353514 28:0.015152 29:0.006319 30:0.999069 32:0.130366 35:-0.122969 36:0.056389 39:0.044653 41:0.041178 43:0.15034 45:0.094425 47:0.848622 48:0.130366 49:0.147704 51:0.117943 55:0.710559 58:0.799207 59:0.120065 60:0.34127 61:-0.081223 62:0.022926 63:0.020507 64:0.004737 65:-0.000142 
-0.3406367819939682 1:0.094799 4:0.079069 5:0.126686 6:0.141041 7:0.791977 9:0.678482 18:0.209936 23:0.274535 28:0.045455 29:0.02609 30:0.544148 32:0.282586 35:0.053855 36:0.01414 39:0.061895 41:0.074931 43:0.318438 45:0.021611 47:0.79845 48:0.282586 49:0.398136 51:0.339548 55:0.825311 58:0.749277 59:0.264894 60:0.051587 61:0.325374 62:0.008268 63:0.133293 64:0.118049 65:0.074168 
-1.425 1:0.08599 4:0.124262 5:0.222905 6:0.208693 7:0.484844 9:0.513589 18:0.375396 23:0.504893 28:0.409091 29:0.627701 30:0.377678 32:0.598251 35:0.699027 36:-0.022309 39:0.39696 41:0.367453 43:0.560971 45:0.663439 47:0.318534 48:0.598251 49:0.906368 51:0.345573 55:0.473565 58:0.36425 59:0.613295 60:0.138889 61:0.569724 62:0.458444 63:0.366556 64:0.427489 65:0.207793 
-1.17600806949157 1:0.726091 4:1.20292 5:1.119662 6:1.185332 7:0.608568 9:0.400728 18:1.056465 23:0.06048 28:0.015152 29:0.000475 30:0.318141 32:0.155093 35:0.117802 36:0.052961 39:0.000539 41:-0.006325 43:0.144087 45:-0.00041 47:-0.093577 48:0.155093 49:0.988143 51:-0.131739 55:0.655939 58:-0.045874 59:0.158798 60:1.18254 61:0.40095 62:0.014447 63:0.033836 64:0.017325 65:0.002964 
-1.425 1:0.295721 4:0.370007 5:0.58881 6:0.074301 7:0.415629 9:0.261995 18:0.516663 23:0.288446 28:0.363636 29:0.758058 30:0.829341 32:0.534269 35:0.756431 36:0.134925 39:0.384627 41:0.429332 43:0.596375 45:0.686091 47:0.317829 48:0.534269 49:0.642934 51:0.761401 55:0.629936 58:0.270974 59:0.504357 60:0.56746 61:0.575092 62:0.475047 63:0.10766 64:0.539937 65:0.330878 
-1.425 1:0.601091 4:0.270106 5:0.328859 6:0.174056 7:1.215758 9:0.893028 18:0.227923 23:0.446389 28:0.015152 29:-0.002231 30:0.490396 32:0.159785 35:-0.088556 36:0.080025 39:0.043255 41:0.041178 43:0.182827 45:0.116701 47:0.828381 48:0.159785 49:0.201242 51:0.188312 55:0.693586 58:0.779064 59:0.148055 60:0.424603 61:-0.020759 62:0.014667 63:0.010253 64:0.009087 65:0.000356 
-0.2451860205557183 1:0.144715 4:0.09496 5:0.170853 6:0.185799 7:0.950038 9:0.832534 18:0.200153 23:0.243436 28:0.19697 29:0.369603 30:0.755258 32:0.163899 35:0.078619 36:-0.010915 39:0.208841 41:0.183328 43:0.160111 45:0.327747 47:0.468439 48:0.163899 49:0.178671 51:0.130076 55:0.691362 58:0.513432 59:0.167829 60:0.063492 61:0.191945 62:0.170479 63:0.03076 64:0.183917 65:0.046452 
-1.425 1:0.319211 4:0.410983 5:0.654068 6:0.145264 7:0.432534 9:0.267134 18:0.572904 23:0.279606 28:0.348485 29:0.748552 30:0.850166 32:0.575664 35:0.734461 36:0.120112 39:0.370817 41:0.443907 43:0.673495 45:0.684868 47:0.313249 48:0.575664 49:0.644955 51:0.766078 55:0.632582 58:0.27413 59:0.547351 60:0.619048 61:0.579843 62:0.446948 63:0.174306 64:0.517997 65:0.333271 
-1.425 1:0.094379 4:0.081411 5:0.154367 6:0.171933 7:0.804106 9:0.755701 18:0.230023 23:0.225638 28:0.060606 29:0.023943 30:0.37163 32:0.24582 35:0.005723 36:0.049107 39:0.089209 41:0.108683 43:0.292687 45:0.017429 47:0.983204 48:0.24582 49:0.13868 51:0.278182 55:0.903776 58:0.940855 59:0.231619 60:0.051587 61:0.326949 62:0.013976 63:0.12304 64:0.107665 65:0.042771 
-1.425 1:0.139681 4:0.09496 5:0.22212 6:0.217458 7:0.955701 9:0.947782 18:0.240219 23:0.372363 28:0.212121 29:0.393525 30:0.734451 32:0.16782 35:0.143733 36:-0.008318 39:0.223526 41:0.198257 43:0.163942 45:0.346086 47:0.456811 48:0.16782 49:0.174429 51:0.190582 55:0.671474 58:0.50186 59:0.171851 60:0.063492 61:0.205766 62:0.160555 63:0.112786 64:0.211278 65:0.048446 
-1.425 1:0.322148 4:0.410983 5:0.658424 6:0.235415 7:0.434754 9:0.304149 18:0.529012 23:0.274426 28:0.348485 29:0.733848 30:0.840182 32:0.405662 35:0.663465 36:0.099435 39:0.370486 41:0.412456 43:0.454352 45:0.666306 47:0.313111 48:0.405662 49:0.467656 51:0.711562 55:0.654965 58:0.273993 59:0.384622 60:0.595238 61:0.543165 62:0.435678 63:0.155664 64:0.517829 65:0.330806 
-1.425 1:0.098574 4:0.050115 5:0.155322 6:0.140226 7:0.861167 9:0.716161 18:0.195675 23:0.306591 28:0.348485 29:0.68784 30:0.772251 32:0.450269 35:0.498454 36:0.133292 39:0.367256 41:0.332618 43:0.439864 45:0.530959 47:0.341731 48:0.450269 49:0.653118 51:0.261499 55:0.628794 58:0.39505 59:0.46488 60:0.055556 61:0.320517 62:0.366112 63:0.389626 64:0.377647 65:0.129433 
-1.425 1:0.229027 4:0.304935 5:0.431854 6:0.400133 7:0.677114 9:0.390043 18:0.425361 23:0.234294 28:0.469697 29:0.6137 30:0.359 32:0.505857 35:0.539884 36:0.196261 39:0.473888 41:0.45205 43:0.494168 45:1.399369 47:-0.152885 48:0.505857 49:0.951398 51:0.051493 55:0.661972 58:-0.097182 59:0.522264 60:0.301587 61:0.37645 62:0.38928 63:0.639123 64:0.642684 65:0.779267 
-1.425 1:0.337248 4:0.421314 5:0.638186 6:0.154803 7:0.432425 9:0.309249 18:0.561763 23:0.277328 28:0.348485 29:0.72361 30:0.845978 32:0.477448 35:0.676528 36:0.106947 39:0.371334 41:0.412456 43:0.533627 45:0.662015 47:0.305359 48:0.477448 49:0.534855 51:0.730294 55:0.646487 58:0.266278 59:0.453337 60:0.626984 61:0.545385 62:0.43377 63:0.112786 64:0.510531 65:0.321797 
-0.4430383544868613 1:0.645134 4:0.267096 5:0.242203 6:0.195435 7:1.642262 9:1.054072 18:0.149425 23:0.400316 28:0 29:-0.002896 30:0.655012 32:0.162141 35:-0.165911 36:0.07711 39:0.028458 41:0.024302 43:0.18543 45:0.12885 47:0.808038 48:0.162141 49:0.257104 51:0.041565 55:0.66937 58:0.766533 59:0.15152 60:0.345238 61:-0.112799 62:-0.006492 63:0.020507 64:0.018248 65:0.008648 
-1.425 1:0.097315 4:0.048967 5:0.161355 6:0.143375 7:0.904401 9:0.808183 18:0.194172 23:0.364733 28:0.378788 29:0.756586 30:0.736745 32:0.501982 35:0.469472 36:0.143506 39:0.396972 41:0.362476 43:0.490383 45:0.586501 47:0.318475 48:0.501982 49:0.732337 51:0.224992 55:0.607862 58:0.371906 59:0.518264 60:0.035714 61:0.279497 62:0.355527 63:0.460911 64:0.44984 65:0.205657 
-1.425 1:0.032718 4:0.038387 5:0.131005 6:0.145761 7:0.755386 9:0.608804 18:0.168409 23:0.389463 28:0.19697 29:0.199318 30:0.511084 32:0.359305 35:0.141273 36:0.041444 39:0.185962 41:0.183328 43:0.351003 45:0.179686 47:0.700258 48:0.359305 49:0.433715 51:0.519183 55:0.824761 58:0.751848 59:0.37098 60:-0.015873 61:0.425634 62:0.238642 63:0.27684 64:0.263424 65:0.137352 
-1.425 1:0.319211 4:0.407617 5:0.555799 6:0.209334 7:0.436807 9:0.302736 18:0.529123 23:0.300705 28:0.333333 29:0.70013 30:0.886461 32:0.387731 35:0.70355 36:0.102373 39:0.356075 41:0.39558 43:0.434552 45:0.638121 47:0.308668 48:0.387731 49:0.465229 51:0.766809 55:0.649206 58:0.269571 59:0.367459 60:0.619048 61:0.579843 62:0.427958 63:0.102533 64:0.497474 65:0.316325 
-1.425 1:0.069631 4:0.057165 5:0.115722 6:0.131041 7:0.789379 9:0.837213 18:0.196307 23:0.229674 28:0.151515 29:0.104056 30:0.589134 32:0.299996 35:0.143905 36:0.074441 39:0.152169 41:0.138541 43:0.293064 45:0.090905 47:0.718111 48:0.299996 49:0.355298 51:0.236518 55:0.85315 58:0.769615 59:0.309755 60:0.02381 61:0.358411 62:0.123775 63:0.266586 64:0.25304 65:0.088268 
-1.425 1:0.008809 4:0.115967 5:0.253771 6:0.264775 7:0.464879 9:0.455493 18:0.529924 23:0.1672 28:0.439394 29:0.298299 30:0.370907 32:0.535897 35:1.263051 36:0.41913 39:0.428337 41:0.422192 43:0.523513 45:0.272165 47:0.176357 48:0.535897 49:0.986563 51:0.237888 55:0.870715 58:0.230473 59:0.553274 60:0.043651 61:0.783128 62:0.597303 63:0.426538 64:0.415029 65:0.117077 
-1.425 1:0.162332 4:0.363374 5:0.435491 6:0.416096 7:0.433477 9:0.415586 18:0.824831 23:0.268112 28:0.242424 29:0.175632 30:0.40723 32:0.394604 35:0.642177 36:0.125618 39:0.258333 41:0.228115 43:0.385485 45:0.144594 47:0.717313 48:0.394604 49:0.526359 51:0.784046 55:0.77113 58:0.76882 59:0.407418 60:0.345238 61:0.665073 62:0.332725 63:0.12304 64:0.258973 65:0.066106 
-1.425 1:0.163591 4:0.360254 5:0.434414 6:0.417015 7:0.428471 9:0.416053 18:0.772594 23:0.280982 28:0.227273 29:0.163519 30:0.449328 32:0.408577 35:0.593909 36:0.126706 39:0.24374 41:0.213186 43:0.399136 45:0.134392 47:0.729716 48:0.408577 49:0.538507 51:0.78334 55:0.77498 58:0.781164 59:0.421843 60:0.345238 61:0.660038 62:0.335897 63:0.09228 64:0.243954 65:0.070358 
-0.4788155622494152 1:0.357802 4:0.140004 5:0.17657 6:0.124252 7:1.178453 9:1.115923 18:0.149589 23:0.474707 28:0.227273 29:0.690117 30:1.032786 32:0.32327 35:0.148673 36:-0.001644 39:0.224543 41:0.277446 43:0.363366 45:0.726928 47:0.133075 48:0.32327 49:0.711002 51:-0.041878 55:0.390825 58:0.094825 59:0.305755 60:0.210317 61:0.021099 62:0.346244 63:0.047165 64:0.194535 65:0.052239 
-1.425 1:0.321728 4:0.40411 5:0.679729 6:0.138536 7:0.414661 9:0.307068 18:0.643532 23:0.265843 28:0.333333 29:0.676961 30:0.858856 32:0.537317 35:0.725454 36:0.086872 39:0.356051 41:0.39558 43:0.599741 45:0.623752 47:0.318504 48:0.537317 49:0.653921 51:0.736313 55:0.65652 58:0.279359 59:0.510644 60:0.619048 61:0.573517 62:0.441259 63:0.170889 64:0.477874 65:0.293082 
-0.2481935719215699 1:0.740772 4:0.273607 5:0.267673 6:0.126718 7:1.479587 9:1.152554 18:0.17072 23:0.486241 28:0 29:-0.00213 30:0.344676 32:0.161635 35:-0.151 36:0.038478 39:0.028712 41:0.024302 43:0.18487 45:0.149693 47:0.78547 48:0.161635 49:0.316659 51:0.062709 55:0.674101 58:0.744074 59:0.151036 60:0.492063 61:-0.071232 62:-0.022082 63:0.03076 64:0.01421 65:0.005036 
-1.425 1:0.24245 4:0.314652 5:0.723469 6:0.220039 7:0.314207 9:0.299561 18:0.705855 23:0.184648 28:0.348485 29:0.158411 30:0.216957 32:0.478373 35:1.233127 36:0.383118 39:0.350082 41:0.309948 43:0.4482 45:0.132936 47:0.576091 48:0.478373 49:0.704803 51:0.739191 55:0.592808 58:0.62828 59:0.493892 60:0.619048 61:0.810724 62:0.582076 63:0.018456 64:0.281123 65:0.099788 
-1.425 1:0.126258 4:0.292765 5:0.364512 6:0.358967 7:0.434322 9:0.410806 18:0.708938 23:0.280824 28:0.30303 29:0.193801 30:0.308058 32:0.423009 35:0.716122 36:0.196782 39:0.321597 41:0.26682 43:0.396119 45:0.15957 47:0.683363 48:0.423009 49:0.546279 51:0.752387 55:0.727 58:0.735034 59:0.43674 60:0.269841 61:0.672093 62:0.462039 63:0.204527 64:0.255663 65:0.036424 
-1.425 1:0.105285 4:0.091523 5:0.162497 6:0.179874 7:0.823472 9:0.708491 18:0.231471 23:0.236156 28:0.060606 29:0.025115 30:0.431907 32:0.245531 35:-0.003219 36:0.053655 39:0.088423 41:0.091807 43:0.277518 45:0.017468 47:0.970284 48:0.245531 49:0.153109 51:0.275977 55:0.902385 58:0.927997 59:0.231342 60:0.051587 61:0.287609 62:0.013829 63:0.090815 64:0.086897 65:0.035709 
-1.425 1:0.095218 4:0.266636 5:0.363015 6:0.383481 7:0.482358 9:0.451306 18:0.604944 23:0.156299 28:0.621212 29:0.661745 30:0.416789 32:0.650049 35:1.243056 36:0.499846 39:0.621736 41:0.60134 43:0.635027 45:1.575653 47:-0.200258 48:0.650049 49:0.954886 51:0.183269 55:0.792857 58:-0.144327 59:0.671111 60:0.198413 61:0.664512 62:0.634478 63:0.851367 64:0.845269 65:0.787795 
-1.425 1:0.250839 4:0.320345 5:0.717401 6:0.22453 7:0.33329 9:0.301088 18:0.677215 23:0.178169 28:0.348485 29:0.150336 30:0.201426 32:0.434394 35:1.188909 36:0.396712 39:0.350875 41:0.332618 43:0.424356 45:0.128262 47:0.582211 48:0.434394 49:0.675634 51:0.742875 55:0.599784 58:0.63437 59:0.448493 60:0.634921 61:0.804221 62:0.565139 63:0.008789 64:0.276077 65:0.110892 
-1.425 1:0.121225 4:0.292765 5:0.351138 6:0.349133 7:0.433516 9:0.420334 18:0.702006 23:0.306547 28:0.30303 29:0.195349 30:0.342395 32:0.510401 35:0.758149 36:0.20809 39:0.322087 41:0.287831 43:0.498607 45:0.160178 47:0.683363 48:0.510401 49:0.61828 51:0.776775 55:0.72158 58:0.735034 59:0.526954 60:0.261905 61:0.678659 62:0.476666 63:0.198231 64:0.257428 65:0.037489 
-1.425 1:0.168205 4:0.137045 5:0.169527 6:0.183204 7:0.798221 9:0.725433 18:0.231196 23:0.225623 28:0.19697 29:0.46247 30:0.926485 32:0.282108 35:0.156204 36:0.005566 39:0.197399 41:0.183328 43:0.275589 45:0.419515 47:0.333333 48:0.282108 49:0.479449 51:0.088955 55:0.79341 58:0.386692 59:0.29129 60:0.115079 61:0.226208 62:0.287076 63:0.027342 64:0.177331 65:0.03349 
-1.425 1:0.775168 4:0.273607 5:0.289486 6:0.133341 7:1.432434 9:1.057754 18:0.179114 23:0.435544 28:0 29:-0.001792 30:0.267619 32:0.159371 35:-0.167832 36:0.027039 39:0.029125 41:0.024302 43:0.18237 45:0.16345 47:0.775018 48:0.159371 49:0.322013 51:0.011415 55:0.662654 58:0.741387 59:0.150091 60:0.515873 61:-0.076777 62:-0.030632 63:0.035887 64:0.019402 65:0.006364 
-1.425 1:0.470638 4:0.600905 5:0.782304 6:0.645432 7:0.413121 9:0.270339 18:0.559706 23:0.299392 28:0.151515 29:0.070473 30:0.296009 32:0.272715 35:0.670968 36:0.096522 39:0.168426 41:0.193064 43:0.307538 45:0.067217 47:0.773385 48:0.272715 49:0.332421 51:0.885486 55:0.766473 58:0.739762 59:0.259247 60:1.166667 61:0.804464 62:0.255399 63:0.051267 64:0.110938 65:0.014134 
-1.425 1:0.597315 4:0.772561 5:0.806798 6:0.70235 7:0.700405 9:0.457656 18:0.728508 23:0.200595 28:0.166667 29:0.11117 30:0.477744 32:0.375705 35:0.302405 36:0.071929 39:0.17737 41:0.209941 43:0.421271 45:0.105907 47:0.770026 48:0.375705 49:0.38341 51:0.576824 55:0.77489 58:0.736419 59:0.358432 60:0.920635 61:0.371277 62:0.210909 63:0.259869 64:0.246236 65:0.0655 
-1.425 1:0.127936 4:0.299922 5:0.389948 6:0.382778 7:0.435576 9:0.423812 18:0.749029 23:0.316804 28:0.30303 29:0.192128 30:0.303168 32:0.490357 35:0.743559 36:0.194031 39:0.322525 41:0.287831 43:0.479026 45:0.158391 47:0.687537 48:0.490357 49:0.604351 51:0.759603 55:0.725701 58:0.739188 59:0.506263 60:0.265873 61:0.656346 62:0.460208 63:0.186269 64:0.255918 65:0.036122 
-1.425 1:0 4:0.123787 5:0.246376 6:0.24581 7:0.444468 9:0.296312 18:0.485898 23:0.293995 28:0.393939 29:0.296017 30:0.540808 32:0.497092 35:1.195201 36:0.410049 39:0.422082 41:0.377405 43:0.485605 45:0.250891 47:0.59247 48:0.497092 49:0.686044 51:1.022429 55:0.641009 58:0.644579 59:0.513215 60:0.063492 61:0.933878 62:0.427173 63:0.623402 64:0.6144 65:0.695338 
-1.425 1:0.260487 4:0.147609 5:0.14326 6:0.159945 7:0.943362 9:0.936939 18:0.161742 23:0.226366 28:0.015152 29:0.003244 30:0.438112 32:0.194199 35:-0.149289 36:0.047561 39:0.037849 41:0.041178 43:0.220831 45:0.029518 47:0.897674 48:0.194199 49:0.217605 51:0.064382 55:0.799094 58:0.863452 59:0.183632 60:0.166667 61:0.110712 62:-0.026146 63:0.057675 64:0.041467 65:0.016993 
-1.425 1:0.123742 4:0.292765 5:0.387701 6:0.379791 7:0.426737 9:0.446644 18:0.73187 23:0.342974 28:0.30303 29:0.19862 30:0.352899 32:0.431943 35:0.778714 36:0.205092 39:0.322219 41:0.287831 43:0.421962 45:0.163613 47:0.676208 48:0.431943 49:0.551257 51:0.76626 55:0.712631 58:0.727913 59:0.445963 60:0.265873 61:0.675347 62:0.490609 63:0.199545 64:0.25978 65:0.035864 
-1.425 1:0.028104 4:0.118245 5:0.249023 6:0.237527 7:0.37949 9:0.316628 18:0.433555 23:0.370163 28:0.393939 29:0.268048 30:0.515041 32:0.596647 35:1 36:0.423163 39:0.423454 41:0.377405 43:0.58286 45:0.229665 47:0.571059 48:0.596647 49:0.757696 51:0.823311 55:0.642313 58:0.623272 59:0.615986 60:0.09127 61:0.788303 62:0.427102 63:0.579312 64:0.569749 65:0.512981 
-1.425 1:0.247483 4:0.133136 5:0.136368 6:0.154461 7:0.942165 9:0.936526 18:0.133789 23:0.051458 28:0.015152 29:0.00084 30:0.365809 32:0.188574 35:-0.16109 36:0.05594 39:0.037239 41:0.041178 43:0.21462 45:0.026598 47:0.898409 48:0.188574 49:0.207429 51:0.030367 55:0.789168 58:0.864183 59:0.178215 60:0.146825 61:0.105528 62:-0.024942 63:0.06152 64:0.045361 65:0.015162 
-1.425 1:0.455537 4:1.182379 5:1.143429 6:1.201125 7:0.332194 9:0.167536 18:0.993514 23:0.082955 28:0.166667 29:0.050658 30:0.333971 32:0.292207 35:0.762472 36:0.211755 39:0.165893 41:0.15347 43:0.285455 45:0.244627 47:0.154771 48:0.292207 49:0.831054 51:0.390038 55:0.382835 58:0.208991 59:0.301715 60:1.297619 61:0.965993 62:0.281624 63:0.12304 64:0.11705 65:0.004984 
-1.425 1:0.127097 4:0.299922 5:0.38477 6:0.378611 7:0.434473 9:0.42103 18:0.734599 23:0.305349 28:0.30303 29:0.180736 30:0.331478 32:0.469511 35:0.734675 36:0.237131 39:0.319674 41:0.287831 43:0.458662 45:0.149371 47:0.685748 48:0.469511 49:0.590725 51:0.756447 55:0.715416 58:0.737408 59:0.484744 60:0.269841 61:0.668291 62:0.470796 63:0.23134 64:0.262877 65:0.049212 
-1.425 1:0.030621 4:0.050115 5:0.173373 6:0.167223 7:0.615899 9:0.518253 18:0.297342 23:0.277408 28:0.136364 29:0.19199 30:0.81224 32:0.352133 35:0.298133 36:0.010466 39:0.133072 41:0.176188 43:0.39524 45:0.186849 47:0.559862 48:0.352133 49:0.562814 51:0.462154 55:0.808297 58:0.519554 59:0.333383 60:0.039683 61:0.609584 62:0.096444 63:0.353007 64:0.340561 65:0.312535 
-1.425 1:0.256711 4:0.24419 5:0.287685 6:0.288194 7:0.690737 9:0.539126 18:0.334076 23:0.354729 28:0.075758 29:0.055321 30:0.727926 32:0.186375 35:0.134113 36:0.042229 39:0.07454 41:0.108683 43:0.212191 45:0.053609 47:0.757242 48:0.186375 49:0.296182 51:0.331949 55:0.746479 58:0.723697 59:0.176097 60:0.34127 61:0.365991 62:0.093792 63:0.082027 64:0.080913 65:0.017448 
-1.425 1:0.028523 4:0.047074 5:0.17417 6:0.166436 7:0.61208 9:0.493414 18:0.297041 23:0.340227 28:0.121212 29:0.180547 30:0.870342 32:0.342993 35:0.291692 36:0.005323 39:0.118486 41:0.159312 43:0.385147 45:0.174657 47:0.570198 48:0.342993 49:0.552522 51:0.438485 55:0.814912 58:0.537555 59:0.326928 60:0.039683 61:0.623339 62:0.086009 63:0.366043 64:0.353764 65:0.361153 
-1.425 1:0.263423 4:0.255733 5:0.3721 6:0.353107 7:0.740642 9:0.577783 18:0.407517 23:0.26502 28:0.090909 29:0.062043 30:0.719792 32:0.21872 35:0.13458 36:0.056925 39:0.089847 41:0.125559 43:0.24791 45:0.067921 47:0.751938 48:0.21872 49:0.343985 51:0.348796 55:0.754847 58:0.718419 59:0.207247 60:0.357143 61:0.372421 62:0.097475 63:0.064083 64:0.098105 65:0.017282 
-1.425 1:0.124581 4:0.102748 5:0.174979 6:0.189458 7:0.84991 9:0.693395 18:0.2178 23:0.462608 28:0.69697 29:0.398575 30:0.206506 32:0.663136 35:0.496514 36:0.9005 39:0.665015 41:0.755607 43:0.70587 45:0.094824 47:0.138342 48:0.663136 49:1.001046 51:-0.15464 55:0.964156 58:0.177212 59:0.675122 60:0.047619 61:0.217104 62:0.756263 63:0.717732 64:0.741084 65:0.423454 
-0.3587210539069826 1:0.075503 4:0.385507 5:0.45589 6:0.489209 7:0.330619 9:0.304951 18:0.757469 23:0.109546 28:0.484848 29:0.28465 30:0.44052 32:0.478626 35:1.729592 36:0.637185 39:0.514376 41:0.564342 43:0.534927 45:0.242925 47:0.520085 48:0.478626 49:0.716565 51:1.137471 55:0.574232 58:0.557114 59:0.487112 60:0.25 61:0.902393 62:0.80942 63:0.512666 64:0.533152 65:0.422741 
-1.425 1:0.537752 4:0.897617 5:0.880477 6:0.940738 7:0.593526 9:0.513636 18:0.847965 23:0.003123 28:0.818182 29:0.733399 30:0.180187 32:0.929694 35:1.013482 36:0.768441 39:0.814222 41:0.93562 43:1.033048 45:0.614125 47:0.163965 48:0.929694 49:0.978873 51:0.186667 55:0.231636 58:0.218141 59:0.959787 60:0.892857 61:0.433309 62:0.81305 63:0.945408 64:0.940508 65:0.939144 
-1.425 1:0.569211 4:0.531936 5:0.48218 6:0.487215 7:0.840115 9:0.743953 18:0.359879 23:0.124232 28:0.106061 29:0.025675 30:0.268735 32:0.250849 35:0.119921 36:0.138278 39:0.020532 41:0.093754 43:0.245052 45:0.128662 47:-0.088463 48:0.250849 49:1.001582 51:-0.129733 55:-0.101614 58:-0.087072 59:0.245433 60:0.623016 61:0.167586 62:0.109935 63:0.051267 64:0.083436 65:0.004557 
-1.425 1:0.569211 4:0.531936 5:0.48218 6:0.487215 7:0.840115 9:0.743953 18:0.359879 23:0.124232 28:0.106061 29:0.025675 30:0.268735 32:0.250849 35:0.119921 36:0.138278 39:0.020532 41:0.093754 43:0.245052 45:0.128662 47:-0.088463 48:0.250849 49:1.001582 51:-0.129733 55:-0.101614 58:-0.087072 59:0.245433 60:0.623016 61:0.167586 62:0.109935 63:0.051267 64:0.083436 65:0.004557 
-1.425 1:0.569211 4:0.531936 5:0.48218 6:0.487215 7:0.840115 9:0.743953 18:0.359879 23:0.124232 28:0.106061 29:0.025675 30:0.268735 32:0.250849 35:0.119921 36:0.138278 39:0.020532 41:0.093754 43:0.245052 45:0.128662 47:-0.088463 48:0.250849 49:1.001582 51:-0.129733 55:-0.101614 58:-0.087072 59:0.245433 60:0.623016 61:0.167586 62:0.109935 63:0.051267 64:0.083436 65:0.004557 
-1.425 1:1.434144 4:1.08458 5:1.039248 6:1.017932 7:1.114431 9:0.815967 18:0.601681 23:0.231985 28:0.181818 29:0.153748 30:0.694789 32:0.411784 35:0.007386 36:0.124348 39:0.071862 41:0.151811 43:0.38556 45:0.302192 47:-0.142187 48:0.411784 49:0.995654 51:-0.16214 55:-0.280793 58:-0.140537 59:0.404297 60:1.265873 61:-0.027293 62:0.18303 63:0.164785 64:0.149942 65:0.0151 
-1.425 1:1.434144 4:1.08458 5:1.039248 6:1.017932 7:1.114431 9:0.815967 18:0.601681 23:0.231985 28:0.181818 29:0.153748 30:0.694789 32:0.411784 35:0.007386 36:0.124348 39:0.071862 41:0.151811 43:0.38556 45:0.302192 47:-0.142187 48:0.411784 49:0.995654 51:-0.16214 55:-0.280793 58:-0.140537 59:0.404297 60:1.265873 61:-0.027293 62:0.18303 63:0.164785 64:0.149942 65:0.0151 
-1.425 1:1.434144 4:1.08458 5:1.039248 6:1.017932 7:1.114431 9:0.815967 18:0.601681 23:0.231985 28:0.181818 29:0.153748 30:0.694789 32:0.411784 35:0.007386 36:0.124348 39:0.071862 41:0.151811 43:0.38556 45:0.302192 47:-0.142187 48:0.411784 49:0.995654 51:-0.16214 55:-0.280793 58:-0.140537 59:0.404297 60:1.265873 61:-0.027293 62:0.18303 63:0.164785 64:0.149942 65:0.0151 
-1.425 1:1.434144 4:1.08458 5:1.039248 6:1.017932 7:1.114431 9:0.815967 18:0.601681 23:0.231985 28:0.181818 29:0.153748 30:0.694789 32:0.411784 35:0.007386 36:0.124348 39:0.071862 41:0.151811 43:0.38556 45:0.302192 47:-0.142187 48:0.411784 49:0.995654 51:-0.16214 55:-0.280793 58:-0.140537 59:0.404297 60:1.265873 61:-0.027293 62:0.18303 63:0.164785 64:0.149942 65:0.0151 
-1.2301404675333 1:0.431628 4:0.727651 5:0.734171 6:0.785493 7:0.688588 9:0.4744 18:0.820448 23:0.014117 28:0.090909 29:0.065418 30:0.715873 32:0.277302 35:0.166979 36:0.055981 39:0.124787 41:0.078825 43:0.270894 45:1.020468 47:-0.028239 48:0.277302 49:0.866053 51:0.130926 55:1.432775 58:-0.027139 59:0.271546 60:0.650794 61:0.381498 62:0.072848 63:0.091413 64:0.107665 65:0.021483 
-1.425 1:0.758389 4:0.603432 5:0.57428 6:0.559954 7:1.188276 9:1.033531 18:0.276446 23:0.22703 28:0.151515 29:0.065721 30:0.382664 32:0.259349 35:0.09651 36:0.129507 39:0.071362 41:0.155262 43:0.265446 45:0.579657 47:0 48:0.259349 49:0.990833 51:-0.047476 55:0.102623 58:-0.00675 59:0.251927 60:0.654762 61:0.023224 62:0.171419 63:0.071773 64:0.117821 65:0.004075 
-1.425 1:0.758389 4:0.603432 5:0.57428 6:0.559954 7:1.188276 9:1.033531 18:0.276446 23:0.22703 28:0.151515 29:0.065721 30:0.382664 32:0.259349 35:0.09651 36:0.129507 39:0.071362 41:0.155262 43:0.265446 45:0.579657 47:0 48:0.259349 49:0.990833 51:-0.047476 55:0.102623 58:-0.00675 59:0.251927 60:0.654762 61:0.023224 62:0.171419 63:0.071773 64:0.117821 65:0.004075 
-1.425 1:0.758389 4:0.603432 5:0.57428 6:0.559954 7:1.188276 9:1.033531 18:0.276446 23:0.22703 28:0.151515 29:0.065721 30:0.382664 32:0.259349 35:0.09651 36:0.129507 39:0.071362 41:0.155262 43:0.265446 45:0.579657 47:0 48:0.259349 49:0.990833 51:-0.047476 55:0.102623 58:-0.00675 59:0.251927 60:0.654762 61:0.023224 62:0.171419 63:0.071773 64:0.117821 65:0.004075 
-1.425 1:0.758389 4:0.603432 5:0.57428 6:0.559954 7:1.188276 9:1.033531 18:0.276446 23:0.22703 28:0.151515 29:0.065721 30:0.382664 32:0.259349 35:0.09651 36:0.129507 39:0.071362 41:0.155262 43:0.265446 45:0.579657 47:0 48:0.259349 49:0.990833 51:-0.047476 55:0.102623 58:-0.00675 59:0.251927 60:0.654762 61:0.023224 62:0.171419 63:0.071773 64:0.117821 65:0.004075 
-1.425 1:1.341023 4:1.266074 5:1.135344 6:1.203558 7:0.985631 9:1.07027 18:0.862558 23:0.029196 28:0.287879 29:0.176931 30:0.34675 32:0.445073 35:0.048379 36:0.212444 39:0.276154 41:0.294997 43:0.454135 45:1.231817 47:0.049023 48:0.445073 49:0.906268 51:0.018564 55:0.801562 58:0.057465 59:0.440231 60:1.234127 61:-0.002258 62:0.23451 63:0.071041 64:0.28235 65:0.081035 
-1.397322758397921 1:0.34396 4:0.803992 5:1.106825 6:0.891293 7:0.305586 9:0.277567 18:2.523639 23:0.06505 28:0.212121 29:0.098245 30:0.604357 32:0.346213 35:1.057009 36:0.2656 39:0.244672 41:0.217366 43:0.353696 45:0.074491 47:0.791667 48:0.346213 49:0.314129 51:1.24395 55:0.801074 58:0.796528 59:0.342029 60:1.043651 61:1.020377 62:0.3227 63:0.360005 64:0.347649 65:0.339897 
-1.425 1:0.479866 4:0.335845 5:0.406448 6:0.265092 7:0.845287 9:0.839868 18:0.337726 23:0.166386 28:0.121212 29:0.051142 30:0.476045 32:0.352683 35:0.011282 36:0.109428 39:0.146392 41:0.124209 43:0.36027 45:0.123235 47:0.599483 48:0.352683 49:0.590721 51:0.216551 55:0.677969 58:0.605272 59:0.348456 60:0.424603 61:0.0952 62:0.073353 63:0.14611 64:0.131029 65:0.040869 
-1.425 1:1.357802 4:1.27328 5:1.185015 6:1.253511 7:0.995291 9:1.050593 18:0.890973 23:0.016674 28:0.287879 29:0.185769 30:0.357535 32:-0.05003 35:0.048316 36:0.200347 39:0.274716 41:0.294997 43:-0.048874 45:1.245365 47:0.048773 48:-0.05003 49:0.65962 51:0.016586 55:0.782893 58:0.057216 59:-0.051573 60:1.242063 61:-0.006128 62:0.236819 63:0.106152 64:0.291955 65:0.07564 
-1.425 1:0.473154 4:0.319876 5:0.375686 6:0.251091 7:0.86534 9:0.770937 18:0.315257 23:0.193861 28:0.121212 29:0.046201 30:0.409208 32:0.338777 35:-0.00545 36:0.112191 39:0.146295 41:0.124209 43:0.346141 45:0.115204 47:0.613437 48:0.338777 49:0.580197 51:0.174648 55:0.690543 58:0.619158 59:0.334643 60:0.376984 61:0.058262 62:0.075631 63:0.11347 64:0.11927 65:0.0238 
-1.425 1:1.344379 4:1.228558 5:1.167052 6:1.238078 7:0.997518 9:1.083191 18:0.858502 23:0.037567 28:0.30303 29:0.196847 30:0.342249 32:0.485818 35:0.049702 36:0.21053 39:0.28654 41:0.310523 43:0.49553 45:1.297236 47:0.04411 48:0.485818 49:0.929091 51:0.011351 55:0.761882 58:0.052576 59:0.480704 60:1.238095 61:-0.002099 62:0.249638 63:0.26268 64:0.326957 65:0.089134 
-1.425 1:0.511326 4:0.335845 5:0.398902 6:0.271211 7:0.875734 9:0.792612 18:0.335523 23:0.236877 28:0.106061 29:0.043305 30:0.385802 32:0.274916 35:-0.036792 36:0.082519 39:0.133299 41:0.108683 43:0.281261 45:0.114194 47:0.640019 48:0.274916 49:0.526506 51:0.147635 55:0.703755 58:0.645612 59:0.271207 60:0.376984 61:0.018971 62:0.05486 63:0.102533 64:0.109114 65:0.027091 
-1.425 1:1.326342 4:1.214271 5:1.099458 6:1.169069 7:0.98217 9:1.058839 18:0.805234 23:0.02143 28:0.318182 29:0.220477 30:0.331517 32:0.507995 35:0.066266 36:0.201303 39:0.301329 41:0.326049 43:0.518062 45:1.371325 47:0.038538 48:0.507995 49:0.928384 51:0.014445 55:0.756915 58:0.039317 59:0.499269 60:1.222222 61:-0.000784 62:0.266217 63:0.308027 64:0.350493 65:0.106628 
-1.425 1:0.486997 4:0.325151 5:0.367539 6:0.245002 7:0.799299 9:0.747535 18:0.308658 23:0.210521 28:0.090909 29:0.039537 30:0.501068 32:0.306433 35:-0.011325 36:0.08324 39:0.117843 41:0.093157 43:0.313281 45:0.105166 47:0.659173 48:0.306433 49:0.517417 51:0.183465 55:0.706336 58:0.656959 59:0.300301 60:0.43254 61:0.094461 62:0.063599 63:0.106805 64:0.100428 65:0.031205 
-1.425 1:1.317534 4:1.214271 5:1.145298 6:1.217822 7:0.985378 9:1.077647 18:0.844094 23:0.015851 28:0.318182 29:0.228155 30:0.366972 32:0.527009 35:0.071232 36:0.204452 39:0.299897 41:0.326049 43:0.537379 45:1.399777 47:0.044186 48:0.527009 49:0.93873 51:0.022818 55:0.738034 58:0.044937 59:0.518038 60:1.222222 61:0.002987 62:0.266703 63:0.321865 64:0.363531 65:0.126161 
