svm_type c_svc
kernel_type rbf
gamma 0.06
nr_class 2
total_sv 535
rho 1.55265
label 1 -1
nr_sv 206 329
SV
0.4378113851220489 1:1.738375 2:1.295082 3:0.518248 4:0.917385 5:0.939695 6:0.812381 7:0.877832 8:2.691489 9:0.609614 10:3.51845 11:0.684775 12:0.955422 13:0.668186 14:0.080376 15:0.124958 16:0.540818 17:0.816144 18:0.12734 19:0.364113 20:0.700823 21:0.457734 22:0.648038 23:0.139734 24:0.10393 25:0.759259 26:0.024701 27:0.444444 28:0.837209 29:0.757518 30:0.43535 31:0.760698 32:0.929085 33:0.317549 34:0.975555 35:0.283482 36:0.901496 37:0 38:0.968466 39:0.785937 40:0.5 41:0.664838 42:0.281969 43:0.76179 44:0.530973 45:0.842412 46:0.440785 47:0.311541 48:0.929085 49:0.982481 50:0.997278 51:0.187336 52:0.727903 53:0 54:0.756336 55:0.144508 56:0.454545 57:0.55788 58:0.320441 59:0.912625 60:1.168508 61:0.010644 62:0.769985 63:0.157472 64:0.779087 65:0.464502 
0.741053042094904 1:0.292156 2:0.47541 3:0.145985 4:0.266477 5:0.389772 6:0.306982 7:0.354755 8:0.319237 9:0.356939 10:0.108123 11:0.193683 12:0.458751 13:0.622908 14:0.406719 15:0.154373 16:0.588073 17:0.953505 18:0.387777 19:0.304565 20:0.95606 21:1.219809 22:0.312536 23:0.339275 24:0.216306 25:0.831073 26:0.106826 27:0.111111 28:0.186047 29:0.226354 30:0.936688 31:0.662282 32:-0.296669 33:-1.956804 34:0.580552 35:0.260002 36:0.031902 37:0 38:0.163831 39:0.2324 40:0.5 41:0.102216 42:0.379691 43:-0.281169 44:0.672566 45:0.234626 46:0.089196 47:0.524522 48:-0.296669 49:0.234271 50:0.637886 51:0.416783 52:0.692167 53:0 54:0.775888 55:0.345431 56:0.454545 57:0.707734 58:0.541417 59:-0.279591 60:0.29558 61:0.323539 62:0.19236 63:0.436911 64:0.404787 65:0.265721 
1 1:0.631752 2:0.385246 3:0.50365 4:0.408066 5:0.543933 6:0.15681 7:0.528364 8:1.01269 9:0.115018 10:1.550826 11:0.321006 12:0.013328 13:1.097054 14:0.246098 15:0.333584 16:0.25954 17:0.99336 18:0.214152 19:0.316303 20:0.090893 21:1.504987 22:-0.098744 23:0.426593 24:0.804737 25:1.33836 26:0.232906 27:0.555556 28:0.55814 29:0.465738 30:0.370591 31:0.64671 32:0.419302 33:0.404994 34:0.828682 35:0.453587 36:0.484928 37:0 38:0.795777 39:0.524152 40:0.5 41:0.423714 42:0.395153 43:0.32803 44:0.442478 45:0.727846 46:0.552506 47:0.258478 48:0.419302 49:0.848993 50:0.975511 51:0.271776 52:0.616126 53:0 54:0.748114 55:0.013313 56:0.454545 57:0.464221 58:0.265387 59:0.41679 60:0.59116 61:0.23026 62:0.607861 63:0.583417 64:0.553256 65:0.301673 
0.05888752957794831 1:1.093471 2:0.311475 3:1.065693 4:0.783421 5:0.80755 6:0.480061 7:0.641677 8:1.823744 9:0.472578 10:1.267879 11:0.634717 12:0.448545 13:0.883709 14:0.191545 15:0.65701 16:0.139198 17:0.797783 18:0.176222 19:0.404323 20:0.333429 21:0.681014 22:0.18086 23:0.329949 24:0.492004 25:1.486728 26:0.144658 27:0.333333 28:0.465116 29:0.502808 30:0.717269 31:0.793381 32:0.224172 33:0.287208 34:0.85557 35:0.232135 36:0.296357 37:0 38:0.621402 39:0.453552 40:0.5 41:0.343339 42:0.249516 43:0.162 44:0.584071 45:0.550705 46:0.664859 47:0.455059 48:0.224172 49:0.726153 50:0.871621 51:0.225485 52:0.75271 53:0 54:0.821942 55:0.137979 56:0.454545 57:0.614075 58:0.469346 59:0.227 60:0.922652 61:0.143324 62:0.34771 63:0.794049 64:0.76671 65:0.758196 
1 1:0.03147 2:0.106557 3:0.021898 4:-0.007177 5:0.05395 6:0.055509 7:0.746225 8:0.526388 9:0.807896 10:0.081379 11:0.918327 12:0.773302 13:0.340214 14:0.228599 15:0.083182 16:0.228099 17:0.465047 18:0.032591 19:0.013418 20:0.394833 21:0.10429 22:0.942707 23:0.346497 24:0.238201 25:0.199621 26:0.041146 27:-0.111111 28:0.906977 29:0.795146 30:0.491426 31:0.74598 32:1.103075 33:0.626945 34:0.930858 35:0.603348 36:1.071341 37:0 38:0.956829 39:0.859201 40:0.5 41:0.725119 42:0.296583 43:0.909834 44:0.522124 45:0.73335 46:0.537181 47:0.297048 48:1.103075 49:1.001351 50:0.92237 51:0.121142 52:0.707163 53:0 54:0.750954 55:0.137793 56:0.454545 57:0.548514 58:0.305404 59:1.081855 60:-0.038674 61:0.238416 62:0.861564 63:0.970746 64:0.945774 65:0.726459 
0.3944005558948283 1:1.149836 2:0.557377 3:0.890511 4:0.731403 5:0.675194 6:0.504823 7:0.725014 8:2.48889 9:0.254487 10:3.304618 11:0.409484 12:0.738451 13:0.724676 14:0.108373 15:0.287871 16:0.138988 17:0.643241 18:0.084672 19:0.304591 20:0.86443 21:0.832548 22:0.447325 23:0.253555 24:0.24793 25:0.981249 26:0.076253 27:0.333333 28:0.627907 29:0.626843 30:0.79029 31:0.775571 32:0.836768 33:-0.330805 34:0.910588 35:0.339513 36:0.609993 37:0 38:0.902526 39:0.58053 40:0.5 41:0.483995 42:0.267201 43:0.68324 44:0.477876 45:1.131434 46:0.490482 47:0.194828 48:0.836768 49:0.971631 50:1.068614 51:0.154525 52:0.732498 53:0 54:0.681121 55:0.164535 56:0.454545 57:0.501684 58:0.199348 59:0.822834 60:0.848066 61:0.074961 62:0.710007 63:0.048646 64:0.540062 65:0.200582 
1 1:2.418506 2:1.745902 3:0.781022 4:1.297208 5:1.33397 6:1.163335 7:0.92751 8:2.117196 9:0.425991 10:2.16315 11:0.696813 12:0.714058 13:1.261623 14:0.085629 15:0.140528 16:0.533199 17:0.873281 18:0.277828 19:0.500292 20:0.501093 21:0.914918 22:0.194977 23:0.189744 24:0.583308 25:1.411965 26:0.080204 27:1.111111 28:0.837209 29:1.189012 30:0.466619 31:0.762744 32:0.654538 33:-0.545362 34:1.079458 35:0.217679 36:0.472355 37:0 38:0.731036 39:0.819802 40:0.5 41:0.664838 42:0.279937 43:0.528186 44:0.495575 45:0.964352 46:0.375978 47:0.203252 48:0.654538 49:0.897205 50:1.049392 51:0.142391 52:0.699045 53:0 54:0.792852 55:0.036105 56:0.454545 57:0.520416 58:0.208088 59:0.64559 60:1.624309 61:-0.003903 62:0.68705 63:1.112337 64:1.089263 65:0.612501 
1 1:1.292156 2:0.295082 3:1.562044 4:1.15934 5:1.093913 6:1.177605 7:0.693244 8:0.617268 9:0.32424 10:0.438736 11:0.184895 12:0.843754 13:0.843064 14:0.253681 15:0.959615 16:0.11379 17:0.734553 18:0.696929 19:0.517775 20:1.657175 21:1.64255 22:0.437449 23:0.158189 24:0.157906 25:0.966702 26:0.031312 27:0.777778 28:0.372093 29:0.46074 30:0.62036 31:0.650425 32:0.370089 33:0.417775 34:0.780588 35:0.087013 36:0.110216 37:0 38:0.411935 39:0.387956 40:0.5 41:0.262965 42:0.391464 43:0.286157 44:0.628319 45:0.392897 46:0.154322 47:0.426636 48:0.370089 49:0.728576 50:0.784685 51:0.230346 52:0.681859 53:0 54:0.765045 55:0.289292 56:0.454545 57:0.660905 58:0.439857 59:0.368924 60:1.069061 61:0.124451 62:0.202182 63:0.392408 64:0.445947 65:0.28001 
1 1:0.038046 2:0.057377 3:0.19708 4:0.077178 5:0.163673 6:0.150417 7:0.391665 8:0.37665 9:0.404879 10:0.170445 11:0.383617 12:0.432591 13:0.302061 14:0.52787 15:0.360492 16:0.153481 17:0.737196 18:0.153303 19:0.128841 20:0.551062 21:0.37487 22:0.605454 23:0.215143 24:0.208687 25:0.218975 26:0.038946 27:0.222222 28:0.116279 29:0.062691 30:0.538424 31:0.807017 32:0.155678 33:0.987562 34:0.347544 35:0.246723 36:0.143944 37:0 38:0.344513 39:0.135025 40:0.5 41:0.122309 42:0.189555 43:0.167868 44:0.876106 45:0.056648 46:0.386461 47:0.847679 48:0.155678 49:0.259269 50:0.342231 51:0.508307 52:0.852353 53:0 54:0.807258 55:0.629673 56:0.363636 57:0.943585 58:0.893052 59:0.166532 60:0.066298 61:0.551958 62:0.149651 63:0.248746 64:0.214101 65:0.098011 
0.3864909057077111 1:0.541569 2:0.754098 3:0.072993 4:0.428232 5:0.429875 6:0.458172 7:0.764623 8:0.604981 9:0.811302 10:0.050328 11:0.635432 12:0.759641 13:0.594844 14:0.209624 15:0.068643 16:0.93218 17:0.64254 18:0.269956 19:0.180792 20:0.591852 21:0.436897 22:0.57014 23:0.184072 24:0.087009 25:0.450086 26:0.033682 27:0.333333 28:1.232558 29:1.144101 30:0.052701 31:0.76391 32:1.26941 33:0.814976 34:1.029731 35:0.509161 36:1.311167 37:0 38:0.684426 39:1.232207 40:0.5 41:1.247554 42:0.232358 43:1.273452 44:0.460177 45:1.008393 46:0.585293 47:0.23704 48:1.26941 49:0.987759 50:1.001038 51:0.189341 52:0.705914 53:0 54:0.80621 55:-0.039761 56:0.363636 57:0.49723 58:0.259493 59:1.264943 60:0.350829 61:0.08682 62:1.182159 63:1.163725 64:1.158973 65:1.05452 
1 1:0.522781 2:0.565574 3:0.49635 4:0.486759 5:0.563487 6:0.515006 7:0.479645 8:1.184639 9:0.085134 10:1.445281 11:1.046241 12:0.305613 13:0.512288 14:0.343394 15:0.215651 16:0.279974 17:0.849974 18:0.187912 19:0.352014 20:0.068012 21:0.166182 22:0.257262 23:0.329737 24:0.253455 25:1.027101 26:0.104244 27:0.222222 28:0.418605 29:0.535036 30:0.852004 31:0.671827 32:0.373354 33:-0.334533 34:0.819929 35:0.315209 36:0.190597 37:0 38:0.223116 39:0.462624 40:0.5 41:0.427063 42:0.323791 43:0.383952 44:0.60177 45:0.553191 46:0.020833 47:0.284617 48:0.373354 49:0.736722 50:0.857538 51:0.392146 52:0.688064 53:0 54:0.77839 55:0.227719 56:0.363636 57:0.649181 58:0.308856 59:0.381214 60:0.527624 61:0.28218 62:0.416055 63:0.914471 64:0.888745 65:1.168867 
1 1:0.080319 2:0.221311 3:0 4:0.053678 5:0.091929 6:0.099965 7:0.594412 8:0.449765 9:0.567335 10:0.140709 11:0.794475 12:0.604567 13:0.390522 14:0.228406 15:0.04459 16:0.410094 17:0.435389 18:0.074334 19:0.046845 20:0.35334 21:0.183653 22:0.668751 23:0.609225 24:0.581515 25:0.495096 26:0.468374 27:0.222222 28:0.465116 29:0.520793 30:0.434628 31:0.712806 32:0.36008 33:0.357602 34:0.779558 35:0.356603 36:0.196802 37:0 38:0.121036 39:0.52492 40:0.5 41:0.473948 42:0.283102 43:0.370775 44:0.672566 45:0.451818 46:0.282065 47:0.514388 48:0.36008 49:0.642697 50:0.771579 51:0.202981 52:0.752555 53:0 54:0.785028 55:0.332589 56:0.363636 57:0.725156 58:0.54725 59:0.368123 60:0.058011 61:0.358738 62:0.46969 63:0.396189 64:0.464617 65:0.214593 
0.4737230690785513 1:0.322217 2:0.45082 3:0.313869 4:0.328286 5:0.331819 6:0.37135 7:0.545215 8:0.528218 9:0.544236 10:0.18267 11:0.669582 12:0.645406 13:0.330322 14:0.293433 15:0.127031 16:0.234625 17:0.589494 18:0.231448 19:0.18886 20:0.468686 21:0.196147 22:0.813263 23:0.11722 24:0.126018 25:0.2252 26:0.021723 27:0.111111 28:0.255814 29:0.258722 30:0.625916 31:0.624464 32:-0.296669 33:-2.885228 34:0.633798 35:0.232049 36:0.055711 37:0 38:0.150233 39:0.305944 40:0.5 41:0.262965 42:0.370821 43:-0.281169 44:0.672566 45:0.232632 46:0.145636 47:0.513023 48:-0.296669 49:0.274926 50:0.6125 51:0.32436 52:0.686578 53:0 54:0.784653 55:0.333116 56:0.363636 57:0.725156 58:0.545835 59:-0.279591 60:0.251381 61:0.210867 62:0.210789 63:0.087262 64:0.236652 65:0.051048 
1 1:0.114608 2:0.360656 3:0.029197 4:0.153339 5:0.160007 6:0.173564 7:0.278761 8:0.542442 9:0.351757 10:0.423182 11:0.243132 12:0.359658 13:0.97291 14:0.316677 15:0.0387 16:0.490048 17:0.43216 18:0.105146 19:0.163378 20:0.67716 21:1.606716 22:0.102503 23:0.354603 24:0.259034 25:0.389779 26:0.124951 27:0.111111 28:0.069767 29:0.095754 30:0.894106 31:0.581052 32:0.154209 33:0.941606 34:0.390544 35:0.105003 36:-0.003585 37:0 38:0.139637 39:0.116511 40:0.5 41:0.075424 42:0.413926 43:0.16641 44:0.707965 45:0.06972 46:0.311981 47:0.696015 48:0.154209 49:0.484933 50:0.352373 51:0.364853 52:0.662335 53:0 54:0.739328 55:0.453896 56:0.363636 57:0.763144 58:0.735695 59:0.165084 60:0.107735 61:0.376577 62:0.084283 63:0.066199 64:0.124766 65:0.052768 
1 1:0.185063 2:0.172131 3:0.072993 4:0.054347 5:0.086972 6:0.063252 7:0.760685 8:0.685049 9:0.416824 10:0.751259 11:1.100865 12:0.251732 13:0.752737 14:0.07879 15:0.072605 16:0.19696 17:0.403696 18:0.033767 19:0.027237 20:0.02637 21:0.280123 22:0.103534 23:0.617809 24:0.348451 25:0.503117 26:0.061943 27:-0.111111 28:0.139535 29:0.040881 30:0.592314 31:0.915324 32:0.216966 33:0.952469 34:0.314102 35:0.085647 36:0.292754 37:0 38:0.063673 39:0.19895 40:0.5 41:0.080633 42:0.116828 43:0.172055 44:0.955752 45:0.038449 46:0.496537 47:0.944324 48:0.216966 49:0.250783 50:0.310284 51:0.261834 52:0.94013 53:0 54:0.947915 55:0.560524 56:0.318182 57:1.040092 58:1.001499 59:0.230545 60:0.096685 61:0.183932 62:0.183411 63:0.150451 64:0.114489 65:0.020054 
0.5867660133546416 1:0.642085 2:0.311475 3:0.861314 4:0.631533 5:0.704384 6:0.66003 7:0.500017 8:0.435385 9:0.520021 10:0.083922 11:0.543547 12:0.425361 13:0.442401 14:0.364035 15:0.562285 16:0.164063 17:0.863838 18:0.568759 19:0.425549 20:0.379725 21:0.375958 22:0.424425 23:0.249242 24:0.125197 25:0.987526 26:0.060584 27:0.222222 28:0.232558 29:0.117642 30:0.303045 31:0.968086 32:0.312191 33:0.979702 34:0.490924 35:0.216745 36:0.230625 37:0 38:0.110716 39:0.287712 40:0.5 41:0.163985 42:0.064438 43:0.25608 44:0.929204 45:0.112427 46:0.559585 47:0.894876 48:0.312191 49:0.388538 50:0.491876 51:0.470777 52:0.960007 53:0 54:0.951513 55:0.512645 56:0.318182 57:1.011401 58:0.950195 59:0.325121 60:0.640884 61:0.263942 62:0.236673 63:0.290873 64:0.263827 65:0.127051 
1 1:0.426961 2:0.655738 3:0.080292 4:0.363412 5:0.413511 6:0.37843 7:0.525282 8:0.444855 9:0.601389 10:0.071352 11:0.51583 12:0.557416 13:0.541307 14:0.282451 15:0.091067 16:0.862701 17:0.746526 18:0.33026 19:0.24224 20:0.530602 21:0.496443 22:0.453389 23:0.310792 24:0.134716 25:0.760092 26:0.080347 27:0.111111 28:0.116279 29:0.052321 30:0.585167 31:0.939778 32:0.147734 33:0.907981 34:0.32856 35:0.105341 36:0.183902 37:0 38:0.073262 39:0.173714 40:0.5 41:0.059796 42:0.092546 43:0.110965 44:0.955752 45:0.052246 46:0.403244 47:0.936365 48:0.147734 49:0.201855 50:0.340763 51:0.395271 52:0.944052 53:0 54:0.93583 55:0.577503 56:0.318182 57:1.040092 58:0.99324 59:0.161784 60:0.328729 61:0.175542 62:0.088549 63:0.308425 64:0.27458 65:0.123752 
0.337095543165519 1:0.982621 2:0.47541 3:0.751825 4:0.607182 5:0.663899 6:0.481899 7:0.48138 8:2.20322 9:0.435017 10:2.284966 11:1.28048 12:0.45309 13:0.435247 14:0.156556 15:0.341533 16:0.190079 17:0.827184 18:0.101452 19:0.412465 20:0.090546 21:0.063696 22:0.458814 23:0.280775 24:0.546518 25:0.975282 26:0.144802 27:0.222222 28:0.418605 29:0.398374 30:0.526361 31:0.765195 32:0.594562 33:0.286036 34:0.793098 35:0.273076 36:0.209093 37:0 38:0.606976 39:0.407873 40:0.5 41:0.330688 42:0.265898 43:0.50524 44:0.628319 45:0.513133 46:0.293021 47:0.379193 48:0.594562 49:0.864609 50:0.889222 51:0.276792 52:0.748952 53:0 54:0.760511 55:0.295662 56:0.318182 57:0.686232 58:0.415156 59:0.605569 60:0.798343 61:0.130444 62:0.408406 63:0.243731 64:0.360477 65:0.049654 
1 1:0.371066 2:0.008197 3:0.649635 4:0.407861 5:0.427527 6:0.469076 7:0.637878 8:0.509703 9:0.578614 10:0.159046 11:0.62856 12:0.437194 13:0.43926 14:0.354173 15:1.187134 16:0.097954 17:0.680526 18:0.308511 19:0.212649 20:0.328034 21:0.310353 22:0.439098 23:0.108001 24:0.104215 25:0.254745 26:0.019363 27:0.444444 28:0.139535 29:0.079136 30:0.581835 31:0.86969 32:0.108387 33:0.90102 34:0.429179 35:0.126156 36:0.14029 37:0 38:0.185401 39:0.181587 40:0.5 41:0.171233 42:0.115718 43:0.138406 44:0.884956 45:0.077237 46:0.444827 47:0.841056 48:0.108387 49:0.207572 50:0.448747 51:0.272476 52:0.884504 53:0 54:0.906321 55:0.504766 56:0.363636 57:0.953082 58:0.886181 59:0.119892 60:0.342541 61:0.263736 62:0.158553 63:0.220249 64:0.185222 65:0.058794 
1 1:0.082198 2:0.106557 3:0.291971 4:0.160041 5:0.230561 6:0.264922 7:0.397956 8:0.357995 9:0.372591 10:0.103765 11:0.495471 12:0.454285 13:0.284227 14:0.556368 15:0.368193 16:0.145434 17:0.717695 18:0.219399 19:0.172865 20:0.449804 21:0.258911 22:0.662212 23:0.221703 24:0.148531 25:0.308514 26:0.05095 27:0.333333 28:0.023256 29:0.061686 30:0.954873 31:0.604428 32:0.146131 33:0.919558 34:0.307617 35:0.183471 36:-0.05589 37:0 38:0.108938 39:0.073153 40:0.5 41:0.048924 42:0.37911 43:0.177503 44:0.716814 45:0.066183 46:0.143844 47:0.68557 48:0.146131 49:0.485919 50:0.377859 51:0.475262 52:0.667004 53:0 54:0.71781 55:0.498403 56:0.363636 57:0.77264 58:0.724858 59:0.157118 60:0.107735 61:0.485529 62:0.069287 63:0.045135 64:0.052152 65:0.023467 
1 1:1.116487 2:0.647541 3:0.810219 4:0.714243 5:0.936057 6:0.520225 7:0.804191 8:0.704488 9:0.087269 10:0.6733 11:0.678224 12:0.859991 13:0.588052 14:0.246715 15:0.375005 16:0.304734 17:1.147198 18:0.537259 19:0.391066 20:0.632003 21:0.398617 22:0.657236 23:0.102072 24:0.210967 25:0.600995 26:0.024679 27:1.111111 28:0.27907 29:0.130029 30:0.531151 31:0.885573 32:0.228983 33:0.903932 34:0.553571 35:0.168473 36:0.337046 37:0 38:0.281754 39:0.311052 40:0.5 41:0.318004 42:0.099947 43:0.263324 44:0.787611 45:0.156222 46:0.549268 47:0.688578 48:0.228983 49:0.432518 50:0.608964 51:0.313778 52:0.821716 53:0 54:0.84463 55:0.434421 56:0.363636 57:0.848616 58:0.727979 59:0.238829 60:0.955801 61:0.149771 62:0.351904 63:0.168274 64:0.223817 65:0.017075 
1 1:0.202912 2:0.352459 3:0.270073 4:0.253281 5:0.232302 6:0.262546 7:0.380449 8:0.202764 9:0.456787 10:0.005219 11:0.357147 12:0.309294 13:0.488717 14:0.302469 15:0.103456 16:0.166951 17:0.444402 18:0.309642 19:0.180172 20:0.435146 21:0.636422 22:0.276445 23:0.118933 24:0.094187 25:0.139033 26:0.019467 27:0.444444 28:0.069767 29:0.067254 30:0.853796 31:0.825035 32:0.106125 33:0.873116 34:0.359783 35:0.146444 36:0.014964 37:0 38:0.128725 39:0.118067 40:0.5 41:0.097847 42:0.160058 43:0.136063 44:0.778761 45:0.220026 46:0.475416 47:0.675005 48:0.106125 49:0.466111 50:0.644143 51:0.429724 52:0.839242 53:0 54:0.801248 55:0.481096 56:0.363636 57:0.839119 58:0.713896 59:0.117662 60:0.162983 61:0.273704 62:0.038136 63:0.031093 64:0.072281 65:0.013038 
0.1055040614845236 1:1.281353 2:0.860656 3:0.489051 4:0.6426 5:0.528567 6:0.599528 7:1.444024 8:1.051297 9:1.494971 10:0.088361 11:1.191821 12:1.399899 13:1.235491 14:0.010132 15:0.083703 16:0.258873 17:0.494891 18:0.198861 19:0.112502 20:0.588884 21:0.492391 22:0.508613 23:0.003752 24:-0.002042 25:0.015753 26:0.000464 27:0.666667 28:0.511628 29:0.425024 30:0.368277 31:0.892099 32:0.119255 33:0.729572 34:0.849573 35:0.12234 36:0.351609 37:0 38:0.285034 39:0.549265 40:0.5 41:0.355118 42:0.1631 43:0.060526 44:0.60177 45:0.591325 46:0.609398 47:0.395249 48:0.119255 49:0.558358 50:0.935665 51:0.060772 52:0.774523 53:0 54:0.934954 55:0.00775 56:0.681818 57:0.593782 58:0.366419 59:0.111468 60:0.472376 61:-0.16285 62:0.579133 63:0.078837 64:0.434568 65:0.131041 
1 1:0.129638 2:0.45082 3:0.160584 4:0.256996 5:0.298993 6:0.335621 7:0.366936 8:0.237002 9:0.389645 10:0.042244 11:0.291638 12:0.41578 13:0.37606 14:0.57113 15:0.103723 16:0.408972 17:0.66863 18:0.357876 19:0.232857 20:0.668811 21:0.59153 22:0.485359 23:0.164278 24:0.341823 25:0.273971 26:0.066543 27:0.222222 28:0.116279 29:0.032746 30:0.564422 31:0.979337 32:0.145793 33:0.982388 34:0.267009 35:0.362855 36:0.242682 37:0 38:-0.001502 39:0.184378 40:0.5 41:0.025305 42:0.076477 43:0.082327 44:1.017699 45:0.023885 46:0.494675 47:1.007273 48:0.145793 49:0.051992 50:0.222057 51:0.755182 52:0.997356 53:0 54:1.001016 55:0.585841 56:0.681818 57:1.019307 58:1.001415 59:0.136419 60:0.160221 61:0.452936 62:0.124014 63:0.171076 64:0.13539 65:0.039662 
0.07642855443464741 1:0.519023 2:0.622951 3:0.489051 4:0.511894 5:0.482734 6:0.544519 7:0.624233 8:0.398794 9:0.773036 10:0.000458 11:0.50088 12:0.679371 13:0.558416 14:0.273143 15:0.141214 16:0.223539 17:0.608316 18:0.414699 19:0.245264 20:0.666862 21:0.529054 22:0.540153 23:0.007163 24:0.003996 25:0.017654 26:0.000622 27:0.333333 28:1.27907 29:0.553894 30:-0.197999 31:0.772343 32:0.939505 33:0.770709 34:0.857904 35:0.983883 36:2.159611 37:0 38:0.851271 39:1.256145 40:0.5 41:0.995344 42:0.282012 43:0.734386 44:0.522124 45:0.46592 46:0.824378 47:0.441665 48:0.939505 49:0.956555 50:0.822487 51:0.287022 52:0.664087 53:0 54:0.883431 55:-0.048334 56:0.681818 57:0.512299 58:0.414578 59:0.882682 60:0.314917 61:0.069849 62:1.379987 63:0.941157 64:0.939959 65:0.228682 
1 1:0.116487 2:0.081967 3:0.116788 4:0.033501 5:-0.020041 6:-0.010767 7:0.291091 8:0.211865 9:0.306782 10:0.340154 11:0.190971 12:0.20192 13:0.152761 14:-0.068734 15:-0.020761 16:-0.064924 17:-0.180483 18:0.018649 19:0.013246 20:0.520014 21:0.406988 22:0.534224 23:0.986507 24:0.609683 25:0.315564 26:0.69612 27:0.111111 28:0.511628 29:0.329521 30:0.303085 31:0.892727 32:0.478232 33:0.95901 34:0.75157 35:0.663278 36:0.472404 37:0 38:0.160376 39:0.567045 40:0.5 41:0.355118 42:0.162476 43:0.355436 44:0.840708 45:0.268725 46:0.420609 47:0.68354 48:0.478232 49:0.567283 50:0.699286 51:0.416733 52:0.929581 53:0 54:0.959309 55:0.358946 56:0.681818 57:0.838232 58:0.665531 59:0.448985 60:0.116022 61:0.390631 62:0.577692 63:0.550652 64:0.522762 65:0.29835 
1 1:0.173791 2:0.229508 3:0.510949 4:0.354508 5:0.368992 6:0.414162 7:0.219925 8:0.467963 9:0.314048 10:0.226761 11:0.189031 12:0.329068 13:0.27445 14:0.592625 15:0.347078 16:0.123665 17:0.638664 18:0.283984 19:0.380867 20:0.744375 21:0.624003 22:0.516019 23:0.166882 24:0.169925 25:0.380157 26:0.037793 27:0.444444 28:0.093023 29:0.044293 30:0.399873 31:0.935583 32:0.138543 33:0.919865 34:0.324243 35:0.41198 36:0.09667 37:0 38:0.032096 39:0.155718 40:0.5 41:0.098867 42:0.061896 43:0.150859 44:0.884956 45:0.118755 46:0.605283 47:0.836124 48:0.138543 49:0.248984 50:0.526712 51:0.677083 52:0.919789 53:0 54:0.876166 55:0.547134 56:0.590909 57:0.902709 58:0.840191 59:0.135133 60:0.256906 61:0.525724 62:0.146597 63:0.025075 64:0.069124 65:0.00263 
0.9781699401219134 1:0.286989 2:0.131148 3:0.291971 4:0.168499 5:0.311833 6:0.115493 7:0.705842 8:0.599962 9:0.517787 10:0.259922 11:0.779599 12:0.659582 13:0.360633 14:0.30838 15:0.441831 16:0.235373 17:1.031947 18:0.193742 19:0.139018 20:0.401297 21:0.168594 22:0.775469 23:0.43986 24:0.347712 25:0.845841 26:0.082318 27:0.111111 28:0.139535 29:0.079932 30:0.53637 31:0.911233 32:0.1968 33:0.957367 34:0.419071 35:0.083845 36:0.127398 37:0 38:0.100982 39:0.193628 40:0.5 41:0.145752 42:0.086074 43:0.20869 44:0.893805 45:0.076129 46:0.579873 47:0.870002 48:0.1968 49:0.317543 50:0.439651 51:0.338305 52:0.899417 53:0 54:0.905149 55:0.520687 56:0.590909 57:0.911886 58:0.875341 59:0.190647 60:0.201657 61:0.190277 62:0.064308 63:0.038114 64:0.13709 65:0.038127 
1 1:0.420855 2:0.557377 3:0.379562 4:0.419513 5:0.407629 6:0.454903 7:0.619014 8:0.442107 9:0.636007 10:0.047809 11:0.493144 12:0.459352 13:0.766926 14:0.281802 15:0.12595 16:0.247443 17:0.602329 18:0.327055 19:0.207979 20:0.457095 21:0.748128 22:0.235361 23:0.014369 24:-0.008095 25:0.028267 26:-0.000585 27:0.111111 28:0.627907 29:0.472678 30:0.451662 31:0.842392 32:-0.296669 33:-7.061795 34:0.815784 35:0.373504 36:0.715464 37:0 38:0.180087 39:0.683574 40:0.5 41:0.638046 42:0.154429 43:-0.281169 44:0.752212 45:0.424076 46:0.283085 47:0.582115 48:-0.296669 49:0.178433 50:0.805445 51:0.384183 52:0.853083 53:0 54:0.909622 55:0.28601 56:0.590909 57:0.765069 58:0.576649 59:-0.279591 60:0.276243 61:0.120505 62:0.685102 63:0.782347 64:0.754851 65:0.673075 
1 1:-0.014561 2:0.040984 3:0.430657 4:0.244332 5:0.28435 6:0.324134 7:0.035407 8:-0.039374 9:0.1194 10:0.001335 11:0.097895 12:0.093847 13:0.150812 14:1.223538 15:0.661665 16:0.101074 17:0.653472 18:0.738302 19:0.504479 20:0.499136 21:0.594905 22:0.350584 23:0.083193 24:0.069829 25:0.126633 26:0.013638 27:0.333333 28:0.023256 29:0.00159 30:1.293205 31:0.955062 32:0.038479 33:0.999869 34:-0.024617 35:0.764693 36:0.224146 37:0 38:-0.136517 39:0.108163 40:0.5 41:0.028539 42:0.042553 43:0.051527 44:1.044248 45:-0.003589 46:-0.161263 47:1.041644 48:0.038479 49:-0.152159 50:-0.070634 51:1.390799 52:0.983515 53:0 54:0.970628 55:0.67136 56:0.590909 57:1.067879 58:1.053425 59:0.039779 60:0.176796 61:1.343857 62:0.149716 63:0.049816 64:0.012505 65:0.009416 
1 1:0.04697 2:0.106557 3:0.058394 4:0.011367 5:0.030552 6:0.040206 7:0.220528 8:0.541229 9:0.226101 10:1.139515 11:0.356524 12:0.040437 13:0.313004 14:0.13098 15:0.045421 16:0.096915 17:0.216039 18:0.014019 19:0.070089 20:0.104218 21:0.417976 22:0.113281 23:0.84245 24:0.701347 25:0.461522 26:0.677945 27:0.111111 28:0.069767 29:0.026095 30:0.277776 31:0.883637 32:0.038385 33:0.97311 34:0.234372 35:0.216979 36:0.088839 37:0 38:0.077057 39:0.125437 40:0.5 41:0.075424 42:0.113475 43:0.051434 44:0.964602 45:0.012938 46:0.649057 47:0.972862 48:0.038385 49:-0.015586 50:0.145636 51:0.494366 52:0.929622 53:0 54:0.901904 55:0.639443 56:0.590909 57:0.985294 58:0.982062 59:0.03969 60:0.013812 61:0.349172 62:0.094942 63:0.045135 64:0.04318 65:0.000233 
0.4958740024335071 1:0.117426 2:0.459016 3:0.043796 4:0.222432 5:0.321271 6:0.314259 7:0.249141 8:0.202695 9:0.296725 10:0.051773 11:0.161113 12:0.209481 13:0.224304 14:0.652098 15:0.115458 16:0.833215 17:0.85906 18:0.411665 19:0.315774 20:0.593099 21:0.593417 22:0.424797 23:0.203299 24:0.188713 25:0.379285 26:0.039953 27:0.333333 28:0.162791 29:0.164596 30:1.104422 31:0.858638 32:0.241052 33:0.686012 34:0.44215 35:0.43773 36:0.184437 37:0 38:0.074073 39:0.221334 40:0.5 41:0.169194 42:0.138298 43:0.252617 44:0.849558 45:0.258127 46:0.095719 47:0.709802 48:0.241052 49:0.399126 50:0.642069 51:0.613327 52:0.895714 53:0 54:0.898215 55:0.459056 56:0.590909 57:0.866005 58:0.709128 59:0.232815 60:0.218232 61:0.629461 62:0.193895 63:0.494483 64:0.463131 65:0.697489 
1 1:0.14326 2:-0.040984 3:0.518248 4:0.299027 5:0.332418 6:0.375261 7:0.315088 8:0.412973 9:0.325977 10:0.145241 11:0.185566 12:0.286543 13:0.423641 14:0.60142 15:1.400658 16:0.092794 17:0.664901 18:0.281019 19:0.283779 20:0.678247 21:0.89593 22:0.303558 23:0.138243 24:0.127574 25:0.256737 26:0.028972 27:0.333333 28:0.046512 29:0.036724 30:0.572282 31:0.916659 32:0.153291 33:0.97714 34:0.267288 35:0.224683 36:0.030261 37:0 38:0.093709 39:0.099194 40:0.5 41:0.051981 42:0.080685 43:0.165499 44:0.831858 45:0.190265 46:0.592742 47:0.756887 48:0.153291 49:0.340919 50:0.601595 51:0.474101 52:0.892809 53:0 54:0.801131 55:0.566909 56:0.590909 57:0.847653 58:0.75798 59:0.149187 60:0.259669 61:0.629182 62:0.079547 63:0.114069 64:0.07762 65:0.043159 
1 1:0.018788 2:0.254098 3:0.007299 4:0.077178 5:0.113898 6:0.135108 7:0.348886 8:0.224491 9:0.313643 10:0.074249 11:0.199906 12:0.400611 13:0.411137 14:0.447132 15:0.049064 16:0.447453 17:0.466609 18:0.163823 19:0.104915 20:0.840104 21:0.835431 22:0.430814 23:0.384102 24:0.358526 25:0.350527 26:0.191275 27:0.222222 28:0.023256 29:0.015101 30:0.75716 31:0.884935 32:0.129185 33:0.976948 34:0.145875 35:0.213356 36:0.088738 37:0 38:0.039045 39:0.083122 40:0.5 41:0.028539 42:0.112186 43:0.14157 44:0.964602 45:0.018571 46:0.492419 47:0.968485 48:0.129185 49:0.113636 50:0.175845 51:0.566828 52:0.929342 53:0 54:0.934884 55:0.593107 56:0.590909 57:0.985294 58:0.97752 59:0.126216 60:0.030387 61:0.527439 62:0.021675 63:0.105316 64:0.068749 65:0.037068 
1 1:0.23767 2:0.106557 3:0.189781 4:0.090533 5:0.066631 6:0.077318 7:0.519532 8:0.586102 9:0.32376 10:0.643544 11:0.807501 12:0.018969 13:0.790349 14:0.004487 15:0.103646 16:0.022924 17:0.170434 18:0.033251 19:0.042224 20:-0.059999 21:0.458627 22:-0.057991 23:0.619916 24:0.508271 25:0.402553 26:0.343418 27:0.222222 28:0.581395 29:0.544843 30:0.626805 31:0.969347 32:0.139936 33:0.831386 34:0.844293 35:0.289436 36:0.511979 37:0 38:0.192958 39:0.634002 40:0.5 41:0.591161 42:0.028369 43:0.152241 44:0.814159 45:0.485048 46:0.225169 47:0.558795 48:0.139936 49:0.079156 50:0.833828 51:0.227214 52:0.944553 53:0 54:0.96931 55:0.302071 56:0.590909 57:0.829301 58:0.552452 59:0.13646 60:0.107735 61:0.114522 62:0.477365 63:0.247342 64:0.582704 65:0.267598 
1 1:0.044622 2:0.139344 3:0.160584 4:0.086124 5:0.114695 6:0.137683 7:0.422602 8:0.278784 9:0.42901 10:0.079145 11:0.363856 12:0.318326 13:0.424592 14:0.368968 15:0.140988 16:0.121585 17:0.437309 18:0.142423 19:0.088227 20:0.438451 21:0.547158 22:0.334693 23:0.395908 24:0.282372 25:0.363398 26:0.160422 27:0.222222 28:0.046512 29:0.018233 30:0.623382 31:0.931687 32:0.065722 33:0.937648 34:0.171513 35:0.266399 36:0.125285 37:0 38:-0.019258 39:0.115306 40:0.5 41:0.051981 42:0.065764 43:0.078571 44:1 45:0.020722 46:0.332092 47:0.992121 48:0.065722 49:0.015969 50:0.19232 51:0.691843 52:0.967453 53:0 54:0.948715 55:0.630774 56:0.590909 57:1.021998 58:1.002044 59:0.06574 60:0.033149 61:0.418197 62:0.10846 63:0.068539 64:0.031479 65:0.00524 
1 1:0.066698 2:0.172131 3:0.481752 4:0.315732 5:0.44878 6:0.374272 7:0.005767 8:0.084919 9:-0.02708 10:0.097101 11:0.006043 12:0.158946 13:0.297205 14:1.160768 15:0.542555 16:0.20231 17:0.986494 18:0.737045 19:0.815534 20:0.999575 21:1.400933 22:0.271414 23:0.169529 24:0.089369 25:0.451253 26:0.015295 27:0.333333 28:0.255814 29:0.143767 30:1.017795 31:1.059084 32:0.292954 33:0.765194 34:0.488266 35:1.20089 36:0.436972 37:0 38:-0.063782 39:0.336469 40:0.5 41:0.162497 42:-0.014313 43:0.220525 44:1.061947 45:0.117784 46:-0.107096 47:0.929092 48:0.292954 49:0.134403 50:0.440758 51:1.470646 52:1.075871 53:0 54:1.099108 55:0.519396 56:0.954545 57:1.00294 58:0.871253 59:0.253461 60:0.301105 61:1.096312 62:0.569281 63:0.199599 64:0.187793 65:0.015861 
1 1:0.421794 2:0.368852 3:0.080292 4:0.175478 5:0.117081 6:0.140906 7:1.075643 8:1.220402 9:0.689426 10:1.303479 11:1.046163 12:0.513723 13:1.177921 14:-0.025894 15:0 16:0.246383 17:0.189466 18:0.003545 19:0.016799 20:0.185121 21:0.545299 22:0.12673 23:0.39604 24:0.351068 25:0.352264 26:0.166881 27:0.222222 28:0.348837 29:0.199653 30:0.607971 31:0.936829 32:0.150537 33:0.986227 34:0.626709 35:-0.005926 36:0.471392 37:0 38:0.421555 39:0.362716 40:0.5 41:0.242871 42:0.107079 43:0.099346 44:0.858407 45:0.237515 46:0.487405 47:0.757652 48:0.150537 49:0.133465 50:0.684763 51:0.087767 52:0.940943 53:0 54:0.995657 55:0.336427 56:0.954545 57:0.802714 58:0.693379 59:0.124708 60:0.110497 61:-0.076288 62:0.286229 63:0.129388 64:0.286428 65:0.049256 
1 1:0.303429 2:0.344262 3:0.350365 4:0.295011 5:0.261584 6:0.292718 7:0.518636 8:0.367444 9:0.475002 10:0.088201 11:0.475443 12:0.523239 13:0.312442 14:0.223019 15:0.133354 16:0.132029 17:0.445235 18:0.242557 19:0.156083 20:0.540073 21:0.302853 22:0.699467 23:0.363223 24:0.773158 25:0.619681 26:0.339023 27:0.555556 28:0.046512 29:0.059291 30:0.970937 31:1.097654 32:0.227642 33:0.92734 34:0.328353 35:0.077596 36:0.004509 37:0 38:0.144131 39:0.092002 40:0.5 41:-0.018346 42:-0.052611 43:0.164952 44:1.088496 45:0.079867 46:0.118616 47:0.993697 48:0.227642 49:0.087461 50:0.41988 51:0.512372 52:1.103214 53:0 54:1.06679 55:0.607627 56:0.954545 57:1.029057 58:0.938283 59:0.194415 60:0.234807 61:0.21484 62:0.072107 63:0.07322 64:0.052382 65:0.011005 
0.5098612037503968 1:0.984969 2:1.057377 3:0.437956 4:0.739019 5:0.715643 6:0.748732 7:0.893056 8:0.879414 9:0.456353 10:0.748453 11:0.252693 12:0.730223 13:0.902909 14:0.184072 15:0.106344 16:0.457813 17:0.704566 18:0.334929 19:0.268914 20:1.215888 21:1.4627 22:0.336842 23:0.144067 24:0.10545 25:0.619355 26:0.02519 27:0.444444 28:0.093023 29:0.118995 30:0.987252 31:0.959833 32:0.267438 33:0.623369 34:0.477088 35:0.063304 36:-0.021666 37:0 38:0.34244 39:0.111453 40:0.5 41:0.021841 42:0.084238 43:0.198814 44:0.79646 45:0.30194 46:0.549004 47:0.668131 48:0.267438 49:0.505305 50:0.770776 51:0.332356 52:0.889353 53:0 54:0.986526 55:0.249333 56:0.954545 57:0.741776 58:0.600498 59:0.230393 60:0.781768 61:0.11896 62:0.095362 63:0.031093 64:0.104074 65:0.024557 
0.7377551791439663 1:0.984969 2:1.057377 3:0.437956 4:0.739019 5:0.715643 6:0.748732 7:0.893056 8:0.879414 9:0.456353 10:0.748453 11:0.252693 12:0.730223 13:0.902909 14:0.184072 15:0.106344 16:0.457813 17:0.704566 18:0.334929 19:0.268914 20:1.215888 21:1.4627 22:0.336842 23:0.144067 24:0.10545 25:0.619355 26:0.02519 27:0.444444 28:0.093023 29:0.118995 30:0.987252 31:0.959833 32:0.267438 33:0.623369 34:0.477088 35:0.063304 36:-0.021666 37:0 38:0.34244 39:0.111453 40:0.5 41:0.021841 42:0.084238 43:0.198814 44:0.79646 45:0.30194 46:0.549004 47:0.668131 48:0.267438 49:0.505305 50:0.770776 51:0.332356 52:0.889353 53:0 54:0.986526 55:0.249333 56:0.954545 57:0.741776 58:0.600498 59:0.230393 60:0.781768 61:0.11896 62:0.095362 63:0.031093 64:0.104074 65:0.024557 
1 1:0.683889 2:0.098361 3:0.678832 4:0.444976 5:0.404122 6:0.460506 7:0.91074 8:0.66015 9:0.987857 10:0.022507 11:0.783684 12:1.053529 13:0.695445 14:0.11188 15:0.674503 16:0.072307 17:0.542457 18:0.234123 19:0.141101 20:0.678215 21:0.407338 22:0.691779 23:0.00911 24:0.007281 25:-0.000325 26:0.001053 27:0.333333 28:0.325581 29:0.107489 30:0.283749 31:0.61959 32:0.306874 33:0.995318 34:0.474964 35:-0.00566 36:0.487776 37:0 38:0.682558 39:0.301621 40:0.5 41:0.222777 42:0.422082 43:0.232368 44:0.300885 45:0.361567 46:1.428292 47:0.369494 48:0.306874 49:0.922571 50:0.473556 51:-0.008071 52:0.391586 53:0 54:0.189758 55:0.569398 56:0.954545 57:0.254268 58:0.290651 59:0.266045 60:0.395028 61:0.023002 62:0.256548 63:0.444796 64:0.412777 65:0.191063 
1 1:0.041334 2:0.352459 3:0.029197 4:0.147973 5:0.227765 6:0.230886 7:0.347205 8:0.223179 9:0.089711 10:0.228532 11:0.411564 12:0.430501 13:0.020436 14:0.697057 15:0.099621 16:0.668856 17:0.751021 18:0.290177 19:0.189349 20:0.513952 21:0.026046 22:1.549592 23:0.13846 24:0.04275 25:0.151588 26:0.00122 27:-0.111111 28:0.023256 29:0.020461 30:0.458086 31:1.118692 32:0.049058 33:0.938193 34:0.193213 35:0.462619 36:-0.005486 37:0 38:-0.087206 39:0.10113 40:0.5 41:-0.03844 42:-0.073501 43:0.013 44:1.141593 45:0.014022 46:0.407597 47:1.113803 48:0.049058 49:-0.324134 50:0.157291 51:0.919761 52:1.129428 53:0 54:1.088505 55:0.662765 56:0.954545 57:1.08129 58:1.062897 59:0.032965 60:0.099448 61:0.640949 62:0.117474 63:0.055937 64:0.018708 65:-9.5e-005 
1 1:0.801785 2:0.778689 3:0.175182 4:0.471012 5:0.441817 6:0.479233 7:1.062824 8:0.814422 9:0.859322 10:0.224127 11:0.834839 12:1.208635 13:1.093658 14:0.0906 15:0.067404 16:0.593876 17:0.586997 18:0.211225 19:0.131439 20:0.738646 21:0.647488 22:0.492597 23:0.267473 24:0.481894 25:0.691845 26:0.122932 27:0.444444 28:0.139535 29:0.082335 30:0.532004 31:1.090585 32:0.096564 33:0.910374 34:0.433073 35:-0.037952 36:0.119226 37:0 38:0.259514 39:0.171017 40:0.5 41:0.062028 42:-0.045593 43:0.053422 44:0.831858 45:0.211166 46:0.965827 47:0.749946 48:0.096564 49:0.304821 50:0.622294 51:0.140136 52:0.915117 53:0 54:0.967482 55:0.333189 56:0.954545 57:0.776598 58:0.685383 59:0.075914 60:0.447514 61:-0.004404 62:0.107605 63:0.113006 64:0.080649 65:0.003986 
1 1:1.240019 2:1.008197 3:0.087591 4:0.605133 5:0.520374 6:0.084544 7:0.628966 8:2.92105 9:0.535067 10:6.520771 11:0.398278 12:0.286717 13:0.694665 14:0.014614 15:0.046093 16:1.045977 17:0.534079 18:0.032069 19:0.263046 20:0.364611 21:0.817227 22:0.148876 23:0.32324 24:0.283411 25:0.960093 26:0.072693 27:0.333333 28:0.302326 29:0.309501 30:0.652447 31:1.045643 32:0.296443 33:0.597277 34:0.730349 35:0.070295 36:0.093587 37:0 38:0.394215 39:0.31888 40:0.5 41:0.202684 42:-0.000967 43:0.223493 44:0.716814 45:0.695311 46:0.569156 47:0.500098 48:0.296443 49:0.732717 50:0.963125 51:0.100229 52:0.920937 53:0 54:1.032013 55:0.056954 56:0.954545 57:0.663426 58:0.426158 59:0.256615 60:0.762431 61:-0.006206 62:0.387266 63:-0.0537 64:0.267014 65:0.12105 
1 1:0.457492 2:0.590164 3:0.489051 4:0.495051 5:0.554713 6:0.537099 7:0.475038 8:0.796661 9:0.103438 10:1.180196 11:0.902779 12:0.008005 13:0.153192 14:0.397022 15:0.197317 16:0.279029 17:0.810893 18:0.277718 19:0.349077 20:-0.081919 21:-0.010854 22:0.198941 23:0.225748 24:0.133554 25:0.747021 26:0.050308 27:0.222222 28:0.44186 29:0.394296 30:0.546075 31:0.775416 32:0.417229 33:0.595722 34:0.795641 35:0.434349 36:0.310157 37:0 38:0.371902 39:0.46527 40:0.5 41:0.381981 42:0.244144 43:0.372992 44:0.486726 45:0.868929 46:0.611053 47:0.291795 48:0.417229 49:0.866751 50:0.989508 51:0.336485 52:0.716731 53:0 54:0.723691 55:0.119 56:0.636364 57:0.482889 58:0.267257 59:0.396133 60:0.538674 61:0.37651 62:0.499351 63:0.655188 64:0.625988 65:0.768238 
1 1:0.019728 2:0.237705 3:0.226277 4:0.171321 5:0.227649 6:0.254433 7:0.064288 8:0.184993 9:0.14401 10:0.132277 11:0.058728 12:0.256231 13:0.47863 14:0.798225 15:0.182485 16:0.206762 17:0.665001 18:0.317627 19:0.385361 20:1.014808 21:1.55722 22:0.234411 23:0.164931 24:0.101635 25:0.211868 26:0.030495 27:0.111111 28:0.302326 29:0.111387 30:0.177637 31:0.302005 32:0.349296 33:0.953462 34:0.500221 35:1.040828 36:0.395036 37:0 38:0.692996 39:0.276264 40:0.5 41:0.252145 42:0.714217 43:0.310744 44:0.460177 45:0.108626 46:0.464771 47:0.43963 48:0.349296 49:0.821013 50:0.494786 51:0.566997 52:0.413471 53:0 54:0.539569 55:0.334863 56:0.636364 57:0.455546 58:0.42064 59:0.331833 60:0.088398 61:0.724785 62:0.583 63:0.211769 64:0.221654 65:0.028664 
1 1:0.785345 2:0.918033 3:0.131387 4:0.552599 5:0.527367 6:0.557412 7:0.900246 8:0.714964 9:0.890993 10:0.102201 11:0.740505 12:0.667058 13:0.808086 14:0.153281 15:0.068659 16:0.865388 17:0.635962 18:0.290007 19:0.191962 20:0.432755 21:0.521522 22:0.348244 23:0.187639 24:0.100181 25:0.50601 26:0.03615 27:0.222222 28:1.44186 29:1.201947 30:-0.273775 31:0.880089 32:1.310427 33:0.676527 34:1.022002 35:0.526595 36:1.516143 37:0 38:0.786544 39:1.432453 40:0.5 41:1.312472 42:0.140209 43:1.191451 44:0.486726 45:1.088965 46:0.749293 47:0.293034 48:1.310427 49:0.988706 50:1.012358 51:0.151282 52:0.788603 53:0 54:0.939048 55:-0.183573 56:0.636364 57:0.482889 58:0.268542 59:1.241571 60:0.466851 61:0.018727 62:1.242397 63:1.208626 64:1.227118 65:0.794027 
1 1:0.199155 2:0.229508 3:0.518248 4:0.359656 5:0.475067 6:0.421615 7:0.193179 8:0.185409 9:0.21303 10:0.067133 11:0.194744 12:0.498698 13:0.098795 14:0.712463 15:0.464766 16:0.198035 17:0.934872 18:0.610205 19:0.50756 20:1.021436 21:0.307448 22:1.25811 23:0.168413 24:0.108746 25:0.437501 26:0.022205 27:0.222222 28:0.27907 29:0.18245 30:0.712308 31:0.479514 32:0.352131 33:0.666787 34:0.557031 35:0.734268 36:0.36524 37:0 38:0.662358 39:0.256766 40:0.5 41:0.230506 42:0.537959 43:0.313341 44:0.539823 45:0.15184 46:0.477862 47:0.520386 48:0.352131 49:0.771409 50:0.566717 51:0.541235 52:0.531808 53:0 54:0.618657 55:0.352218 56:0.636364 57:0.537576 58:0.504428 59:0.334516 60:0.342541 61:0.616072 62:0.406456 63:0.468154 64:0.436449 65:0.419363 
1 1:0.753875 2:0.639344 3:0.956204 4:0.806413 5:0.657725 6:0.480878 7:0.472829 8:0.970665 9:0.295792 10:0.778002 11:0.264085 12:0.637761 13:0.168742 14:0.256561 15:0.22953 16:0.108983 17:0.512513 18:0.277903 19:0.413914 20:1.046077 21:0.331337 22:1.225476 23:0.282151 24:0.423729 25:1.046531 26:0.104371 27:0.555556 28:0.418605 29:0.247152 30:0.45639 31:0.699391 32:0.485514 33:0.827917 34:0.702254 35:0.489367 36:0.450307 37:0 38:0.757495 39:0.386404 40:0.5 41:0.360342 42:0.319632 43:0.435563 44:0.575221 45:0.313966 46:0.341812 47:0.395509 48:0.485514 49:0.827268 50:0.777157 51:0.375498 52:0.627917 53:0 54:0.662407 55:0.347848 56:0.636364 57:0.574034 58:0.374864 59:0.460767 60:0.925414 61:0.387375 62:0.508903 63:0.438315 64:0.40621 65:0.199906 
1 1:0.753875 2:0.639344 3:0.956204 4:0.806413 5:0.657725 6:0.480878 7:0.472829 8:0.970665 9:0.295792 10:0.778002 11:0.264085 12:0.637761 13:0.168742 14:0.256561 15:0.22953 16:0.108983 17:0.512513 18:0.277903 19:0.413914 20:1.046077 21:0.331337 22:1.225476 23:0.282151 24:0.423729 25:1.046531 26:0.104371 27:0.555556 28:0.418605 29:0.247152 30:0.45639 31:0.699391 32:0.485514 33:0.827917 34:0.702254 35:0.489367 36:0.450307 37:0 38:0.757495 39:0.386404 40:0.5 41:0.360342 42:0.319632 43:0.435563 44:0.575221 45:0.313966 46:0.341812 47:0.395509 48:0.485514 49:0.827268 50:0.777157 51:0.375498 52:0.627917 53:0 54:0.662407 55:0.347848 56:0.636364 57:0.574034 58:0.374864 59:0.460767 60:0.925414 61:0.387375 62:0.508903 63:0.438315 64:0.40621 65:0.199906 
0.726474102973565 1:1.23814 2:0.745902 3:0.839416 4:0.775264 5:0.854191 6:0.8154 7:0.746317 8:1.196549 9:0.278525 10:1.902855 11:0.289659 12:0.889371 13:0.427216 14:0.165515 15:0.274556 16:0.247891 17:0.890839 18:0.303487 19:0.37883 20:1.332891 21:0.667028 22:0.903397 23:0.292471 24:0.464066 25:1.418743 26:0.129512 27:0.888889 28:0.604651 29:0.702839 30:0.487852 31:0.845392 32:0.276154 33:0.213377 34:0.955984 35:0.448295 36:0.283747 37:0 38:0.73522 39:0.580525 40:0.5 41:0.533456 42:0.174662 43:0.243722 44:0.495575 45:0.891451 46:0.482881 47:0.161184 48:0.276154 49:0.710183 50:1.041316 51:0.215325 52:0.702657 53:0 54:0.776899 55:0.058518 56:0.636364 57:0.492004 58:0.131744 59:0.262602 60:0.98895 61:0.108731 62:0.817382 63:0.691073 64:0.662354 65:0.165046 
0.1220778466032467 1:0.468765 2:0.409836 3:0.313869 4:0.306699 5:0.551546 6:0.240914 7:0.479761 8:0.663424 9:0.272606 10:0.62475 11:0.659445 12:0.169513 13:0.500651 14:0.382409 15:0.316901 16:0.46656 17:1.34253 18:0.324478 19:0.344639 20:0.091547 21:0.340895 22:0.142642 23:0.173641 24:0.1028 25:0.544919 26:0.021799 27:0.111111 28:0.488372 29:0.631544 30:0.625405 31:0.76849 32:0.714686 33:0.43837 34:0.864275 35:0.386064 36:0.143556 37:0 38:0.434987 39:0.504008 40:0.5 41:0.42526 42:0.251021 43:0.645559 44:0.557522 45:0.885022 46:0.394551 47:0.276038 48:0.714686 49:0.942021 50:0.996592 51:0.286989 52:0.766894 53:0 54:0.747917 55:0.199159 56:0.636364 57:0.555805 58:0.250908 59:0.677685 60:0.461326 61:0.276152 62:0.385653 63:0.93681 64:0.911384 65:1.457597 
1 1:0.114138 2:0.090164 3:0.40146 4:0.234101 5:0.252977 6:0.282967 7:0.315808 8:0.271579 9:0.219691 10:0.115486 11:0.283846 12:0.127029 13:0.516438 14:0.516265 15:0.442767 16:0.090728 17:0.569036 18:0.285801 19:0.22179 20:0.275377 21:0.805031 22:0.09752 23:0.146046 24:0.075549 25:0.19633 26:0.022166 27:0.111111 28:0.255814 29:0.177038 30:0.402158 31:0.654101 32:0.304747 33:0.951767 34:0.573691 35:0.483179 36:0.157646 37:0 38:0.914223 39:0.196973 40:0.5 41:0.208866 42:0.364603 43:0.269922 44:0.654867 45:0.317052 46:0.449641 47:0.547633 48:0.304747 49:0.695847 50:0.661981 51:0.427367 52:0.719063 53:0 54:0.567113 55:0.610207 56:0.636364 57:0.656064 58:0.532698 59:0.289666 60:0.154696 61:0.490238 62:0.279532 63:0.357807 64:0.324623 65:0.144095 
1 1:0.151714 2:0.516393 3:-0.036496 4:0.244058 5:0.26894 6:0.311457 7:0.494635 8:0.343603 9:0.327683 10:0.144289 11:0.517186 12:0.154621 13:0.470195 14:0.459013 15:0.056048 16:1.315094 17:0.598951 18:0.26082 19:0.167145 20:0.140346 21:0.425577 22:0.144636 23:0.075231 24:0.078339 25:0.084584 26:0.011208 27:0.555556 28:0.325581 29:0.361081 30:0.892186 31:0.985952 32:0.33075 33:0.414668 34:0.680771 35:0.309519 36:0.26306 37:0 38:-0.000514 39:0.399049 40:0 41:0.488014 42:-0.03454 43:0.466226 44:0.938053 45:0.312924 46:0.009006 47:0.706801 48:0.33075 49:0.316722 50:0.644354 51:0.412231 52:0.999759 53:0 54:0.985875 55:0.478642 56:0.681818 57:0.937823 58:0.689665 59:0.31032 60:0.187845 61:0.447686 62:0.275202 63:0.742561 64:0.714532 65:0.767057 
1 1:0.202912 2:0.180328 3:0.255474 4:0.163331 5:0.207062 6:0.223453 7:0.71592 8:0.708084 9:0.601953 10:0.457542 11:0.441154 12:0.913313 13:0.087022 14:0.260831 15:0.218603 16:0.150776 17:0.604735 18:0.102352 19:0.087734 20:1 21:0.086095 22:2.180719 23:0.378598 24:0.284376 25:0.550197 26:0.153951 27:0.333333 28:0.093023 29:0.081821 30:1.125635 31:0.941183 32:0.183582 33:0.770186 34:0.356917 35:0.121783 36:0.127752 37:0 38:0.085818 39:0.148055 40:0 41:0.206703 42:0.009913 43:0.290916 44:0.982301 45:0.07616 46:-0.076043 47:0.896592 48:0.183582 49:0.165809 50:0.363625 51:0.405361 52:0.963795 53:0 54:0.958617 55:0.588312 56:0.681818 57:0.983092 58:0.88658 59:0.17195 60:0.154696 61:0.258411 62:0.138399 63:0.017051 64:0.068168 65:0.005014 
1 1:0.024894 2:0.188525 3:0.051095 4:0.05351 5:0.156416 6:0.141187 7:0.388628 8:0.246141 9:0.331148 10:0.072635 11:0.395532 12:0.23284 13:0.261684 14:0.55558 15:0.146357 16:0.406246 17:0.814217 18:0.199599 19:0.124659 20:0.305023 21:0.315509 22:0.40643 23:0.421376 24:0.383846 25:0.45084 26:0.168603 27:0.222222 28:0.046512 29:0.057617 30:0.772322 31:0.730396 32:0.173669 33:0.890325 34:0.309689 35:0.222192 36:-0.000543 37:0 38:0.092671 39:0.099342 40:0 41:0.15044 42:0.219213 43:0.279107 44:0.79646 45:0.064677 46:0.265785 47:0.769768 48:0.173669 49:0.399758 50:0.351918 51:0.528232 52:0.764354 53:0 54:0.795635 55:0.517531 56:0.681818 57:0.792964 58:0.754995 59:0.162629 60:0.046961 61:0.553333 62:0.089198 63:0.219258 64:0.184217 65:0.109006 
1 1:0.192579 2:0.5 3:0.021898 4:0.244332 5:0.280942 6:0.317851 7:0.533221 8:0.392926 9:0.534228 10:0.0574 11:0.480969 12:0.385001 13:0.660554 14:0.400557 15:0.070035 16:0.85107 17:0.641244 18:0.247454 19:0.163331 20:0.393637 21:0.65618 22:0.23552 23:0.085051 24:0.052223 25:0.114227 26:0.004797 27:0.111111 28:0.069767 29:0.048197 30:0.775985 31:0.923651 32:0.155678 33:0.977076 34:0.31464 35:0.10455 36:0.093319 37:0 38:0.067573 39:0.12679 40:0 41:0.178571 42:0.027321 43:0.257676 44:0.946903 45:0.049037 46:0.284342 47:0.918751 48:0.155678 49:0.197171 50:0.339009 51:0.418118 52:0.927526 53:0 54:0.909564 55:0.600133 56:0.681818 57:0.946877 58:0.909571 59:0.145713 60:0.179558 61:0.326941 62:0.025333 63:0.115346 64:0.120957 65:0.053556 
1 1:0.248473 2:0.516393 3:0.072993 4:0.2686 5:0.321938 6:0.329316 7:0.566687 8:0.457911 9:0.663342 10:0.058978 11:0.563869 12:0.508532 13:0.50776 14:0.374688 15:0.090053 16:0.700752 17:0.714436 18:0.251998 19:0.177156 20:0.439303 21:0.419748 22:0.440799 23:0.119422 24:0.055231 25:0.193068 26:0.009051 27:0.444444 28:0.162791 29:0.09287 30:0.855277 31:0.873248 32:0.258937 33:0.856179 34:0.449524 35:0.164646 36:0.227873 37:0 38:0.110586 39:0.216127 40:0 41:0.291096 42:0.077369 43:0.380681 44:0.911504 45:0.07481 46:0.138832 47:0.840676 48:0.258937 49:0.340138 50:0.418647 51:0.427465 52:0.900372 53:0 54:0.885906 55:0.576273 56:0.681818 57:0.910662 58:0.828565 59:0.2428 60:0.218232 61:0.281141 62:0.164015 63:0.145186 64:0.167691 65:0.051974 
1 1:0.230155 2:0.122951 3:0.145985 4:0.069786 5:0.051756 6:0.068603 7:0.947816 8:1.050158 9:0.417281 10:1.800687 11:1.420315 12:0.101716 13:1.061642 14:-0.013462 15:0.064185 16:0.035888 17:0.150037 18:-0.014321 19:6.2e-005 20:-0.089966 21:0.312139 22:-0.050569 23:0.697054 24:0.700336 25:0.519897 26:0.523543 27:0.222222 28:0.55814 29:0.360674 30:0.530074 31:0.876685 32:0.280073 33:0.809757 34:0.769028 35:0.317064 36:0.673373 37:0 38:0.152778 39:0.615865 40:0 41:0.769325 42:0.073956 43:0.405858 44:0.80531 45:0.314925 46:0.275008 47:0.60514 48:0.280073 49:0.283193 50:0.761595 51:0.207398 52:0.889868 53:0 54:0.952756 55:0.311055 56:0.681818 57:0.802018 58:0.584188 59:0.262672 60:0.08011 61:0.078445 62:0.597365 63:0.105985 64:0.482058 65:0.182109 
1 1:0.155002 2:0.098361 3:0.284672 4:0.152205 5:0.228409 6:0.207885 7:0.412985 8:0.370866 9:0.526799 10:0.062113 11:0.341076 12:0.642331 13:0.423746 14:0.37573 15:0.38208 16:0.149298 17:0.737619 18:0.211927 19:0.166437 20:0.87642 21:0.57848 22:0.6611 23:0.215631 24:0.127462 25:0.292149 26:0.010887 27:0 28:0.046512 29:0.056478 30:0.918198 31:0.903302 32:0.123324 33:0.895076 34:0.335284 35:0.142149 36:0.028977 37:0 38:0.130264 39:0.09398 40:0 41:0.15044 42:0.047527 43:0.219135 44:0.955752 45:0.048044 46:0.20958 47:0.918962 48:0.123324 49:0.175198 50:0.295861 51:0.395772 52:0.932128 53:0 54:0.901062 55:0.626352 56:0.681818 57:0.955931 58:0.90979 59:0.115294 60:0.135359 61:0.327863 62:0.015394 63:0.112538 64:0.111578 65:0.057995 
1 1:0.076562 2:0.196721 3:0.270073 4:0.179555 5:0.261589 6:0.26409 7:0.227382 8:0.237766 9:0.314218 10:0.100906 11:0.343252 12:0.203707 13:0.235001 14:0.649892 15:0.265988 16:0.20101 17:0.777329 18:0.317016 19:0.277406 20:0.318358 21:0.334063 22:0.401574 23:0.17467 24:0.102819 25:0.254946 26:0.0214 27:0.222222 28:0.046512 29:0.023043 30:0.638025 31:0.875373 32:0.083714 33:0.964584 34:0.19644 35:0.3155 36:0.108752 37:0 38:0.052358 39:0.105092 40:0 41:0.15044 42:0.075259 43:0.17195 44:0.920354 45:0.041069 46:0.416449 47:0.906172 48:0.083714 49:0.138727 50:0.290674 51:0.6615 52:0.896555 53:0 54:0.884353 55:0.592729 56:0.681818 57:0.919716 58:0.89652 59:0.078051 60:0.151934 61:0.627957 62:0.136237 63:0.092879 64:0.056145 65:0.020572 
1 1:0.149366 2:0.016393 3:0.518248 4:0.306942 5:0.341873 6:0.374563 7:0.277701 8:0.231492 9:0.290439 10:0.051414 11:0.225791 12:0.139832 13:0.513112 14:0.603627 15:0.917159 16:0.09977 17:0.674323 18:0.408856 19:0.314056 20:0.362193 21:0.936975 22:0.110268 23:0.102842 24:0.062612 25:0.183222 26:0.009769 27:0.333333 28:0.023256 29:0.052954 30:0.973426 31:0.894119 32:0.033204 33:0.887334 34:0.31395 35:0.324847 36:-0.070277 37:0 38:0.047623 39:0.081899 40:0 41:0.122309 42:0.056645 43:0.111783 44:0.902655 45:0.093339 46:0.121084 47:0.792904 48:0.033204 49:0.105907 50:0.456932 51:0.592187 52:0.904253 53:0 54:0.839765 55:0.626825 56:0.681818 57:0.901608 58:0.779 59:0.030562 60:0.259669 61:0.608168 62:0.072286 63:0.162153 64:0.126348 65:0.073536 
1 1:1.448098 2:0.45082 3:0.569343 4:0.47763 5:1.269774 6:0.260518 7:0.7288 8:0.699673 9:0.141492 10:0.939664 11:0.701839 12:0.637664 13:0.949511 14:0.272652 15:0.793037 16:0.712779 17:2.588991 18:0.739869 19:0.57936 20:0.438074 21:0.66454 22:0.263295 23:0.218744 24:0.222474 25:1.525327 26:0.014581 27:0.111111 28:0.27907 29:0.157426 30:0.397611 31:0.789739 32:0.145934 33:0.796283 34:0.602697 35:0.193355 36:0.271435 37:0 38:0.458163 39:0.285891 40:0 41:0.431751 42:0.160289 43:0.246069 44:0.716814 45:0.169705 46:0.775068 47:0.697299 48:0.145934 49:0.348942 50:0.592575 51:0.259632 52:0.762945 53:0 54:0.839418 55:0.327545 56:0.681818 57:0.71148 58:0.679807 59:0.136552 60:1.21547 61:0.126698 62:0.341383 63:0.269809 64:0.235446 65:0.037602 
1 1:0.023955 2:-0.040984 3:0.153285 4:0.016836 5:0.024611 6:0.039169 7:0.565568 8:0.390494 9:0.500179 10:0.238351 11:0.726244 12:0.14017 13:0.499117 14:0.15691 15:0.30785 16:-0.013793 17:0.155694 18:0.030279 19:0.013388 20:0.046343 21:0.297839 22:0.116989 23:0.577808 24:0.454925 25:0.273787 26:0.300069 27:0.222222 28:0.348837 29:0.362184 30:1.443137 31:0.902467 32:0.254855 33:0.940724 34:0.597327 35:0.34766 36:0.407156 37:0 38:0.124578 39:0.405075 40:0.5 41:0.356735 42:0.094778 43:0.26632 44:0.920354 45:0.285996 46:-0.476946 47:0.593264 48:0.254855 49:0.240531 50:0.548164 51:0.167421 52:0.950963 53:0 54:0.978692 55:0.460185 56:1 57:0.854725 58:0.514646 59:0.215842 60:-0.016575 61:0.341201 62:0.632368 63:0.065418 64:0.246627 65:0.050849 
0.8565718834236713 1:0.037576 2:0.262295 3:0.124088 4:0.129681 5:0.223743 6:0.203776 7:0.362254 8:0.293303 9:0.143056 10:0.291733 11:0.304414 12:0.495886 13:0.076118 14:0.701775 15:0.156946 16:0.35952 17:0.806611 18:0.244224 19:0.180701 20:0.75543 21:0.159401 22:1.363518 23:0.300472 24:0.195228 25:0.426488 26:0.083224 27:0.222222 28:0.697674 29:0.596454 30:0.336406 31:0.934284 32:0.339444 33:-0.719005 34:0.823987 35:1.012413 36:0.742302 37:0 38:0.09159 39:0.7678 40:0.5 41:0.708374 42:0.063185 43:0.35029 44:0.831858 45:0.509861 46:0.304904 47:0.655965 48:0.339444 49:0.481906 50:0.783509 51:0.690626 52:0.958266 53:0 54:1.018166 55:0.261978 56:1 57:0.768225 58:0.5797 59:0.291827 60:0.09116 61:0.633953 62:0.935733 63:0.810431 64:0.783312 65:0.949369 
1 1:0.090653 2:0.04918 3:0.080292 4:-0.003631 5:0.063352 6:0.070908 7:0.898956 8:0.732735 9:0.798764 10:0.29884 11:1.033771 12:0.409769 13:0.449382 14:0.143508 15:0.176215 16:0.134672 17:0.514954 18:0.014596 19:0.007297 20:0.130218 21:0.134171 22:0.402659 23:1.068749 24:0.873322 25:0.694597 26:1.065075 27:0.333333 28:0.55814 29:0.385941 30:0.190583 31:0.932749 32:0.539619 33:0.830059 34:0.761305 35:0.186243 36:0.498069 37:0 38:0.640049 39:0.546364 40:0.5 41:0.567719 42:0.064709 43:0.549 44:0.831858 45:0.357651 46:0.54999 47:0.709206 48:0.539619 49:0.61678 50:0.747051 51:0.150455 52:0.957243 53:0 54:0.976679 55:0.320266 56:1 57:0.768225 58:0.634939 59:0.471644 60:-0.022099 61:0.118012 62:0.429012 63:0.698874 64:0.67026 65:0.391364 
1 1:0.093941 2:0.188525 3:0.167883 4:0.113684 5:0.108012 6:0.086775 7:0.005751 8:0.174523 9:0.081115 10:0.223532 11:-0.016462 12:0.102967 13:0.432081 14:0.240946 15:0.086409 16:0.103407 17:0.311529 18:0.181279 19:0.28466 20:0.940573 21:2.056582 22:0.114625 23:0.939155 24:0.828098 25:0.904914 26:1.044015 27:0.222222 28:0.186047 29:0.088833 30:0.71578 31:0.761682 32:0.123551 33:0.967306 34:0.445457 35:0.384665 36:0.288757 37:0 38:0.128206 39:0.237481 40:0.5 41:0.192637 42:0.23457 43:0.135976 44:0.831858 45:0.067224 46:0.417581 47:0.79229 48:0.123551 49:0.235621 50:0.408157 51:0.473704 52:0.817084 53:0 54:0.899006 55:0.429396 56:1 57:0.768225 58:0.721142 59:0.097891 60:0.110497 61:0.450223 62:0.311234 63:0.072581 64:0.172401 65:0.030276 
1 1:0.224519 2:0.311475 3:0.160584 4:0.174921 5:0.180285 6:0.190963 7:0.676665 8:0.636384 9:0.314596 10:0.481346 11:0.605504 12:0.733823 13:0.159902 14:0.190972 15:0.081065 16:0.223863 17:0.454791 18:0.099361 19:0.080731 20:0.599558 21:0.082227 22:1.421498 23:0.353383 24:0.286789 25:0.418738 26:0.128683 27:0.222222 28:0.186047 29:0.089212 30:0.613504 31:0.934437 32:0.245633 33:0.793002 34:0.453332 35:0.220899 36:0.229293 37:0 38:0.500586 39:0.184368 40:0.5 41:0.192637 42:0.063033 43:0.257165 44:0.929204 45:0.090851 46:0.448154 47:0.85633 48:0.245633 49:0.289963 50:0.452342 51:0.357023 52:0.951047 53:0 54:0.916972 55:0.561175 56:1 57:0.863375 58:0.787586 59:0.207557 60:0.129834 61:0.173675 62:0.318769 63:0.089936 64:0.116243 65:-0.002029 
1 1:0.259746 2:0.040984 3:0.576642 4:0.356127 5:0.54078 6:0.199052 7:0.204809 8:0.798521 9:0.162316 10:0.774317 11:0.365408 12:0.087185 13:0.165137 14:0.673398 15:1.207908 16:0.208144 17:1.136996 18:0.269504 19:0.556536 20:0.155856 21:0.225975 22:0.318428 23:0.319058 24:0.26826 25:0.975556 26:0.07812 27:0.111111 28:0.116279 29:0.067565 30:0.619756 31:0.952602 32:0.165958 33:0.822085 34:0.395871 35:0.421952 36:0.102402 37:0 38:0.076744 39:0.173217 40:0.5 41:0.079031 42:0.068207 43:0.142747 44:0.902655 45:0.087725 46:0.574053 47:0.859843 48:0.165958 49:0.195877 50:0.466295 51:0.684574 52:0.921604 53:0 54:0.935935 55:0.491708 56:0.954545 57:0.846241 58:0.799405 59:0.13865 60:0.444751 61:0.625494 62:0.300474 63:0.003945 64:0.082392 65:0.012635 
1 1:0.259746 2:0.040984 3:0.576642 4:0.356127 5:0.54078 6:0.199052 7:0.204809 8:0.798521 9:0.162316 10:0.774317 11:0.365408 12:0.087185 13:0.165137 14:0.673398 15:1.207908 16:0.208144 17:1.136996 18:0.269504 19:0.556536 20:0.155856 21:0.225975 22:0.318428 23:0.319058 24:0.26826 25:0.975556 26:0.07812 27:0.111111 28:0.116279 29:0.067565 30:0.619756 31:0.952602 32:0.165958 33:0.822085 34:0.395871 35:0.421952 36:0.102402 37:0 38:0.076744 39:0.173217 40:0.5 41:0.079031 42:0.068207 43:0.142747 44:0.902655 45:0.087725 46:0.574053 47:0.859843 48:0.165958 49:0.195877 50:0.466295 51:0.684574 52:0.921604 53:0 54:0.935935 55:0.491708 56:0.954545 57:0.846241 58:0.799405 59:0.13865 60:0.444751 61:0.625494 62:0.300474 63:0.003945 64:0.082392 65:0.012635 
1 1:-0.009394 2:0.032787 3:0.211679 4:0.079604 5:0.177456 6:0.164514 7:0.181299 8:0.300904 9:0.176609 10:0.238798 11:0.265865 12:0.060231 13:0.120027 14:0.792131 15:0.459994 16:0.156675 17:0.800287 18:0.195343 19:0.226621 20:0.196539 21:0.257066 22:0.33812 23:0.335572 24:0.236693 25:0.414112 26:0.131917 27:0.222222 28:0.093023 29:0.027692 30:0.08854 31:0.925008 32:0.082979 33:0.961318 34:0.232 35:0.548304 36:0.120467 37:0 38:0.033207 39:0.155559 40:0.5 41:0.057391 42:0.095607 43:0.066712 44:0.973451 45:0.041397 46:0.516912 47:0.970736 48:0.082979 49:0.022787 50:0.30092 51:0.932311 52:0.961289 53:0 54:0.966106 55:0.563516 56:0.954545 57:0.915885 58:0.914461 59:0.063632 60:0.044199 61:0.751238 62:0.203607 63:0.129388 64:0.093144 65:0.01697 
1 1:0.04744 2:0.07377 3:0.445255 4:0.2626 5:0.355722 6:0.349025 7:0.125945 8:0.02991 9:0.199726 10:0.002828 11:0.128833 12:0.205337 13:0.093183 14:1.023162 15:0.675142 16:0.151904 17:0.848917 18:0.703398 19:0.463897 20:0.661053 21:0.401353 22:0.682833 23:0.101156 24:0.048026 25:0.190589 26:0.003778 27:0 28:0.093023 29:0.034361 30:0.281925 31:0.878442 32:0.003446 33:0.829125 34:0.271671 35:0.780787 36:0.107857 37:0 38:-0.019554 39:0.163085 40:0.5 41:0.057391 42:0.141844 43:-0.006167 44:0.938053 45:0.057012 46:0.857767 47:0.940472 48:0.003446 49:0.034433 50:0.349055 51:1.194851 52:0.940423 53:0 54:0.96551 55:0.507254 56:0.954545 57:0.881063 58:0.883061 59:-0.008271 60:0.207182 61:0.941412 62:0.217035 63:0.111836 64:0.075356 65:0.020471 
1 1:0.100517 2:0.42623 3:0.343066 4:0.331054 5:0.336612 6:0.384745 7:0.211443 8:0.082693 9:0.312841 10:-0.002453 11:0.186455 12:0.214028 13:0.22045 14:0.740877 15:0.143821 16:0.211997 17:0.597545 18:0.576364 19:0.358019 20:0.54954 21:0.534022 22:0.437049 23:0.008179 24:0.01056 25:-0.01336 26:0.000402 27:0.444444 28:0.255814 29:0.068949 30:0.197693 31:0.96675 32:0.265886 33:0.976251 34:0.384782 35:0.838586 36:0.450052 37:0 38:0.106623 39:0.312164 40:0.5 41:0.208866 42:0.054159 43:0.234313 44:0.955752 45:0.06563 46:0.545408 47:0.935001 48:0.265886 49:0.268185 50:0.400915 51:1.01753 52:0.961413 53:0 54:0.994278 55:0.495385 56:0.954545 57:0.898474 58:0.877384 59:0.22899 60:0.165746 61:0.566167 62:0.534574 63:0.274284 64:0.239981 65:0.089986 
1 1:0.015031 2:0.262295 3:0.321168 4:0.240003 5:0.279338 6:0.322238 7:0.107354 8:0.019918 9:0.194838 10:0.00275 11:0.121875 12:0.15781 13:0.218802 14:0.987952 15:0.213883 16:0.172908 17:0.648087 18:0.593421 19:0.3985 20:0.580572 21:0.678561 22:0.356882 23:0.066713 24:0.055514 25:0.083634 26:0.008017 27:0.222222 28:0.139535 29:0.050282 30:0.564709 31:0.934609 32:0.215434 33:0.970798 34:0.31991 35:0.886208 36:0.24178 37:0 38:0.068 39:0.198333 40:0.5 41:0.10067 42:0.086074 43:0.188083 44:0.973451 45:0.04672 46:0.594036 47:0.965531 48:0.215434 49:0.218622 50:0.32733 51:1.258102 52:0.966129 53:0 54:0.988632 55:0.531867 56:0.954545 57:0.915885 58:0.90906 59:0.183378 60:0.110497 61:0.83276 62:0.227135 63:0.220818 64:0.185798 65:0.082774 
1 1:0.767966 2:0.180328 3:0.635036 4:0.430146 5:0.455483 6:0.458967 7:1.145087 8:1.007367 9:1.010109 10:0.241014 11:0.956525 12:1.230949 13:1.136281 14:0.112642 15:0.533592 16:0.121714 17:0.705187 18:0.174504 19:0.124836 20:0.651439 21:0.580554 22:0.480919 23:0.174099 24:0.218982 25:0.480137 26:0.052092 27:0.444444 28:0.139535 29:0.154612 30:0.686232 31:0.994801 32:0.11106 33:0.710559 34:0.546394 35:-0.021775 36:-0.080819 37:0 38:0.219088 39:0.176783 40:0.5 41:0.10067 42:0.026306 43:0.092443 44:0.920354 45:0.149694 46:0.426625 47:0.801064 48:0.11106 49:0.175721 50:0.595177 51:0.179472 52:0.971073 53:0 54:0.989144 55:0.445499 56:0.954545 57:0.863652 58:0.73842 59:0.089018 60:0.464088 61:0.026577 62:0.168041 63:0.195903 64:0.164133 65:0.035879 
1 1:0.062471 2:0.483607 3:0.153285 4:0.274338 5:0.320378 6:0.356224 7:0.122387 8:0.181873 9:0.171159 10:0.098197 11:0.113752 12:0.06288 13:0.416109 14:0.853767 15:0.103224 16:0.458137 17:0.692697 18:0.430577 19:0.428423 20:0.39853 21:1.125736 22:0.082231 23:0.065061 24:0.05865 25:0.104764 26:0.0027 27:0.111111 28:0.116279 29:0.055145 30:0.683822 31:0.803121 32:0.106478 33:0.970043 34:0.350293 35:0.648562 36:0.159706 37:0 38:-0.032013 39:0.18873 40:0.5 41:0.079031 42:0.216634 43:0.088244 44:0.884956 45:0.054098 46:0.106144 47:0.837699 48:0.106478 49:0.168387 50:0.3336 51:0.950563 52:0.853689 53:0 54:0.920228 55:0.485227 56:0.954545 57:0.82883 58:0.776431 59:0.084876 60:0.185083 61:0.78899 62:0.252572 63:0.198429 64:0.163109 65:0.072316 
1 1:0.065759 2:0.278689 3:0.40146 4:0.298134 5:0.334265 6:0.380569 7:0.166053 8:0.18864 9:0.198259 10:0.08595 11:0.14193 12:0.400148 13:0.117055 14:0.874461 15:0.253062 16:0.163161 17:0.673246 18:0.440265 19:0.396617 20:1.010818 21:0.425165 22:0.991155 23:0.050508 24:0.050179 25:0.063 26:0.004744 27:0.222222 28:0.093023 29:0.054291 30:0.827187 31:1.006489 32:0.136259 33:0.958899 34:0.340152 35:0.630422 36:0.138523 37:0 38:0.050419 39:0.153104 40:0.5 41:0.057391 42:0.0147 43:0.115533 44:1.035398 45:0.047255 46:0.235504 47:0.985031 48:0.136259 49:0.029695 50:0.333095 51:1.145767 52:1.027236 53:0 54:1.009871 55:0.60195 56:0.954545 57:0.976824 58:0.929292 59:0.1118 60:0.168508 61:0.724624 62:0.139522 63:0.227683 64:0.192755 65:0.136543 
1 1:0.018788 2:0.196721 3:0.313869 4:0.207923 5:0.258601 6:0.300791 7:0.20823 8:0.177525 9:0.205307 10:0.09162 11:0.302259 12:0.053173 13:0.128454 14:0.899988 15:0.26237 16:0.157338 17:0.668545 18:0.360696 19:0.287438 20:0.156849 21:0.233214 22:0.311743 23:0.053564 24:0.043188 25:0.045075 26:0.006651 27:0.555556 28:0.162791 29:0.106169 30:0.438191 31:1.036877 32:0.252701 33:0.946279 34:0.491395 35:0.763753 36:0.084577 37:0 38:-0.033212 39:0.236637 40:0.5 41:0.122309 42:-0.015474 43:0.222232 44:1.035398 45:0.089652 46:0.424232 47:0.976364 48:0.252701 49:0.180001 50:0.45544 51:1.161938 52:1.060797 53:0 54:1.041186 55:0.557952 56:0.954545 57:0.976824 58:0.9203 59:0.21707 60:0.082873 61:0.711172 62:0.240887 63:0.150451 64:0.161082 65:0.054711 
1 1:0.151714 2:0.098361 3:0.547445 4:0.345074 5:0.367718 6:0.420517 7:0.326585 8:0.167524 9:0.313161 10:0.021257 11:0.286966 12:0.376753 13:0.153386 14:0.646639 15:0.61392 16:0.104126 17:0.657505 18:0.503283 19:0.304303 20:0.622402 21:0.283236 22:0.834331 23:0.034617 24:0.025188 25:0.062395 26:0.003111 27:0.444444 28:0.209302 29:0.108541 30:0.725561 31:1.006823 32:-0.296669 33:-2.387156 34:0.477522 35:0.497573 36:0.29474 37:0 38:0.046895 39:0.272947 40:0.5 41:0.165588 42:0.014369 43:-0.281169 44:1 45:0.08994 46:0.311974 47:0.912772 48:-0.296669 49:-0.292669 50:0.44938 51:0.745 52:1.018147 53:0 54:1.016613 55:0.535378 56:0.954545 57:0.942002 58:0.854321 59:-0.279591 60:0.262431 61:0.606157 62:0.360887 63:0.311685 64:0.277883 65:0.148369 
1 1:0.039925 2:0.401639 3:0.080292 4:0.196286 5:0.215272 6:0.249865 7:0.175856 8:0.172653 9:0.166723 10:0.101525 11:0.340332 12:0.103999 13:0.262181 14:0.667642 15:0.064721 16:0.450535 17:0.534322 18:0.312401 19:0.267851 20:0.194702 21:0.372033 22:0.233319 23:0.195845 24:0.128639 25:0.248657 26:0.047752 27:0.444444 28:0.046512 29:0.020216 30:0.420905 31:0.990126 32:0.063795 33:0.983911 34:0.192761 35:0.416198 36:0.076748 37:0 38:0.11652 39:0.09594 40:0.5 41:0.014113 42:0.030948 43:0.049132 44:1.044248 45:0.01841 46:0.386407 47:1.038518 48:0.063795 49:-0.128069 50:0.171091 51:0.924935 52:1.017263 53:0 54:1.002045 55:0.627219 56:0.954545 57:0.985529 58:0.984787 59:0.046288 60:0.121547 61:0.718355 62:0.072814 63:0.098495 64:0.061837 65:0.028445 
0.1510142390514399 1:0.257868 2:0.581967 3:-0.021898 4:0.291839 5:0.30535 6:0.351151 7:0.509556 8:0.663392 9:0.476565 10:0.472711 11:0.835304 12:0.32163 13:0.348694 14:0.337038 15:0.055651 16:1.283103 17:0.595646 18:0.171833 19:0.18437 20:0.13961 21:0.138192 22:0.412073 23:0.084437 24:0.045506 25:0.122677 26:0.009748 27:0.333333 28:0.209302 29:0.138434 30:0.619603 31:0.950517 32:0.321131 33:0.83095 34:0.527016 35:0.187548 36:0.198382 37:0 38:0.162949 39:0.256394 40:0.5 41:0.165588 42:0.070277 43:0.284936 44:0.946903 45:0.13572 46:0.298594 47:0.868689 48:0.321131 49:0.366953 50:0.526147 51:0.286638 52:0.974801 53:0 54:0.989408 55:0.487954 56:0.954545 57:0.889769 58:0.808583 59:0.278935 60:0.243094 61:0.304267 62:0.173086 63:0.209629 64:0.2773 65:0.172383 
1 1:0.31752 2:0.122951 3:0.467153 4:0.291184 5:0.333105 6:0.367374 7:0.696767 8:0.462321 9:0.816696 10:0.013352 11:0.598501 12:0.570429 13:0.662581 14:0.300341 15:0.492275 16:0.120262 17:0.688237 18:0.258782 19:0.151061 20:0.464597 21:0.527613 22:0.370699 23:0.165686 24:0.274905 25:0.308428 26:0.065306 27:0.555556 28:0.139535 29:0.054743 30:0.34023 31:0.85822 32:0.010389 33:0.964202 34:0.373464 35:0.17987 36:0.185896 37:0 38:0.182181 39:0.182047 40:0.5 41:0.10067 42:0.161923 43:0.000195 44:0.902655 45:0.053505 46:0.274247 47:0.861185 48:0.010389 49:-0.040798 50:0.364427 51:0.334498 52:0.87795 53:0 54:0.906134 55:0.533578 56:0.954545 57:0.846241 58:0.800798 59:-0.001994 60:0.262431 61:0.233493 62:0.343448 63:-0.081244 64:0.128935 65:0.054109 
1 1:-0.002349 2:-0.032787 3:0.19708 4:0.051659 5:0.113502 6:0.134829 7:0.408778 8:0.438805 9:0.292324 10:0.349933 11:0.943042 12:0.149693 13:0.204348 14:0.528293 15:0.572549 16:0.083231 17:0.570898 18:0.093869 19:0.09039 20:-0.00049 21:0.012468 22:0.364037 23:0.538241 24:0.316932 25:0.473669 26:0.250453 27:0.333333 28:0.093023 29:0.048016 30:0.642774 31:0.91165 32:0.116097 33:0.978978 34:0.309981 35:0.195615 36:0.134133 37:0 38:0.302676 39:0.117124 40:0.5 41:0.057391 42:0.10887 43:0.097059 44:0.964602 45:0.056468 46:0.436594 47:0.941473 48:0.116097 49:0.078586 50:0.348698 51:0.465655 52:0.960704 53:0 54:0.958283 55:0.560232 56:0.954545 57:0.90718 58:0.884099 59:0.093573 60:0.005525 61:0.551417 62:0.155822 63:0.091942 64:0.094657 65:0.020997 
1 1:0.096289 2:0.590164 3:-0.029197 4:0.296374 5:0.332163 6:0.376564 7:0.251144 8:0.122275 9:0.329959 10:0.006288 11:0.28302 12:0.246507 13:0.279681 14:0.74591 15:0.068492 16:1.469806 17:0.671139 18:0.513416 19:0.323828 20:0.445059 21:0.468092 22:0.401687 23:0.065447 24:0.105957 25:0.102869 26:0.01224 27:0.444444 28:0.139535 29:0.048968 30:0.389073 31:0.994022 32:0.216076 33:0.991029 34:0.30381 35:0.500031 36:0.236207 37:0 38:-0.018099 39:0.210613 40:0.5 41:0.10067 42:0.027079 43:0.188672 44:0.982301 45:0.0447 46:0.652821 47:0.988182 48:0.216076 49:0.194124 50:0.305155 51:0.714867 52:0.978415 53:0 54:0.969182 55:0.573468 56:0.954545 57:0.924591 58:0.932561 59:0.183959 60:0.232044 61:0.750978 62:0.216516 63:0.212774 64:0.177647 65:0.075172 
0.1054608513116171 1:0.146078 2:0.606557 3:0.072993 4:0.328578 5:0.351988 6:0.400208 7:0.31059 8:0.20949 9:0.386886 10:0.018789 11:0.260663 12:0.229519 13:0.337915 14:0.631822 15:0.074206 16:0.765182 17:0.650573 18:0.440243 19:0.301636 20:0.451527 21:0.588696 22:0.317503 23:0.060153 24:0.073838 25:0.09713 26:0.008857 27:0.333333 28:0.162791 29:0.063805 30:0.339269 31:0.9943 32:0.201941 33:0.972318 34:0.386448 35:0.387429 36:0.20461 37:0 38:0.049509 39:0.224838 40:0.5 41:0.122309 42:0.026803 43:0.175719 44:0.99115 45:0.05524 46:0.478522 47:0.965109 48:0.201941 49:0.163131 50:0.362416 51:0.723714 52:0.990717 53:0 54:0.982708 55:0.568739 56:0.954545 57:0.933296 58:0.908622 59:0.17118 60:0.251381 61:0.601481 62:0.254138 63:0.255767 64:0.221216 65:0.140031 
1 1:0.060122 2:0.401639 3:0.218978 4:0.253784 5:0.287405 6:0.331759 7:0.195672 8:0.080789 9:0.312343 10:-0.002131 11:0.190806 12:0.207407 13:0.274109 14:0.778594 15:0.120393 16:0.294159 17:0.637137 18:0.506648 19:0.324049 20:0.529803 21:0.619629 22:0.357558 23:0.021948 24:0.016045 25:0.002699 26:0.001795 27:0.444444 28:0.093023 29:0.028842 30:0.709556 31:0.859222 32:0.132649 33:0.933068 34:0.238274 35:0.577699 36:0.236465 37:0 38:0.055606 39:0.152364 40:0.5 41:0.057391 42:0.160928 43:0.112225 44:0.938053 45:0.024201 46:0.254599 47:0.92988 48:0.132649 49:0.18258 50:0.229957 51:0.98769 52:0.898362 53:0 54:0.949946 55:0.529121 56:0.954545 57:0.881063 58:0.872071 59:0.108536 60:0.116022 61:0.600287 62:0.133955 63:0.205343 64:0.170116 65:0.07458 
1 1:0.262095 2:0.57377 3:0.021898 4:0.294422 5:0.327119 6:0.376629 7:0.561722 8:0.361199 9:0.651239 10:0.01454 11:0.487005 12:0.42718 13:0.593257 14:0.362473 15:0.07127 16:0.977799 17:0.659953 18:0.303652 19:0.181416 20:0.430722 21:0.57987 22:0.306739 23:0.025089 24:0.011025 25:0.016811 26:0.002085 27:0.555556 28:0.116279 29:0.048734 30:0.600874 31:0.917538 32:0.04816 33:0.963738 34:0.336262 35:0.134806 36:0.165143 37:0 38:0.056872 39:0.176052 40:0.5 41:0.079031 42:0.103024 43:0.034806 44:0.938053 45:0.05037 46:0.292152 47:0.892601 48:0.04816 49:0.023688 50:0.351927 51:0.330158 52:0.923882 53:0 54:0.949736 55:0.529416 56:0.954545 57:0.881063 58:0.833393 59:0.032153 60:0.243094 61:0.296437 62:0.152268 63:0.125068 64:0.088765 65:0.009752 
1 1:0.165806 2:0.639344 3:-0.029197 4:0.33056 5:0.357802 6:0.40883 7:0.373612 8:0.226867 9:0.419684 10:0.013122 11:0.317517 12:0.218135 13:0.433462 14:0.591817 15:0.066547 16:1.567538 17:0.663406 18:0.430399 19:0.271603 20:0.363925 21:0.627837 22:0.227975 23:0.031523 24:0.040929 25:0.036933 26:0.003048 27:0.444444 28:0.209302 29:0.113594 30:0.682647 31:1.021293 32:0.269254 33:0.917994 34:0.491437 35:0.379216 36:0.247913 37:0 38:0.061867 39:0.270811 40:0.5 41:0.165588 42:0 43:0.237399 44:0.99115 45:0.095756 46:0.226725 47:0.897577 48:0.269254 49:0.231306 50:0.46359 51:0.563847 52:1.008067 53:0 54:0.994598 55:0.552034 56:0.954545 57:0.933296 58:0.838556 59:0.232035 60:0.259669 61:0.555211 62:0.260821 63:0.377758 64:0.344842 65:0.223912 
0.3272539389007202 1:0.384688 2:0.491803 3:0.416058 4:0.404748 5:0.444497 6:0.471365 7:0.567135 8:0.506169 9:0.446915 10:0.198558 11:0.533249 12:0.510778 13:0.542345 14:0.358328 15:0.182172 16:0.248743 17:0.733415 18:0.322648 19:0.244543 20:0.468836 21:0.480131 22:0.412844 23:0.20051 24:0.099416 25:0.51008 26:0.039837 27:0.111111 28:0.790698 29:1.053914 30:0.535057 31:0.895162 32:1.107368 33:-0.423946 34:1.001674 35:0.520535 36:0.579475 37:0 38:0.200072 39:0.847799 40:0 41:0.856164 42:0.090426 43:1.173194 44:0.699115 45:0.798475 46:0.229297 47:0.419933 48:1.107368 49:0.962082 50:0.941164 51:0.38549 52:0.868171 53:0 54:0.952422 55:0.140229 56:1 57:0.638474 58:0.334809 59:0.981652 60:0.31768 61:0.21361 62:0.596553 63:1.059679 64:1.035899 65:1.214005 
1 1:0.032879 2:0.196721 3:0.058394 4:0.061564 5:0.211195 6:0.128408 7:0.302486 8:0.310449 9:0.210755 10:0.187467 11:0.214332 12:0.158968 13:0.336473 14:0.685878 15:0.204993 16:0.510055 17:1.08542 18:0.223435 19:0.194995 20:0.409226 21:0.675784 22:0.236945 23:0.613063 24:0.293016 25:0.819991 26:0.301504 27:0 28:0.255814 29:0.175478 30:0.879066 31:0.919999 32:0.1968 33:0.914807 34:0.562924 35:0.535656 36:0.290458 37:0 38:0.029142 39:0.323215 40:0 41:0.293542 42:0.065764 43:0.229988 44:0.920354 45:0.131766 46:0.058532 47:0.778522 48:0.1968 49:0.185074 50:0.517285 51:0.647498 52:0.933597 53:0 54:0.95975 55:0.486797 56:1 57:0.854725 58:0.706857 59:0.163691 60:0.074586 61:0.60451 62:0.363479 63:0.27449 64:0.252218 65:0.111762 
1 1:0.043213 2:0.016393 3:0.350365 4:0.178253 5:0.265563 6:0.26412 7:0.192514 8:0.049667 9:0.269235 10:-0.002567 11:0.190064 12:0.239998 13:0.312411 14:0.794842 15:0.732438 16:0.135929 17:0.798571 18:0.519353 19:0.305372 20:0.587636 21:0.688359 22:0.355813 23:0.216825 24:0.122551 25:0.360294 26:0.042927 27:0.222222 28:0.27907 29:0.111333 30:0.133326 31:0.931687 32:0.320167 33:0.935553 34:0.493962 35:0.882235 36:0.317758 37:0 38:0.205523 39:0.321925 40:0 41:0.318004 42:0.054159 43:0.357777 44:0.929204 45:0.103228 46:0.725914 47:0.894076 48:0.320167 49:0.352576 50:0.463002 51:0.875611 52:0.962914 53:0 54:0.967584 55:0.490065 56:1 57:0.863375 58:0.826748 59:0.274511 60:0.143646 61:0.769668 62:0.479781 63:0.315056 64:0.281299 65:0.11842 
1 1:0.101456 2:0.114754 3:0.416058 4:0.251497 5:0.266753 6:0.296 7:0.271095 8:0.148343 9:0.222965 10:0.036421 11:0.258723 12:0.321469 13:0.228823 14:0.581716 15:0.408438 16:0.094373 17:0.570618 18:0.397955 19:0.255639 20:0.590816 21:0.428154 22:0.57929 23:0.065523 24:0.058599 25:0.07065 26:0.006251 27:0.111111 28:0.023256 29:0.02527 30:0.463605 31:0.970646 32:0.021619 33:0.934884 34:0.191654 35:0.307177 36:-0.002231 37:0 38:0.167773 39:0.064762 40:0 41:0.048924 42:0.015474 43:0.048527 44:0.99115 45:0.031683 46:0.646898 47:1.006566 48:0.021619 49:-0.045909 50:0.239104 51:0.731812 52:0.976355 53:0 54:0.971705 55:0.584199 56:1 57:0.923925 58:0.94346 59:0.006326 60:0.171271 61:0.576389 62:0.104352 63:0.075506 64:0.038539 65:0.018366 
1 1:0.105214 2:0.131148 3:0.153285 4:0.077954 5:0.091823 6:0.114996 7:0.656372 8:0.525399 9:0.599145 10:0.201652 11:0.825898 12:0.462555 13:0.341384 14:0.185472 15:0.116371 16:0.093451 17:0.343909 18:0.059957 19:0.039612 20:0.238947 21:0.13667 22:0.582514 23:0.267197 24:0.207603 25:0.199274 26:0.082533 27:0.444444 28:0.139535 29:0.070105 30:0.849151 31:0.990126 32:0.070006 33:0.980521 34:0.376273 35:0.196632 36:0.188068 37:0 38:0.045719 39:0.201511 40:0 41:0.171233 42:-0.003868 43:0.098649 44:1.017699 45:0.045647 46:0.048591 47:0.936314 48:0.070006 49:-0.139027 50:0.297656 51:0.447556 52:1.005159 53:0 54:1.006547 55:0.578069 56:1 57:0.949876 58:0.870572 59:0.049792 60:0.046961 61:0.255957 62:0.248517 63:0.080241 64:0.084911 65:0.00151 
1 1:0.105683 2:0.155738 3:0.072993 4:0.045291 5:0.0728 6:0.089492 7:0.911937 8:0.662775 9:0.859645 10:0.201849 11:1.127636 12:0.677337 13:0.254612 14:0.14291 15:0.066763 16:0.166572 17:0.354968 18:0.027707 19:0.010258 20:0.246155 21:0.002971 22:1.020106 23:0.4231 24:0.292828 25:0.285224 26:0.198646 27:0 28:0.302326 29:0.158542 30:0.769829 31:0.950192 32:0.129976 33:0.99749 34:0.556623 35:0.268233 36:0.421073 37:0 38:0.08483 39:0.363008 40:0 41:0.342466 42:0.035783 43:0.160769 44:0.929204 45:0.135974 46:0.110732 47:0.813538 48:0.129976 49:0.042912 50:0.506544 51:0.323228 52:0.952186 53:0 54:0.982913 55:0.468529 56:1 57:0.863375 58:0.743188 59:0.103663 60:0.022099 61:0.193552 62:0.393597 63:0.132197 64:0.225111 65:0.018326 
1 1:0.116017 2:0.081967 3:0.474453 4:0.286416 5:0.32991 6:0.368232 7:0.290786 8:0.178767 9:0.284467 10:0.028333 11:0.319302 12:0.406827 13:0.155062 14:0.674748 15:0.600456 16:0.113625 17:0.690816 18:0.445117 19:0.296033 20:0.610718 21:0.253392 22:0.881282 23:0.075829 24:0.041932 25:0.112298 26:0.007267 27:0.333333 28:0.209302 29:0.114437 30:0.795505 31:0.98623 32:0.318084 33:0.868122 34:0.480951 35:0.486835 36:0.280409 37:0 38:0.355245 39:0.228966 40:0 41:0.244618 42:0 43:0.355619 44:1 45:0.094664 46:0.111908 47:0.904799 48:0.318084 49:0.248583 50:0.441693 51:0.740443 52:1.009625 53:0 54:0.975079 55:0.593733 56:1 57:0.932576 58:0.837875 59:0.272639 60:0.209945 61:0.615161 62:0.250754 63:0.427081 64:0.394825 65:0.303761 
1 1:0.099108 2:0.07377 3:0.408759 4:0.235322 5:0.277781 6:0.302031 7:0.245098 8:0.27102 9:0.24424 10:0.137704 11:0.254776 12:0.148139 13:0.417972 14:0.61354 15:0.532013 16:0.108333 17:0.656269 18:0.311395 19:0.280508 20:0.338209 21:0.720405 22:0.16782 23:0.210977 24:0.164931 25:0.336568 26:0.049189 27:0.222222 28:0.186047 29:0.150903 30:0.740281 31:0.973568 32:0.16062 33:0.742083 34:0.504677 35:0.448195 36:0.136051 37:0 38:0.026461 39:0.251993 40:0 41:0.220157 42:0.012573 43:0.192511 44:0.964602 45:0.122 46:0.190613 47:0.887729 48:0.16062 49:0.148444 50:0.447794 51:0.704947 52:0.979943 53:0 54:0.963922 55:0.55231 56:1 57:0.897975 58:0.820163 59:0.131191 60:0.176796 61:0.599361 62:0.308073 63:0.229862 64:0.194964 65:0.067739 
0.7876258101995306 1:0.083138 2:0.081967 3:0.343066 4:0.189062 5:0.283029 6:0.256061 7:0.246696 8:0.327224 9:0.314411 10:0.199733 11:0.519755 12:0.292055 13:0.224433 14:0.678493 15:0.517235 16:0.158716 17:0.830011 18:0.282548 19:0.284085 20:0.271255 21:0.183901 22:0.544433 23:0.35446 24:0.243388 25:0.573165 26:0.12647 27:0.222222 28:0.325581 29:0.312005 30:0.901952 31:0.942312 32:0.244313 33:0.673619 34:0.641434 35:0.601871 36:0.286483 37:0 38:0.074072 39:0.388411 40:0 41:0.366928 42:0.043608 43:0.279204 44:0.911504 45:0.272885 46:-0.072357 47:0.697029 48:0.244313 49:0.231694 50:0.614393 51:0.692519 52:0.955461 53:0 54:0.940492 55:0.49958 56:1 57:0.846075 58:0.622306 59:0.206372 60:0.143646 61:0.57771 62:0.374869 63:0.494483 64:0.463131 65:0.421613 
1 1:0.021137 2:-0.032787 3:0.394161 4:0.203133 5:0.251486 6:0.277145 7:0.17256 8:0.065173 9:0.244963 10:0.001284 11:0.160288 12:0.216756 13:0.294995 14:0.864717 15:1.031815 16:0.093706 17:0.656116 18:0.47447 19:0.30672 20:0.608473 21:0.728847 22:0.346011 23:0.16842 24:0.070315 25:0.228131 26:0.029865 27:0 28:0.046512 29:0.01012 30:0.31286 31:0.968211 32:0.096564 33:0.990969 34:0.119651 35:0.458691 36:0.13044 37:0 38:-0.032071 39:0.117134 40:0 41:0.073386 42:0.017892 43:0.126159 44:1.044248 45:0.006251 46:0.422167 47:1.05712 48:0.096564 49:-0.065493 50:0.086679 51:0.96218 52:1.006298 53:0 54:0.984871 55:0.651349 56:1 57:0.975826 58:0.995913 59:0.073649 60:0.135359 61:0.878826 62:0.151657 63:0.052156 64:0.04536 65:0.010782 
1 1:0.059183 2:0.04918 3:0.138686 4:0.034278 5:0.042193 6:0.05932 7:0.460831 8:0.476278 9:0.413126 10:0.313451 11:0.626151 12:0.894585 13:0.037102 14:0.141393 15:0.132876 16:0.026562 17:0.207718 18:0.031113 19:0.035076 20:0.714451 21:-0.030528 22:2.59195 23:0.482619 24:0.32641 25:0.268584 26:0.208664 27:0.333333 28:0.023256 29:0.036162 30:0.261163 31:0.626634 32:-0.085402 33:0.971379 34:0.262087 35:0.118032 36:-0.11908 37:0 38:0.155485 39:0.066514 40:0.5 41:0.071162 42:0.345455 43:-0.052383 44:0.734513 45:0.049627 46:0.585088 47:0.766004 48:-0.085402 49:0.110366 50:0.314423 51:0.293711 52:0.68949 53:0 54:0.756731 55:0.472268 56:0.5 57:0.764314 58:0.783787 59:-0.075513 60:0.013812 61:0.305634 62:0.125066 63:-0.098796 64:0.012505 65:0.025688 
1 1:0.106623 2:0.352459 3:-0.021898 4:0.134336 5:0.146312 6:0.175868 7:0.466313 8:0.281945 9:0.548725 10:0.016909 11:0.459064 12:0.564503 13:0.371286 14:0.302698 15:0.030768 16:0.708795 17:0.429347 18:0.172868 19:0.099256 20:0.601994 21:0.37865 22:0.65367 23:0.046987 24:0.029634 25:-0.005925 26:0.005023 27:0.222222 28:0.139535 29:0.057996 30:0.504186 31:0.768057 32:0.236895 33:0.982456 34:0.354321 35:0.176754 36:0.206755 37:0 38:0.109741 39:0.192379 40:0.5 41:0.19903 42:0.205029 43:0.296642 44:0.840708 45:0.048003 46:0.4601 47:0.834548 48:0.236895 49:0.389136 50:0.310567 51:0.309215 52:0.810514 53:0 54:0.786549 55:0.60167 56:0.5 57:0.875936 58:0.854905 59:0.235819 60:0.093923 61:0.367322 62:0.136782 63:0.28666 64:0.252523 65:0.152512 
1 1:0.617661 2:0.254098 3:0.656934 4:0.466409 5:0.406688 6:0.350074 7:0.42218 8:2.540307 9:0.33215 10:4.408117 11:1.025427 12:0.404009 13:0.564062 14:0.145538 15:0.354799 16:0.082189 17:0.509013 18:0.023554 19:0.281389 20:0.129378 21:0.203164 22:0.307146 23:0.338815 24:0.65838 25:0.839717 26:0.215848 27:0.333333 28:0.232558 29:0.105259 30:0.419122 31:0.817902 32:0.296335 33:0.907497 34:0.493553 35:0.202477 36:0.276955 37:0 38:0.244639 39:0.26861 40:0.5 41:0.301325 42:0.155535 43:0.361012 44:0.637168 45:0.313289 46:0.808645 47:0.575942 48:0.296335 49:0.712571 50:0.739489 51:0.259733 52:0.738113 53:0 54:0.768685 55:0.298453 56:0.5 57:0.661995 58:0.586592 59:0.293237 60:0.607735 61:0.258334 62:0.265362 63:0.136409 64:0.203374 65:0.039483 
1 1:0.617661 2:0.254098 3:0.656934 4:0.466409 5:0.406688 6:0.350074 7:0.42218 8:2.540307 9:0.33215 10:4.408117 11:1.025427 12:0.404009 13:0.564062 14:0.145538 15:0.354799 16:0.082189 17:0.509013 18:0.023554 19:0.281389 20:0.129378 21:0.203164 22:0.307146 23:0.338815 24:0.65838 25:0.839717 26:0.215848 27:0.333333 28:0.232558 29:0.105259 30:0.419122 31:0.817902 32:0.296335 33:0.907497 34:0.493553 35:0.202477 36:0.276955 37:0 38:0.244639 39:0.26861 40:0.5 41:0.301325 42:0.155535 43:0.361012 44:0.637168 45:0.313289 46:0.808645 47:0.575942 48:0.296335 49:0.712571 50:0.739489 51:0.259733 52:0.738113 53:0 54:0.768685 55:0.298453 56:0.5 57:0.661995 58:0.586592 59:0.293237 60:0.607735 61:0.258334 62:0.265362 63:0.136409 64:0.203374 65:0.039483 
1 1:0.024425 2:0.106557 3:0.087591 4:0.027508 5:0.140223 6:0.074446 7:0.394363 8:0.354479 9:0.433117 10:0.100943 11:0.470475 12:0.16712 13:0.43301 14:0.508099 15:0.222407 16:0.278838 17:0.861361 18:0.14004 19:0.111967 20:0.178662 21:0.432614 22:0.177727 23:0.656954 24:0.379656 25:0.66605 26:0.393177 27:0 28:0.023256 29:0.021619 30:0.74723 31:0.545988 32:0.13049 33:0.957035 34:0.180812 35:0.178542 36:0.066247 37:0 38:0.120727 39:0.071472 40:0.5 41:0.071162 42:0.425532 43:0.181414 44:0.699115 45:0.040018 46:0.478781 47:0.718338 48:0.13049 49:0.490772 50:0.305062 51:0.444086 52:0.641553 53:0 54:0.745814 55:0.430508 56:0.5 57:0.727107 58:0.734332 59:0.133035 60:0.038674 61:0.527503 62:0.018785 63:0.171515 64:0.135834 65:0.111452 
1 1:0.04838 2:0.032787 3:0.124088 4:0.018296 5:-0.084545 6:-0.079192 7:-0.30129 8:-0.340318 9:-0.202331 10:-0.010819 11:-0.221806 12:-0.235875 13:-0.224835 14:-0.186253 15:-0.121371 16:-0.18284 17:-0.574429 18:-0.089343 19:-0.064128 20:-0.236629 21:-0.253598 22:-0.221647 23:4.370194 24:2.393415 25:0.576518 26:11.553456 27:-0.111111 28:0.27907 29:0.121159 30:0.152687 31:0.863897 32:-0.296669 33:1.007573 34:0.47643 35:0.570551 36:0.30874 37:0 38:0.241174 39:0.31684 40:0.5 41:0.352473 42:0.109865 43:-0.281169 44:0.840708 45:0.101594 46:0.640716 47:0.840063 48:-0.296669 49:1.006122 50:0.441316 51:0.51523 52:0.858431 53:0 54:0.865175 55:0.491203 56:0.5 57:0.875936 58:0.860627 59:-0.279591 60:0.060773 61:0.487597 62:0.381518 63:0.308815 64:0.274975 65:0.08002 
0.07731837657076292 1:0.906529 2:0.819672 3:0.525547 4:0.636722 5:0.536208 6:0.467427 7:0.605497 8:2.353316 9:0.587538 10:3.711976 11:0.476515 12:0.77633 13:0.722239 14:0.111337 15:0.098533 16:0.238025 17:0.518628 18:0.061317 19:0.279867 20:0.797439 21:0.725771 22:0.475122 23:0.241969 24:0.140561 25:0.726873 26:0.057455 27:0.222222 28:0.209302 29:0.126568 30:0.566524 31:0.812522 32:0.340729 33:0.71364 34:0.534068 35:0.074307 36:0.179269 37:0 38:0.227531 39:0.247182 40:0.5 41:0.275752 42:0.160878 43:0.409087 44:0.769912 45:0.18382 46:0.318501 47:0.666013 48:0.340729 49:0.585196 50:0.645639 51:0.291953 52:0.802279 53:0 54:0.844853 55:0.405557 56:0.5 57:0.801521 58:0.680044 59:0.336121 60:0.671271 61:0.092649 62:0.170992 63:0.27683 64:0.291403 65:0.137046 
1 1:0.065289 2:-0.02459 3:0.218978 4:0.069998 5:0.085845 6:0.10842 7:0.579961 8:0.465214 9:0.572844 10:0.133134 11:0.718926 12:0.372595 13:0.84824 14:0.242749 15:0.441002 16:0.02821 17:0.338921 18:0.066493 19:0.045361 20:0.224804 21:0.570126 22:0.148022 23:0.250316 24:0.24913 25:0.152204 26:0.097444 27:0 28:0.139535 29:0.069093 30:0.960466 31:0.660529 32:0.171401 33:0.884784 34:0.361756 35:0.138957 36:0.252218 37:0 38:0.401574 39:0.150754 40:0.5 41:0.19903 42:0.311799 43:0.225717 44:0.761062 45:0.075487 46:0.152181 47:0.708489 48:0.171401 49:0.394541 50:0.396964 51:0.156686 52:0.728664 53:0 54:0.783174 55:0.477941 56:0.5 57:0.79222 58:0.724114 59:0.172554 60:0.01105 61:0.277565 62:0.221219 63:-0.007021 64:0.121778 65:0.024485 
1 1:0.09488 2:0.081967 3:0.452555 4:0.27 5:0.342508 6:0.366852 7:0.241736 8:0.103304 9:0.32436 10:-0.000664 11:0.22069 12:0.300051 13:0.215207 14:0.774626 15:0.622818 16:0.13647 17:0.780523 18:0.553705 19:0.339663 20:0.627406 21:0.464532 22:0.572342 23:0.109315 24:0.066141 25:0.188994 26:0.009868 27:0.222222 28:0.116279 29:0.042244 30:0.32554 31:0.847747 32:0.211065 33:0.995711 34:0.296121 35:0.526094 36:0.175574 37:0 38:0.008058 39:0.183014 40:0.5 41:0.173457 42:0.125901 43:0.26867 44:0.920354 45:0.034306 46:0.683397 47:0.942701 48:0.211065 49:0.275484 50:0.26351 51:0.743926 52:0.897015 53:0 54:0.89909 55:0.572024 56:0.5 57:0.959651 58:0.967117 59:0.210868 60:0.229282 61:0.750321 62:0.194082 63:0.213641 64:0.178525 65:0.095241 
1 1:0.15876 2:0.057377 3:0.131387 4:0.032601 5:0.019936 6:0.033069 7:0.725345 8:0.858167 9:0.449395 10:1.469332 11:0.576792 12:0.808511 13:0.040275 14:-0.019226 15:0.076987 16:-0.005003 17:0.073389 18:-0.018827 19:-0.000855 20:0.696342 21:-0.013872 22:2.346607 23:0.46974 24:0.825321 25:0.19327 26:0.297037 27:0.333333 28:0.232558 29:0.157327 30:-0.198012 31:0.934191 32:0.208917 33:0.754762 34:0.546674 35:0.215861 36:-0.051314 37:0 38:0.123099 39:0.285946 40:0.5 41:0.301325 42:0.040066 43:0.266344 44:0.884956 45:0.126147 46:0.838962 47:0.871127 48:0.208917 49:0.274258 50:0.500555 51:0.174496 52:0.933057 53:0 54:0.894631 55:0.52119 56:0.5 57:0.922444 58:0.892857 59:0.208793 60:0.055249 61:0.151827 62:0.380394 63:0.084453 64:0.131307 65:-0.00216 
1 1:0.057304 2:0.016393 3:0.357664 4:0.183789 5:0.233791 6:0.266666 7:0.302204 8:0.147956 9:0.385375 10:0.004476 11:0.252178 12:0.324207 13:0.362282 14:0.649461 15:0.65553 16:0.099961 17:0.648269 18:0.356326 19:0.213028 20:0.606363 21:0.640898 22:0.400268 23:0.088316 24:0.04994 25:0.093843 26:0.00913 27:0.333333 28:0.116279 29:0.04792 30:0.497273 31:0.84169 32:0.248938 33:0.935253 34:0.312036 35:0.381285 36:0.180028 37:0 38:0.090431 39:0.171265 40:0.5 41:0.173457 42:0.131915 43:0.309683 44:0.911504 45:0.035189 46:0.490388 47:0.919638 48:0.248938 49:0.306614 50:0.262529 51:0.633879 52:0.881846 53:0 54:0.867632 55:0.601947 56:0.5 57:0.95035 58:0.943188 59:0.247452 60:0.118785 61:0.621457 62:0.13542 63:0.211481 64:0.176336 65:0.084383 
1 1:0.075622 2:0.344262 3:0.087591 4:0.162798 5:0.236739 6:0.218292 7:0.320352 8:0.161187 9:0.330032 10:0.028284 11:0.301364 12:0.400548 13:0.268666 14:0.592289 15:0.112014 16:0.473605 17:0.73418 18:0.348226 19:0.207204 20:0.631208 21:0.427583 22:0.619092 23:0.197595 24:0.102345 25:0.269715 26:0.035221 27:0.222222 28:0.209302 29:0.0572 30:0.165591 31:0.860497 32:0.276475 33:0.990061 34:0.337951 35:0.526239 36:0.344646 37:0 38:0.275745 39:0.240305 40:0.5 41:0.275752 42:0.113241 43:0.339504 44:0.884956 45:0.057149 46:0.593179 47:0.883969 48:0.276475 49:0.381741 50:0.352197 51:0.687126 52:0.875619 53:0 54:0.867758 55:0.558947 56:0.5 57:0.922444 58:0.90618 59:0.274053 60:0.107735 61:0.510923 62:0.340788 63:0.210588 64:0.175432 65:0.041796 
1 1:0.07985 2:0.131148 3:0.153285 4:0.077954 5:0.102171 6:0.115386 7:0.621867 8:0.403938 9:0.484606 10:0.280841 11:0.566848 12:0.884132 13:0.225378 14:0.253991 15:0.131679 16:0.109963 17:0.40003 18:0.092976 19:0.048852 20:0.776511 21:0.15864 22:1.400189 23:0.415685 24:0.991627 25:0.33781 26:0.44512 27:0.222222 28:0.348837 29:0.167344 30:0.012257 31:0.843497 32:0.381851 33:0.924643 34:0.504657 35:0.468289 36:0.330092 37:0 38:0.177575 39:0.397516 40:0.5 41:0.429194 42:0.130121 43:0.453619 44:0.814159 45:0.164954 46:0.655106 47:0.799452 48:0.381851 49:0.53083 50:0.498426 51:0.48284 52:0.860614 53:0 54:0.870771 55:0.440516 56:0.5 57:0.84803 58:0.818491 59:0.375844 60:0.044199 61:0.323034 62:0.49408 63:0.368104 64:0.335058 65:0.129831 
1 1:0.201033 2:0.122951 3:0.131387 4:0.060965 5:0.009476 6:0.020757 7:0.895547 8:0.781571 9:0.837309 10:0.507286 11:1.304701 12:0.570749 13:0.197777 14:-0.064128 15:-0.000147 16:-0.022944 17:-0.065211 18:-0.019816 19:-0.014033 20:0.140342 21:-0.053676 22:1.022676 23:0.746958 24:0.56413 25:0.399552 26:0.46996 27:0.222222 28:0.116279 29:0.088326 30:0.52954 31:0.81773 32:0.273905 33:0.911476 34:0.388863 35:0.098276 36:0.0628 37:0 38:0.221228 39:0.152609 40:0.5 41:0.173457 42:0.155706 43:0.336721 44:0.80531 45:0.125159 46:0.595878 47:0.764625 48:0.273905 49:0.513602 50:0.521637 51:0.222894 52:0.832452 53:0 54:0.855243 55:0.448058 56:0.5 57:0.838728 58:0.782357 59:0.27157 60:0.10221 61:0.164894 62:0.147376 63:0.059178 64:0.073554 65:0.004268 
1 1:0.100517 2:0.114754 3:0.153285 4:0.070633 5:0.079537 6:0.065543 7:0.459406 8:0.471124 9:0.439152 10:0.315529 11:0.684266 12:0.078709 13:0.879928 14:0.165459 15:0.1152 16:0.073848 17:0.301685 18:0.060521 19:0.058747 20:0.011061 21:0.626891 22:-0.036007 23:0.916004 24:2.231953 25:0.682678 26:1.725134 27:0.111111 28:0.093023 29:0.02942 30:0.012322 31:0.708644 32:0.08018 33:0.965745 34:0.250388 35:0.162061 36:0.098078 37:0 38:0.309509 39:0.11615 40:0.5 41:0.147883 42:0.264023 43:0.126931 44:0.79646 45:0.02482 46:0.601776 47:0.838487 48:0.08018 49:0.29793 50:0.20757 51:0.388422 52:0.746464 53:0 54:0.782742 55:0.535646 56:0.5 57:0.829427 58:0.858992 59:0.084436 60:0.063536 61:0.310263 62:0.143085 63:0.040455 64:0.070807 65:0.003716 
1 1:0.066228 2:0.352459 3:0.116788 4:0.179398 5:0.206589 6:0.241611 7:0.297046 8:0.180701 9:0.430124 10:-0.002438 11:0.273253 12:0.304041 13:0.455742 14:0.547772 15:0.08172 16:0.34427 17:0.550544 18:0.295823 19:0.193668 20:0.541416 21:0.739147 22:0.295546 23:0.094851 24:0.04912 25:0.097442 26:0.01253 27:0.222222 28:0.139535 29:0.03834 30:0.315175 31:0.803121 32:0.189683 33:0.989831 34:0.264124 35:0.415986 36:0.265753 37:0 38:0.044354 39:0.201705 40:0.5 41:0.19903 42:0.170213 43:0.245515 44:0.884956 45:0.033277 46:0.530781 47:0.90782 48:0.189683 49:0.302979 50:0.263752 51:0.692356 52:0.851062 53:0 54:0.863609 55:0.564776 56:0.5 57:0.922444 58:0.930926 59:0.190214 60:0.088398 61:0.494509 62:0.153078 63:0.181545 64:0.149455 65:0.053014 
1 1:0.077031 2:0.114754 3:0.029197 4:0.00095 5:-0.06595 6:-0.059984 7:-0.30129 8:-0.340318 9:-0.202331 10:-0.010819 11:-0.221806 12:-0.235875 13:-0.224835 14:-0.150234 15:-0.112679 16:-0.10623 17:-0.427768 18:-0.089343 19:-0.064128 20:-0.236629 21:-0.253598 22:-0.221647 23:5.491722 24:2.835486 25:1.181848 26:8.503588 27:-0.111111 28:0.488372 29:0.148591 30:-0.137735 31:0.749994 32:-0.296669 33:1.007573 34:0.523671 35:0.883897 36:0.74107 37:0 38:0.564499 39:0.485536 40:0.5 41:0.582637 42:0.222965 43:-0.281169 44:0.734513 45:0.119561 46:0.924251 47:0.751464 48:-0.296669 49:1.006122 50:0.445546 51:0.374196 52:0.765346 53:0 54:0.804682 55:0.404899 56:0.5 57:0.764314 58:0.768702 59:-0.279591 60:0.096685 61:0.475244 62:0.634441 63:0.407422 64:0.404287 65:0.108159 
0.2048224049759862 1:0.272898 2:0.180328 3:0.50365 4:0.333955 5:0.32572 6:0.374467 7:0.547582 8:0.393793 9:0.614548 10:0.035884 11:0.534519 12:0.450534 13:0.457365 14:0.345599 15:0.369057 16:0.095013 17:0.557607 18:0.285018 19:0.184718 20:0.410827 21:0.397761 22:0.434311 23:0.008899 24:-0.000311 25:-0.009409 26:0.000316 27:0.333333 28:0.418605 29:0.296605 30:0.453854 31:0.828342 32:-0.296669 33:-6.584268 34:0.688828 35:0.325297 36:0.428983 37:0 38:0.464757 39:0.428158 40:0.5 41:0.505915 42:0.14517 43:-0.281169 44:0.79646 45:0.246422 46:0.375694 47:0.708075 48:-0.296669 49:0.204857 50:0.649355 51:0.421039 52:0.851605 53:0 54:0.847595 55:0.444529 56:0.5 57:0.829427 58:0.723684 59:-0.279591 60:0.234807 61:0.264118 62:0.291523 63:0.580784 64:0.550588 65:0.396404 
1 1:0.291217 2:0.147541 3:0.131387 4:0.072689 5:-0.102743 6:-0.09775 7:-0.30129 8:-0.340318 9:-0.202331 10:0.319593 11:-0.221806 12:-0.027093 13:-0.224835 14:-0.25426 15:-0.172471 16:-0.215433 17:-0.710098 18:-0.089343 19:-0.064128 20:-0.236629 21:-0.253598 22:-0.221647 23:-0.038413 24:-0.033391 25:-0.110114 26:-0.001156 27:-0.111111 28:0.372093 29:0.300287 30:0.073266 31:0.787926 32:-0.296669 33:0.973205 34:0.739902 35:0.242839 36:0.06365 37:0 38:0.324416 39:0.400439 40:0.5 41:0.454768 42:0.1853 43:-0.281169 44:0.734513 45:0.241571 46:0.523583 47:0.663581 48:-0.296669 49:-0.355663 50:0.66237 51:0.226613 52:0.79777 53:0 54:0.839325 55:0.356225 56:0.5 57:0.764314 58:0.67752 59:-0.279591 60:0.174033 61:0.14238 62:0.380358 63:0.37653 64:0.364705 65:0.140176 
1 1:0.202912 2:0.114754 3:0.145985 4:0.066105 5:0.145723 6:0.044719 7:0.592322 8:0.397899 9:0.484856 10:0.108399 11:0.602748 12:0.604063 13:0.607097 14:0.159639 15:0.218868 16:0.189393 17:0.689866 18:0.131186 19:0.075902 20:0.490085 21:0.474997 22:0.436561 23:0.696491 24:0.790706 25:0.767412 26:0.531294 27:0.111111 28:0.581395 29:0.555078 30:0.483293 31:0.770249 32:0.554728 33:0.251087 34:0.857497 35:0.457849 36:0.434519 37:0 38:0.345014 39:0.612314 40:0.5 41:0.684932 42:0.202853 43:0.640832 44:0.672566 45:0.494693 46:0.305856 47:0.460311 48:0.554728 49:0.819809 50:0.844554 51:0.247667 52:0.787766 53:0 54:0.804035 55:0.305885 56:0.5 57:0.699202 58:0.466621 59:0.542839 60:0.135359 61:0.222728 62:0.622694 63:0.93681 64:0.911384 65:1.102637 
1 1:0.106623 2:0.07377 3:0.459854 4:0.273563 5:0.311114 6:0.349157 7:0.318349 8:0.186984 9:0.351769 10:0.026143 11:0.330071 12:0.143836 13:0.361308 14:0.663892 15:0.593225 16:0.106724 17:0.663516 18:0.414603 19:0.265501 20:0.254218 21:0.513373 22:0.200684 23:0.112259 24:0.116974 25:0.183221 26:0.022543 27:0.111111 28:0.139535 29:0.075835 30:0.400638 31:0.740786 32:0.184133 33:0.878377 34:0.428085 35:0.418773 36:0.099304 37:0 38:0.567305 39:0.127115 40:0.5 41:0.19903 42:0.232108 43:0.239505 44:0.80531 45:0.07285 46:0.388617 47:0.768236 48:0.184133 49:0.348392 50:0.413593 51:0.617286 52:0.784561 53:0 54:0.745054 55:0.602872 56:0.5 57:0.838728 58:0.786104 59:0.184853 60:0.19337 61:0.611123 62:0.248452 63:0.193358 64:0.15797 65:0.055491 
1 1:0.077501 2:0.368852 3:-0.072993 4:0.136051 5:0.161967 6:0.191843 7:0.421112 8:0.205277 9:0.526258 10:0.003816 11:0.430404 12:0.462841 13:0.405723 14:0.404183 15:0.036775 16:1.350556 17:0.49596 18:0.227573 19:0.119846 20:0.527645 21:0.444563 22:0.500756 23:0.133343 24:0.089486 25:0.108349 26:0.018471 27:0.444444 28:0.232558 29:0.078027 30:0.196754 31:0.808433 32:0.290868 33:0.943993 34:0.398327 35:0.374556 36:0.336981 37:0 38:0.118418 39:0.286613 40:0.5 41:0.301325 42:0.164938 43:0.355091 44:0.858407 45:0.063949 46:0.411367 47:0.856035 48:0.290868 49:0.433139 50:0.355677 51:0.206641 52:0.839907 53:0 54:0.84033 55:0.554658 56:0.5 57:0.894539 58:0.877198 59:0.287956 60:0.096685 61:0.473461 62:0.247684 63:0.286228 64:0.252085 65:0.083615 
1 1:0.440113 2:0.114754 3:0.642336 4:0.42042 5:0.454182 6:0.459053 7:0.576737 8:0.662486 9:0.304708 10:0.441881 11:0.379063 12:0.677089 13:0.546029 14:0.312511 15:0.70201 16:0.117633 17:0.72342 18:0.264438 19:0.246445 20:0.847322 21:0.672839 22:0.550464 23:0.293124 24:0.202739 25:0.793518 26:0.082812 27:0.222222 28:0.581395 29:0.315468 30:0.300529 31:0.425514 32:0.59691 33:0.373541 34:0.776048 35:0.566983 36:0.754171 37:0 38:1.547712 39:0.440769 40:0.5 41:0.684932 42:0.545157 43:0.686513 44:0.40708 45:0.265816 46:0.753351 47:0.365464 48:0.59691 49:0.919233 50:0.721067 51:0.163332 52:0.442459 53:0 54:0.334177 55:0.537788 56:0.5 57:0.420149 58:0.368214 59:0.583586 60:0.400552 61:0.243168 62:0.8418 63:0.192578 64:0.386031 65:0.044388 
1 1:0.061062 2:0.295082 3:0.065693 4:0.123927 5:0.219839 6:0.173507 7:0.324401 8:0.26119 9:0.18545 10:0.143608 11:0.185615 12:0.161587 13:0.543105 14:0.599267 15:0.128392 16:0.50506 17:0.812694 18:0.257993 19:0.192528 20:0.459338 21:1.107539 22:0.115774 23:0.350805 24:0.380816 25:0.485981 26:0.062752 27:-0.111111 28:0.116279 29:0.03348 30:0.737759 31:0.651179 32:0.122163 33:0.971889 34:0.253951 35:0.422023 36:0.290947 37:0 38:0.124954 39:0.166341 40:0.5 41:0.173457 42:0.321083 43:0.172396 44:0.778761 45:0.02368 46:0.347317 47:0.801458 48:0.122163 49:0.33798 50:0.219469 51:0.585089 52:0.715632 53:0 54:0.727295 55:0.584999 56:0.5 57:0.810823 58:0.820572 59:0.124991 60:0.107735 61:0.571954 62:0.213451 63:0.12337 64:0.097287 65:0.020575 
1 1:0.011273 2:0.106557 3:0.481752 4:0.297764 5:0.316192 6:0.364951 7:0.038438 8:0.010421 9:0.103399 10:0.015051 11:0.159157 12:0.090341 13:0.097084 14:1.131609 15:0.506381 16:0.098934 17:0.615748 18:0.6773 19:0.544241 20:0.374253 21:0.356615 22:0.438988 23:0.022767 24:0.009097 25:0.013758 26:0.001967 27:0.444444 28:0.023256 29:-0.003494 30:0.645858 31:0.766596 32:0.089711 33:0.9932 34:-0.048448 35:0.764108 36:0.230948 37:0 38:-0.004328 39:0.089309 40:0.5 41:0.071162 42:0.20648 43:0.137252 44:0.893805 45:-0.006488 46:0.542971 47:0.950758 48:0.089711 49:0.159774 50:-0.072288 51:1.258188 52:0.815629 53:0 54:0.759545 55:0.725259 56:0.5 57:0.931746 58:0.975477 59:0.093643 60:0.21547 61:1.240024 62:0.161574 63:0.089017 64:0.052232 65:0.035537 
1 1:0.736966 2:0.319672 3:0.350365 4:0.283636 5:0.142084 6:0.143203 7:1.208421 8:1.025991 9:0.873119 10:0.556918 11:0.9468 12:1.534708 13:1.331732 14:-0.092461 15:0.041976 16:0.0149 17:0.07454 18:0.028151 19:0.017603 20:0.844266 21:0.708273 22:0.519923 23:0.531295 24:0.456805 25:0.555367 26:0.304842 27:0.222222 28:0.27907 29:0.196207 30:0.463502 31:0.71771 32:0.227642 33:0.887661 34:0.606119 35:-0.048153 36:0.213575 37:0 38:0.276224 39:0.311841 40:0.5 41:0.352473 42:0.255022 43:0.286622 44:0.575221 45:0.480963 46:0.653028 47:0.489705 48:0.227642 49:0.782447 50:0.779708 51:0.081432 52:0.712135 53:0 54:0.758124 55:0.213369 56:0.5 57:0.596883 58:0.497118 59:0.226881 60:0.30663 61:-0.077372 62:0.14765 63:0.34002 64:0.347165 65:0.179014 
1 1:0.183654 2:0.893443 3:0.043796 4:0.518247 5:0.540672 6:0.57517 7:0.104139 8:0.132363 9:0.002159 10:0.098886 11:0.098018 12:0.198748 13:0.199039 14:0.867547 15:0.080187 16:1.370836 17:0.730264 18:0.775092 19:0.710523 20:0.732847 21:0.703469 22:0.446821 23:0.122643 24:0.07397 25:0.379026 26:0.018465 27:0 28:0.093023 29:0.022776 30:0.364834 31:0.70806 32:0.105417 33:0.910408 34:0.212543 35:0.616089 36:0.205185 37:0 38:0.483234 39:0.091371 40:0.5 41:0.147883 42:0.264603 43:0.154261 44:0.831858 45:0.011857 46:0.353914 47:0.869214 48:0.105417 49:0.258325 50:0.143192 51:0.898968 52:0.764023 53:0 54:0.735793 55:0.658706 56:0.5 57:0.866634 58:0.890872 59:0.108815 60:0.475138 61:0.92134 62:0.203113 63:0.198195 64:0.162872 65:0.077712 
1 1:0.278535 2:0.483607 3:0.124088 4:0.263654 5:0.246202 6:0.286037 7:0.633443 8:0.428316 9:0.678544 10:0.030358 11:0.541854 12:0.730296 13:0.440069 14:0.228265 15:0.053221 16:0.399032 17:0.467478 18:0.203817 19:0.121164 20:0.665958 21:0.37515 22:0.725678 23:0.085269 24:0.074146 25:0.10178 26:0.012656 27:0.333333 28:0.116279 29:0.047418 30:0.4323 31:0.889857 32:0.124836 33:0.981173 34:0.330621 35:0.056866 36:0.152475 37:0 38:0.003212 39:0.183706 40:0.5 41:0.173457 42:0.084088 43:0.17529 44:0.938053 45:0.041272 46:0.481011 47:0.928263 48:0.124836 49:0.150284 50:0.316316 51:0.368317 52:0.920364 53:0 54:0.90591 55:0.590992 56:0.5 57:0.978255 58:0.952137 59:0.127573 60:0.19337 61:0.190505 62:0.079751 63:0.227683 64:0.192755 65:0.080874 
0.2228510567780406 1:0.072334 2:0.172131 3:0.284672 4:0.178964 5:0.242147 6:0.254878 7:0.317793 8:0.230596 9:0.323978 10:0.061304 11:0.361156 12:0.381378 13:0.301858 14:0.616692 15:0.274161 16:0.164751 17:0.699042 18:0.300925 19:0.212505 20:0.518739 21:0.398834 22:0.542381 23:0.315244 24:0.178283 25:0.459059 26:0.09974 27:0.111111 28:0.139535 29:0.148567 30:1.283338 31:0.813746 32:0.215726 33:0.679143 34:0.447776 35:0.379158 36:0.131921 37:0 38:0.214683 39:0.177411 40:0.5 41:0.145752 42:0.182873 43:0.227477 44:0.79646 45:0.128047 46:-0.041228 47:0.674826 48:0.215726 49:0.435737 50:0.482686 51:0.64842 52:0.785421 53:0 54:0.817026 55:0.487477 56:0.590909 57:0.810949 58:0.672839 59:0.208682 60:0.11326 61:0.539443 62:0.125749 63:0.382146 64:0.369843 65:0.394004 
1 1:-0.010333 2:0.163934 3:-0.007299 4:0.014726 5:0.076029 6:0.092774 7:0.463192 8:0.321779 9:0.488018 10:0.080475 11:0.645008 12:0.160891 13:0.211824 14:0.427903 15:0.064622 16:0.389001 17:0.509394 18:0.091027 19:0.055943 20:0.089917 21:0.110178 22:0.370728 23:0.555555 24:0.460585 25:0.414105 26:0.334894 27:0.222222 28:0.325581 29:0.344678 30:0.666411 31:0.854881 32:0.328392 33:0.742465 34:0.660094 35:0.459989 36:0.185156 37:0 38:0.081157 39:0.3874 40:0.5 41:0.333293 42:0.142028 43:0.339319 44:0.849558 45:0.306004 46:0.093164 47:0.697234 48:0.328392 49:0.476161 50:0.61994 51:0.445098 52:0.902222 53:0 54:0.89002 55:0.47057 56:0.590909 57:0.866005 58:0.696088 59:0.316044 60:-0.016575 61:0.510135 62:0.279948 63:0.588766 64:0.558677 65:0.496529 
1 1:-0.007985 2:0.07377 3:0.211679 4:0.092964 5:0.177737 6:0.162538 7:0.039925 8:0.119446 9:0.097948 10:0.091129 11:0.016317 12:0.059403 13:0.425114 14:0.784742 15:0.348296 16:0.157053 17:0.739599 18:0.308083 19:0.347479 20:0.64801 21:1.717442 22:0.074533 23:0.533759 24:0.559463 25:0.691917 26:0.214114 27:0.222222 28:0.069767 29:0.030987 30:0.495067 31:0.744681 32:0.051265 33:0.961254 34:0.250797 35:0.662509 36:0.110215 37:0 38:0.292864 39:0.094656 40:0.5 41:0.075424 42:0.251451 43:0.06422 44:0.80531 45:0.091288 46:0.597771 47:0.769268 48:0.051265 49:0.279427 50:0.466713 51:0.878639 52:0.81159 53:0 54:0.81197 55:0.508856 56:0.590909 57:0.820125 58:0.770825 59:0.051964 60:0.069061 61:0.841237 62:0.189939 63:0.121587 64:0.085238 65:0.039379 
1 1:0.140911 2:0.467213 3:0.240876 4:0.301484 5:0.320079 6:0.365986 7:0.296381 8:0.237893 9:0.375498 10:0.04508 11:0.259635 12:0.357219 13:0.270221 14:0.583475 15:0.110655 16:0.305897 17:0.618764 18:0.379883 19:0.284793 20:0.642223 21:0.488957 22:0.559393 23:0.109131 24:0.079096 25:0.192451 26:0.018314 27:0.444444 28:0.116279 29:0.052486 30:0.344006 31:0.670059 32:0.112352 33:0.939455 34:0.353099 35:0.380103 36:0.1019 37:0 38:0.150779 39:0.162658 40:0.5 41:0.122309 42:0.325547 43:0.12486 44:0.752212 45:0.090555 46:0.682579 47:0.743034 48:0.112352 49:0.431201 50:0.458929 51:0.626338 52:0.744404 53:0 54:0.827459 55:0.401447 56:0.590909 57:0.765069 58:0.743607 59:0.110175 60:0.174033 61:0.449522 62:0.118235 63:0.084921 64:0.111169 65:0.017585 
1 1:0.384218 2:0.278689 3:0.255474 4:0.208071 5:0.160956 6:0.18743 7:0.82054 8:0.67252 9:0.658111 10:0.331965 11:0.636299 12:1.057246 13:0.348229 14:0.03969 15:0.082145 16:0.095278 17:0.289851 18:0.080752 19:0.053911 20:0.838435 21:0.228661 22:1.249445 23:0.334005 24:0.348479 25:0.392581 26:0.129004 27:0.333333 28:0.325581 29:0.381882 30:0.863336 31:0.734942 32:-0.049934 33:0.930959 34:0.746356 35:0.236569 36:0.15066 37:0 38:0.742285 39:0.293102 40:0.5 41:0.333293 42:0.261122 43:-0.03624 44:0.699115 45:0.299718 46:-0.102026 47:0.473114 48:-0.049934 49:0.192885 50:0.666951 51:0.200977 52:0.726224 53:0 54:0.769334 55:0.397463 56:0.590909 57:0.710012 58:0.463556 59:-0.044472 60:0.21547 61:0.08553 62:0.471198 63:0.109328 64:0.223284 65:0.016211 
1 1:0.062471 2:-0.008197 3:0.379562 4:0.195793 5:0.260068 6:0.276927 7:0.247143 8:0.186787 9:0.275344 10:0.041675 11:0.233061 12:0.182038 13:0.178148 14:0.698143 15:0.862818 16:0.110627 17:0.714111 18:0.35452 19:0.263773 20:0.418817 21:0.386165 22:0.454442 23:0.346403 24:0.168885 25:0.57913 26:0.092609 27:0.111111 28:0.162791 29:0.111176 30:0.958917 31:0.884935 32:0.08714 33:0.8437 34:0.415663 35:0.57597 36:0.23007 37:0 38:0.035712 39:0.226806 40:0.5 41:0.169194 42:0.112186 43:0.099832 44:0.929204 45:0.090491 46:0.042059 47:0.841639 48:0.08714 49:0.095778 50:0.368384 51:0.768259 52:0.919692 53:0 54:0.911339 55:0.569089 56:0.590909 57:0.94859 58:0.845913 59:0.08615 60:0.149171 61:0.685336 62:0.342219 63:0.162153 64:0.126348 65:0.020034 
