svm_type c_svc
kernel_type rbf
gamma 1
nr_class 2
total_sv 1402
rho 0.673015
label 1 -1
nr_sv 574 828
SV
0.6821418368221803 1:0.48227 4:0.287346 5:0.165433 6:0.197496 7:1.159283 9:1.346086 18:0.024323 23:0.099916 28:1.086957 29:0.813452 30:-0.048784 32:0.870538 35:0.322544 36:1.184665 39:1.098421 41:1.074106 43:0.870735 45:0.817199 47:0.560809 48:0.870538 49:0.87472 51:0.116677 55:0.01613 58:0.418306 59:0.738021 60:0.214047 61:-0.04541 62:0.838222 63:0.712827 64:0.85365 65:0.298766 
0.2078168464267631 1:0.379433 4:0.202477 5:0.110115 6:0.129633 7:1.07235 9:0.572066 18:-0.024317 23:0.203717 28:0.673913 29:0.90083 30:0.697406 32:0.477229 35:0.170669 36:0.448768 39:0.704324 41:0.662004 43:0.480971 45:0.776603 47:0.559164 48:0.477229 49:0.425483 51:0.151213 55:0.266047 58:0.416579 59:0.391119 60:0.143813 61:-0.030909 62:0.569964 63:0.116745 64:0.607966 65:0.283726 
1 1:0.496454 4:0.313596 5:0.313231 6:0.304113 7:0.881883 9:0.73759 18:0.127244 23:0.248371 28:0.326087 29:0.273842 30:0.295404 32:0.293443 35:0.115739 36:0.161348 39:0.344188 41:0.314971 43:0.298842 45:0.43869 47:0.656371 48:0.293443 49:0.542628 51:0.19658 55:0.301643 58:0.518651 59:0.229018 60:0.331104 61:0.046265 62:0.262244 63:0.132908 64:0.29847 65:0.068576 
0.8902317308197283 1:0.911348 4:1.209548 5:1.13028 6:1.253327 7:0.585383 9:0.581929 18:0.57944 23:0.026246 28:0.934783 29:1.000974 30:0.132376 32:1.129371 35:0.567882 36:0.710176 39:0.928681 41:0.922279 43:1.127234 45:1.178416 47:0.417074 48:1.129371 49:0.983261 51:0.366052 55:0.417325 58:0.267377 59:0.966314 60:1.036789 61:0.20745 62:0.994454 63:1.201204 64:1.183233 65:1.749646 
0.2113211198642167 1:0.848404 4:0.764535 5:0.69767 6:0.78302 7:0.886396 9:1.006327 18:0.411937 23:-0.004671 28:0.413043 29:0.464581 30:0.623755 32:-0.2783 35:0.021641 36:0.265835 39:0.453438 41:0.401729 43:-0.267747 45:0.514746 47:0.690438 48:-0.2783 49:0.096751 51:0.364171 55:0.414614 58:0.554424 59:-0.275265 60:0.521739 61:-0.040474 62:0.075306 63:0.780911 64:0.757951 65:0.698278 
0.08127947755773901 1:1.12367 4:0.764023 5:0.670253 6:0.740441 7:1.249832 9:1.452613 18:0.286697 23:0.024497 28:0.782609 29:0.453686 30:0.081138 32:0.6467 35:0.110859 36:0.954402 39:0.756548 41:0.770452 43:0.648914 45:0.77402 47:0.540956 48:0.6467 49:0.783889 51:0.106106 55:0.083277 58:0.397459 59:0.540593 60:0.672241 61:-0.074767 62:0.679624 63:0.841273 64:0.819029 65:0.315297 
0.4589686749286697 1:1.404699 4:0.938892 5:0.880964 6:0.96401 7:1.318063 9:1.290001 18:0.293725 23:0.081898 28:0.391304 29:0.343592 30:1.099122 32:0.144542 35:-0.006306 36:0.421114 39:0.396043 41:0.380039 43:0.151283 45:0.769715 47:0.572215 48:0.144542 49:0.551551 51:0.151008 55:0.068296 58:0.430284 59:0.097686 60:0.795987 61:-0.108391 62:0.250567 63:0.481341 64:0.454825 65:0.116311 
0.2035539398858008 1:0.612589 4:0.963524 5:0.914331 6:1.018653 7:0.471275 9:0.33542 18:0.699827 23:0.006617 28:0.717391 29:1.189411 30:0.45458 32:0.901151 35:0.652847 36:0.336758 39:0.724821 41:0.705383 43:0.901072 45:1.429875 47:0.393303 48:0.901151 49:0.913836 51:0.448956 55:0.429211 58:0.242417 59:0.765022 60:0.80602 61:0.3139 62:0.724955 63:0.931591 64:0.910419 65:0.764281 
0.5494909186524114 1:0.321365 4:0.235864 5:0.214874 6:0.250782 7:0.857083 9:0.686027 18:0.059606 23:0.192712 28:0.586957 29:0.812767 30:0.764162 32:0.252325 35:0.19698 36:0.467137 39:0.628955 41:0.575246 43:0.258095 45:0.735394 47:0.59478 48:0.252325 49:0.180473 51:0.29657 55:0.357022 58:0.496905 59:0.209566 60:0.140468 61:0.022802 62:0.484751 63:0.726512 64:0.702906 65:0.495365 
1 1:0.359486 4:0.600353 5:0.607425 6:0.682709 7:0.447452 9:0.464008 18:0.443389 23:0.01346 28:0.217391 29:0.142103 30:0.456739 32:0.261378 35:0.254067 36:0.160066 39:0.267897 41:0.206523 43:0.267065 45:0.139423 47:0.956127 48:0.261378 49:0.130728 51:0.611605 55:0.623676 58:0.876337 59:0.217837 60:0.48495 61:0.360841 62:0.255942 63:0.132908 64:0.228094 65:0.067667 
1 1:0.16711 4:0.218141 5:0.240737 6:0.27911 7:0.559931 9:0.620994 18:0.225972 23:0.155713 28:0.173913 29:0.169758 30:0.702027 32:0.196202 35:0.16236 36:0.126714 39:0.214547 41:0.163143 43:0.202477 45:0.175573 47:0.915285 48:0.196202 49:0.196895 51:0.555497 55:0.602479 58:0.833451 59:0.158286 60:0.103679 61:0.20762 62:0.069178 63:0.328079 64:0.299743 65:0.158792 
1 1:0.509752 4:0.415656 5:0.548814 6:0.38421 7:0.55206 9:0.5466 18:0.327428 23:0.147735 28:0.173913 29:0.165576 30:0.921163 32:-0.2783 35:0.042821 36:0.121292 39:0.202195 41:0.163143 43:-0.267747 45:0.176677 47:0.850329 48:-0.2783 49:-0.259679 51:0.365481 55:0.619662 58:0.765244 59:-0.275265 60:0.491639 61:0.172014 62:0.117822 63:0.12141 64:0.179598 65:0.05437 
0.3880359476589116 1:1.235816 4:0.754779 5:0.603427 6:0.669553 7:1.442684 9:1.267523 18:0.166333 23:0.109341 28:0.217391 29:0.144559 30:0.635317 32:0.298245 35:-0.059569 36:0.139878 39:0.238401 41:0.206523 43:0.3036 45:0.723323 47:0.542725 48:0.298245 49:0.637369 51:0.104013 55:0.183991 58:0.442245 59:0.251523 60:0.632107 61:-0.12665 62:0.1642 63:0.23319 64:0.203728 65:0.017237 
0.979584811219718 1:0.368794 4:0.652582 5:0.529716 6:0.584342 7:0.132366 9:0.140519 18:0.723257 23:0.075316 28:0.26087 29:0.157996 30:1.000811 32:0.263805 35:0.449434 36:0.374536 39:0.30237 41:0.249902 43:0.269471 45:0.184713 47:0.788553 48:0.263805 49:0.148599 51:0.717094 55:0.56527 58:0.700376 59:0.220056 60:0.494983 61:0.356423 62:0.265063 63:0.580825 64:0.55549 65:0.574554 
0.5742702198969957 1:0.716755 4:0.672563 5:0.630586 6:0.709805 7:0.851675 9:0.882456 18:0.366944 23:-0.003072 28:0.26087 29:0.427715 30:1.263292 32:0.486661 35:-0.042248 36:0.204225 39:0.275862 41:0.249902 43:0.490318 45:0.401123 47:0.699104 48:0.486661 49:0.475104 51:0.099184 55:0.601539 58:0.60645 59:0.423678 60:0.618729 61:0.093795 62:0.065816 63:0.798796 64:0.822839 65:1.272859 
1 1:1.088209 4:0.670725 5:0.654238 6:0.624277 7:1.073188 9:1.095685 18:0.292356 23:0.177153 28:0.130435 29:0.066414 30:0.614408 32:0.164411 35:-0.078784 36:0.144439 39:0.14037 41:0.119764 43:0.170973 45:0.339588 47:0.70164 48:0.164411 49:0.417077 51:0.151714 55:0.332721 58:0.609113 59:0.129239 60:0.702341 61:-0.048425 62:0.102539 63:0.152709 64:0.122291 65:0.019412 
0.02802353127409989 1:1.284131 4:0.848025 5:0.711259 6:0.794448 7:1.4 9:1.027728 18:0.238452 23:0.04497 28:0.26087 29:0.14146 30:0.752206 32:0.110032 35:-0.041867 36:0.328234 39:0.267699 41:0.249902 43:0.117084 45:0.490174 47:0.614406 48:0.110032 49:0.468082 51:0.143518 55:0.219293 58:0.517513 59:0.079553 60:0.712375 61:-0.107706 62:0.254386 63:0.074999 64:0.183943 65:0.021944 
1 1:0.727837 4:0.691963 5:0.671513 6:0.723431 7:0.855819 9:0.932648 18:0.406093 23:0.042424 28:0.065217 29:0.058301 30:1.244975 32:0.208135 35:-0.047482 36:0.099369 39:0.087696 41:0.073674 43:0.234389 45:0.07228 47:0.893027 48:0.208135 49:0.156026 51:0.302618 55:0.633687 58:0.781461 59:0.158794 60:0.588629 61:0.066826 62:0.004543 63:0.065317 64:0.10377 65:0.026663 
0.1146827585957982 1:0.378989 4:0.446083 5:0.472281 6:0.473924 7:0.549928 9:0.626976 18:0.334612 23:0.163487 28:0.173913 29:0.219696 30:1.065694 32:0.298427 35:0.095489 36:0.123212 39:0.207681 41:0.18664 43:0.327595 45:0.208212 47:0.819498 48:0.298427 49:0.271864 51:0.484843 55:0.619104 58:0.704252 59:0.239363 60:0.377926 61:0.2166 62:0.04177 63:0.657954 64:0.633534 65:0.877146 
0.2523424611014242 1:0.808511 4:0.904951 5:0.802774 6:0.848871 7:0.626117 9:0.616374 18:0.576748 23:0.095278 28:0.413043 29:0.661456 30:1.01 32:0.880723 35:0.2008 36:0.281508 39:0.423862 41:0.435167 43:0.928685 45:0.582983 47:0.622189 48:0.880723 49:0.764181 51:0.467774 55:0.484935 58:0.497068 59:0.75896 60:0.715719 61:0.093777 62:0.439071 63:0.210834 64:0.523152 65:0.224402 
0.5919746316648513 1:1.029699 4:1.046082 5:1.008373 6:1.105983 7:0.788363 9:0.688311 18:0.559834 23:0.043461 28:0.086957 29:0.175496 30:1.411071 32:0.19054 35:-0.036671 36:0.046749 39:0.110089 41:0.096267 43:0.216225 45:0.481187 47:0.617836 48:0.19054 49:0.375007 51:0.283332 55:0.430814 58:0.492497 59:0.143093 60:0.959866 61:0.098734 62:0.004721 63:0.402389 64:0.374936 65:0.226581 
0.3314041886627812 1:0.922872 4:0.705278 5:0.664781 6:0.734148 7:1.084945 9:1.010473 18:0.327824 23:0.029325 28:0.630435 29:0.849217 30:0.475601 32:1.089904 35:0.036023 36:0.353032 39:0.628016 41:0.6611 43:1.144618 45:1.002705 47:0.528573 48:1.089904 49:0.936168 51:0.175929 55:0.275068 58:0.398766 59:0.945618 60:0.625418 61:-0.018106 62:0.271459 63:0.893649 64:0.872028 65:0.786685 
1 1:0.140514 4:0.058433 5:-0.003694 6:-0.04384 7:0.829288 9:0.498206 18:-0.043811 23:1.493142 28:0.826087 29:1.054948 30:0.13766 32:0.971093 35:0.464061 36:0.352885 39:0.863583 41:0.767115 43:0.922763 45:0.9654 47:0.617865 48:0.971093 49:0.854971 51:0.348821 55:0.225202 58:0.521146 59:0.866304 60:0.050167 61:0.169948 62:0.763048 63:0.930696 64:0.909515 65:1.003556 
0.4616516941143255 1:0.947695 4:0.885621 5:0.802788 6:0.894429 7:0.860928 9:0.92751 18:0.436979 23:0.005759 28:0.347826 29:0.464932 30:0.949831 32:0.775993 35:-0.032243 36:0.224425 39:0.354727 41:0.308297 43:0.736858 45:0.453897 47:0.650329 48:0.775993 49:0.708461 51:0.22211 55:0.555232 58:0.555234 59:0.688041 60:0.819398 61:0.071254 62:0.10305 63:0.663702 64:0.708184 65:0.867763 
0.1975109863249408 1:0.651596 4:0.814737 5:0.758715 6:0.850118 7:0.602762 9:0.694167 18:0.585314 23:-0.01482 28:0.717391 29:0.611837 30:0.223978 32:1.127858 35:0.371914 36:0.644018 39:0.757037 41:0.521022 43:0.893487 45:0.551376 47:0.669286 48:1.127858 49:0.910403 51:0.511172 55:0.310394 58:0.582294 59:1.017279 60:0.531773 61:0.081067 62:0.393089 63:0.879278 64:0.859542 65:0.866992 
0.02179293884745678 1:0.985816 4:0.96227 5:0.848975 6:0.766466 7:0.850906 9:0.084484 18:0.222153 23:0.150663 28:0.673913 29:0.977538 30:0.58852 32:0.877341 35:0.387949 36:0.441076 39:0.685152 41:0.484872 43:0.686606 45:0.960818 47:0.567157 48:0.877341 49:0.783383 51:0.563386 55:0.401554 58:0.475054 59:0.787003 60:1.234114 61:0.25951 62:0.430521 63:0.595357 64:0.870493 65:0.991478 
1 1:0.20523 4:0.123986 5:0.178863 6:0.193994 7:1.102939 9:0.674356 18:0.046081 23:0.42707 28:0.326087 29:0.264432 30:0.524187 32:0.458213 35:0.063004 36:0.235831 39:0.335444 41:0.195678 43:0.340481 45:0.419481 47:0.741 48:0.458213 49:0.53563 51:0.258452 55:0.432088 58:0.657598 59:0.401739 60:0.133779 61:0.180243 62:0.190199 63:0.479106 64:0.47184 65:0.411503 
0.8842453575659133 1:0.196365 4:0.236378 5:0.20995 6:0.245887 7:0.644133 9:0.649065 18:0.157273 23:0.142172 28:0.347826 29:0.318922 30:0.325926 32:0.501785 35:0.228955 36:0.144185 39:0.361397 41:0.213752 43:0.376463 45:0.29586 47:0.645611 48:0.501785 49:0.734357 51:0.40398 55:0.259943 58:0.557434 59:0.441791 60:0.117057 61:0.170707 62:0.215886 63:0.504443 64:0.4782 65:0.333041 
0.04527206686298415 1:1.37633 4:0.946939 5:1.118434 6:0.691957 7:1.063615 9:0.678941 18:0.405082 23:0.23818 28:0.456522 29:0.530522 30:0.547011 32:0.41195 35:0.125698 36:0.178269 39:0.466635 41:0.304126 43:0.302276 45:1.01236 47:0.447284 48:0.41195 49:0.691003 51:0.207292 55:0.040987 58:0.349181 59:0.359215 60:1.110368 61:0.016781 62:0.396717 63:0.027515 64:0.349078 65:0.123607 
0.6799214169399396 1:1.35727 4:0.830168 5:0.7582 6:0.830274 7:1.408059 9:1.463577 18:0.23283 23:0.148528 28:0.195652 29:0.139875 30:0.458613 32:0.292824 35:-0.021246 36:0.080474 39:0.242312 41:0.08723 43:0.203899 45:0.597481 47:0.589124 48:0.292824 49:0.56567 51:0.16987 55:0.145447 58:0.49812 59:0.249713 60:0.685619 61:-0.137492 62:0.200774 63:0.242132 64:0.212776 65:0.016552 
0.6676789675579213 1:0.58555 4:0.431251 5:0.580004 6:0.161438 7:0.698078 9:0.620338 18:0.22318 23:0.51621 28:0.282609 29:0.399208 30:1.010171 32:0.244308 35:0.141651 36:0.083673 39:0.289885 41:0.159528 43:0.163833 45:0.472177 47:0.613873 48:0.244308 49:0.662496 51:0.282859 55:0.166889 58:0.524108 59:0.205117 60:0.618729 61:0.200139 62:0.228756 63:0.740671 64:0.717233 65:1.177691 
0.8207966148103395 1:0.328901 4:0.186814 5:0.140243 6:0.161645 7:1.17045 9:0.976033 18:0.026042 23:0.426185 28:0.630435 29:0.51063 30:0.285597 32:0.642004 35:0.231014 36:0.523345 39:0.660134 41:0.448723 43:0.492259 45:0.493822 47:0.662296 48:0.642004 49:0.683135 51:0.185913 55:0.313019 58:0.574955 59:0.57068 60:0.177258 61:0.05736 62:0.565008 63:0.524811 64:0.525288 65:0.200058 
1 1:0.339096 4:0.18106 5:0.083789 6:0.107542 7:1.086332 9:0.764843 18:-0.028535 23:0.467382 28:0.673913 29:0.417335 30:0.087086 32:-0.2783 35:0.478904 36:0.705872 39:0.696758 41:0.484872 43:-0.267747 45:0.432584 47:0.706275 48:-0.2783 49:0.234383 51:0.302486 55:0.249977 58:0.621134 59:-0.275265 60:0.237458 61:0.114353 62:0.860737 63:0.373586 64:0.501082 65:0.046444 
0.6919730266638576 1:0.663564 4:0.566297 5:0.488895 6:0.527829 7:0.910057 9:0.688054 18:0.090289 23:0.133236 28:0.282609 29:0.160992 30:0.513087 32:0.430901 35:0.090663 36:0.28775 39:0.317073 41:0.159528 43:0.317926 45:0.249576 47:0.8004 48:0.430901 49:0.402282 51:0.331937 55:0.491551 58:0.719971 59:0.376635 60:0.545151 61:0.081752 62:0.261687 63:0.20764 64:0.258128 65:0.033387 
1 1:0.373227 4:0.353501 5:0.401282 6:0.395889 7:0.729478 9:0.782064 18:0.238171 23:0.135949 28:0.173913 29:0.109447 30:0.544307 32:0.138037 35:0.06992 36:0.144693 39:0.203008 41:0.069155 43:0.076072 45:0.110309 47:0.919998 48:0.138037 49:0.057315 51:0.372996 55:0.601539 58:0.845554 59:0.107433 60:0.280936 61:0.12094 62:0.107004 63:0.227825 64:0.198299 65:0.07818 
0.05278606943604643 1:0.808067 4:0.498287 5:0.361188 6:0.41153 7:1.258062 9:1.20533 18:0.108409 23:0.049287 28:0.565217 29:0.345887 30:0.302043 32:-0.2783 35:0.13883 36:0.642717 39:0.579393 41:0.394499 43:-0.267747 45:0.541043 47:0.633649 48:-0.2783 49:0.251809 51:0.191069 55:0.178511 58:0.544873 59:-0.275265 60:0.408027 61:-0.088082 62:0.593696 63:0.523208 64:0.497189 65:0.114974 
1 1:0.182181 4:0.256931 5:0.268198 6:0.312939 7:0.603336 9:0.621256 18:0.215283 23:0.058797 28:0.173913 29:0.083848 30:0.370462 32:0.261456 35:0.177747 36:0.172211 39:0.209464 41:0.141454 43:0.24657 45:0.092821 47:0.931183 48:0.261456 49:0.253149 51:0.561754 55:0.62259 58:0.885918 59:0.23313 60:0.130435 61:0.220558 62:0.182074 63:0.262353 64:0.233237 65:0.103056 
0.2626281270581336 1:0.308067 4:0.519196 5:0.521232 6:0.580148 7:0.344359 9:0.42707 18:0.429019 23:0.055854 28:0.347826 29:0.41787 30:1.076801 32:0.486622 35:0.376748 36:0.297313 39:0.412091 41:0.308297 43:0.461125 45:0.380722 47:0.683755 48:0.486622 49:0.386039 51:0.688597 55:0.539668 58:0.626105 59:0.445214 60:0.337793 61:0.277125 62:0.395723 63:0.885985 64:0.864272 65:1.536666 
1 1:0.535461 4:0.704488 5:0.735737 6:0.815877 7:0.636745 9:0.349372 18:0.578171 23:0.079166 28:0.108696 29:0.10402 30:0.678246 32:0.271929 35:0.050602 36:0.023768 39:0.151726 41:0.078888 43:0.256549 45:0.090887 47:0.984681 48:0.271929 49:0.100808 51:0.414093 55:0.725551 58:0.942092 59:0.242995 60:0.682274 61:0.30336 62:0.006198 63:0.322614 64:0.294213 65:0.258513 
1 1:0.101064 4:0.339727 5:0.385208 6:0.439196 7:0.282938 9:0.327519 18:0.540808 23:0.0255 28:0.108696 29:0.032629 30:0.472256 32:0.192874 35:0.406213 36:0.223958 39:0.173818 41:0.078888 43:0.181221 45:0.023505 47:1.079832 48:0.192874 49:-0.005623 51:0.781681 55:0.720412 58:1.042006 59:0.168533 60:0.264214 61:0.728985 62:0.200457 63:0.170525 64:0.140318 65:0.057317 
1 1:0.285461 4:0.419544 5:0.483166 6:0.469939 7:0.356299 9:0.342075 18:0.39287 23:0.135947 28:0.26087 29:0.253417 30:0.85706 32:0.455235 35:0.336729 36:0.247195 39:0.319263 41:0.224875 43:0.431216 45:0.245485 47:0.837838 48:0.455235 49:0.310551 51:0.648248 55:0.609729 58:0.7879 59:0.41565 60:0.384615 61:0.376269 62:0.341599 63:0.138848 64:0.255757 65:0.069589 
0.7093495955407532 1:0.526596 4:0.3297 5:0.234717 6:0.217003 7:0.966207 9:0.812718 18:0.070978 23:0.369408 28:0.434783 29:0.324388 30:0.444892 32:0.560595 35:0.053607 36:0.404375 39:0.451192 41:0.391718 43:0.531611 45:0.293071 47:0.740712 48:0.560595 49:0.651715 51:0.189881 55:0.39236 58:0.685913 59:0.514889 60:0.344482 61:0.032947 62:0.326919 63:0.437971 64:0.466496 65:0.245028 
1 1:0.313387 4:0.1369 5:0.029265 6:0.041053 7:0.907512 9:0.768113 18:-0.052449 23:1.238544 28:0.217391 29:0.290847 30:0.806825 32:0.053851 35:0.088539 36:0.023266 39:0.236814 41:0.183165 43:0.04875 45:0.187299 47:0.788878 48:0.053851 49:0.028081 51:0.278877 55:0.495091 58:0.73649 59:0.037588 60:0.183946 61:0.083879 62:0.201538 63:0.188478 64:0.216819 65:0.051258 
1 1:0.760195 4:0.612327 5:0.552863 6:0.621693 7:1.091779 9:1.062783 18:0.258358 23:0.060288 28:0.152174 29:0.089988 30:0.857394 32:0.254877 35:-0.004507 36:0.169512 39:0.187605 41:0.120598 43:0.240301 45:0.237608 47:0.78883 48:0.254877 49:0.30744 51:0.304793 55:0.481253 58:0.73644 59:0.226933 60:0.458194 61:-0.034719 62:0.163026 63:0.11264 64:0.104194 65:0.009033 
1 1:0.203014 4:0.143752 5:0.184266 6:0.180891 7:0.744461 9:0.16257 18:0.051976 23:0.843467 28:0.586957 29:0.514621 30:0.398042 32:0.339362 35:0.514912 36:0.527239 39:0.615692 41:0.537706 43:0.320805 45:0.533848 47:0.60473 48:0.339362 49:0.430082 51:0.447958 55:0.302732 58:0.543125 59:0.30651 60:0.180602 61:0.257212 62:0.689091 63:0.774205 64:0.796408 65:0.763581 
1 1:0.239362 4:0.280153 5:0.332733 6:0.362885 7:0.621547 9:0.598845 18:0.221087 23:0.228624 28:0.152174 29:0.107965 30:0.753286 32:0.216378 35:0.120381 36:0.172083 39:0.197976 41:0.120598 43:0.203617 45:0.120922 47:0.9464 48:0.216378 49:0.144244 51:0.515639 55:0.665081 58:0.901896 59:0.190672 60:0.210702 61:0.230858 62:0.098934 63:0.224248 64:0.194679 65:0.081693 
1 1:0.24867 4:0.210002 5:0.195836 6:0.229895 7:0.87314 9:0.955014 18:0.083846 23:0.149795 28:0.326087 29:0.203652 30:0.564461 32:0.310575 35:0.129232 36:0.314001 39:0.374128 41:0.287441 43:0.293375 45:0.180885 47:0.834734 48:0.310575 49:0.235985 51:0.314577 55:0.562388 58:0.784641 59:0.279396 60:0.12709 61:0.098371 62:0.361357 63:0.266198 64:0.263674 65:0.05096 
1 1:0.074025 4:0.156699 5:0.20237 6:0.234471 7:0.447611 9:0.52266 18:0.217997 23:0.183378 28:0.152174 29:0.172159 30:0.644731 32:0.300067 35:0.243275 36:-0.003782 39:0.19085 41:0.120598 43:0.283362 45:0.156038 47:0.920282 48:0.300067 49:0.222106 51:0.708055 55:0.676757 58:0.87447 59:0.269498 60:0.040134 61:0.334282 62:0.174965 63:0.425451 64:0.398272 65:0.384965 
1 1:0.046099 4:0.129176 5:0.180477 6:0.213339 7:0.43347 9:0.464542 18:0.148738 23:0.217139 28:0.130435 29:0.138137 30:1.130826 32:0.231317 35:0.205547 36:0.101075 39:0.141091 41:0.099743 43:0.217851 45:0.118943 47:0.80218 48:0.231317 49:0.287209 51:0.523964 55:0.672002 58:0.750458 59:0.204742 60:0.053512 61:0.480936 62:0.081655 63:0.523818 64:0.497806 65:0.506403 
1 1:0.004876 4:0.062221 5:0.092309 6:0.115323 7:0.251561 9:0.372663 18:0.187156 23:0.180418 28:0.23913 29:0.149063 30:0.569309 32:0.248818 35:0.505551 36:0.266224 39:0.304798 41:0.20402 43:0.234528 45:0.125271 47:0.925148 48:0.248818 49:0.091488 51:0.739798 55:0.625617 58:0.879581 59:0.221226 60:0.003344 61:0.550889 62:0.420172 63:0.201892 64:0.215807 65:0.065442 
1 1:0.16445 4:0.076109 5:0.046346 6:0.068096 7:0.886301 9:0.575532 18:-0.024389 23:0.210488 28:0.565217 29:0.468456 30:0.217769 32:0.431365 35:0.267398 36:0.456859 39:0.613636 41:0.516851 43:0.408472 45:0.439855 47:0.753577 48:0.431365 49:0.475611 51:0.304454 55:0.406908 58:0.699422 59:0.393168 60:0.053512 61:0.126373 62:0.468834 63:0.72008 64:0.696397 65:0.612631 
1 1:0.816046 4:0.604728 5:0.609144 6:0.670967 7:1.322643 9:0.734038 18:0.179746 23:0.048822 28:0.304348 29:0.232615 30:0.66802 32:0.146915 35:0.09121 36:0.230932 39:0.336798 41:0.266586 43:0.137427 45:0.433705 47:0.618163 48:0.146915 49:0.224942 51:0.264546 55:0.373121 58:0.557231 59:0.125244 60:0.48495 61:-0.046397 62:0.321218 63:-0.10215 64:0.283892 65:0.197117 
1 1:0.233599 4:0.123986 5:0.044153 6:0.001795 7:0.70309 9:0.688155 18:-0.036151 23:0.727729 28:0.608696 29:0.645313 30:0.303792 32:0.962332 35:0.288979 36:0.36156 39:0.609354 41:0.558561 43:0.914415 45:0.680988 47:0.561435 48:0.962332 49:0.959822 51:0.259087 55:0.575861 58:0.497664 59:0.893285 60:0.130435 61:0.126245 62:0.618574 63:0.488048 64:0.566825 65:0.220119 
1 1:0.251773 4:0.241626 5:0.323376 6:0.30315 7:0.632187 9:0.63813 18:0.147067 23:0.299515 28:0.347826 29:0.196851 30:0.403707 32:0.396242 35:0.216148 36:0.391292 39:0.388656 41:0.141454 43:0.223768 45:0.202184 47:0.798017 48:0.396242 49:0.498658 51:0.408414 55:0.502347 58:0.781859 59:0.380319 60:0.220736 61:0.222566 62:0.28943 63:0.37261 64:0.398968 65:0.230745 
0.8399178287086471 1:1.398936 4:1.492152 5:1.539232 6:1.493558 7:0.647666 9:0.683174 18:0.971457 23:0.065175 28:0.934783 29:0.871075 30:0.161025 32:0.968524 35:0.466336 36:0.850503 39:0.965661 41:0.572056 43:0.640771 45:0.810286 47:0.498524 48:0.968524 49:0.907028 51:0.388558 55:0.127368 58:0.467377 59:0.936518 60:1.374582 61:0.106531 62:1.016552 63:0.987928 64:0.969975 65:0.916349 
0.07159186420250292 1:0.356383 4:0.394166 5:0.476658 6:0.359056 7:0.550439 9:0.461952 18:0.332029 23:0.226464 28:0.869565 29:0.795472 30:0.173124 32:1.03385 35:0.653061 36:0.803802 39:0.903637 41:0.524211 43:0.688372 45:0.734672 47:0.558275 48:1.03385 49:0.918035 51:0.474826 55:0.203943 58:0.530119 59:1.000008 60:0.35786 61:0.226109 62:0.927743 63:1.140843 64:1.122155 65:1.667075 
0.1008062205860185 1:0.70656 4:0.706856 5:0.712075 6:0.711406 7:0.694315 9:0.75428 18:0.45561 23:0.100012 28:0.956522 29:0.831861 30:0.169778 32:1.411538 35:0.473847 36:0.916266 39:0.99467 41:0.588004 43:0.96358 45:0.799409 47:0.466919 48:1.411538 49:0.985921 51:0.355305 55:0.117306 58:0.43419 59:1.367081 60:0.568562 61:0.067776 62:1.031165 63:1.160963 64:1.142515 65:1.101594 
0.4018115181800124 1:1.131206 4:0.856196 5:0.779352 6:0.862336 7:1.258568 9:1.031642 18:0.326853 23:0.027859 28:0.717391 29:0.704869 30:0.267639 32:0.303347 35:0.369029 36:0.508549 39:0.730009 41:0.412574 43:0.156079 45:0.749781 47:0.4626 48:0.303347 49:0.553024 51:0.198337 55:0.028258 58:0.429655 59:0.290035 60:0.591973 61:-0.113038 62:1.321985 63:4.9e-005 64:0.638037 65:0.602949 
0.09556938460715116 1:0.689273 4:0.700826 5:0.649565 6:0.642041 7:0.68753 9:0.65012 18:0.424887 23:0.199464 28:0.956522 29:1.119828 30:0.067021 32:1.204244 35:0.628725 36:0.530084 39:0.972437 41:0.588004 43:0.812532 45:1.058753 47:0.484753 48:1.204244 49:0.965676 51:0.372526 55:0.179763 58:0.452917 59:1.165613 60:0.628763 61:0.120139 62:1.229784 63:0.672858 64:0.76722 65:0.2383 
0.1380426183363823 1:1.025266 4:0.878539 5:1.161071 6:0.857841 7:0.658812 9:0.136364 18:0.49026 23:0.268933 28:0.586957 29:0.736461 30:0.675961 32:0.439688 35:0.60957 36:0.416153 39:0.592036 41:0.316884 43:0.255426 45:1.003831 47:0.383426 48:0.439688 49:0.744418 51:0.414586 55:0.080157 58:0.346519 59:0.422545 60:1.337793 61:0.284043 62:0.756333 63:0.163887 64:0.513906 65:0.179089 
1 1:0.216755 4:0.126294 5:0.086604 6:0.113803 7:0.95066 9:1.031983 18:0.012876 23:0.110975 28:0.543478 29:0.477776 30:0.26965 32:0.744175 35:0.115217 36:0.364105 39:0.584394 41:0.284988 43:0.477295 45:0.458769 47:0.703852 48:0.744175 49:0.791951 51:0.238113 55:0.365357 58:0.682981 59:0.718473 60:0.060201 61:0.049048 62:0.288113 63:0.818917 64:0.796408 65:0.811109 
0.5057446769194054 1:1.243794 4:0.892245 5:0.875028 6:0.346307 7:0.581232 9:0.541352 18:0.091351 23:0.205754 28:0.695652 29:0.81255 30:0.50475 32:0.88569 35:0.390252 36:0.505894 39:0.714347 41:0.396625 43:0.580412 45:0.874748 47:0.462477 48:0.88569 49:0.89947 51:0.297561 55:0.138994 58:0.429526 59:0.856012 60:1.150502 61:0.083353 62:0.691428 63:0.007395 64:0.583944 65:0.462283 
0.2344932069485027 1:0.466312 4:0.310372 5:0.32962 6:0.244343 7:0.658349 9:0.489112 18:0.116782 23:0.317219 28:1.152174 29:0.684322 30:-0.167434 32:0.876441 35:0.675701 36:1.464336 39:1.166352 41:0.731538 43:0.573673 45:0.750332 47:0.533127 48:0.876441 49:0.89979 51:0.229389 55:-0.030439 58:0.503711 59:0.847022 60:0.331104 61:0.073026 62:1.414955 63:0.684781 64:0.916301 65:0.23272 
0.05155695243149908 1:0.785461 4:0.523283 5:0.402472 6:0.453578 7:1.070048 9:1.106239 18:0.123079 23:0.036748 28:0.782609 29:0.449357 30:0.407773 32:0.316853 35:0.334736 36:1.164218 39:0.799418 41:0.460418 43:0.16592 45:0.387072 47:0.605116 48:0.316853 49:0.581731 51:0.163338 55:0.102565 58:0.579304 59:0.303161 60:0.394649 61:-0.086012 62:1.172395 63:0.604299 64:0.583704 65:0.089437 
0.1429726335122818 1:1.008422 4:0.775632 5:0.706053 6:0.758539 7:1.19039 9:0.912796 18:0.283942 23:0.04665 28:0.891304 29:0.436188 30:-0.036327 32:0.524813 35:0.40442 36:1.275763 39:0.815081 41:0.540159 43:0.317454 45:0.762194 47:0.453233 48:0.524813 49:0.759045 51:0.199068 55:-0.00456 58:0.419819 59:0.505277 60:0.595318 61:-0.069194 62:1.303838 63:0.546174 64:0.649964 65:0.055784 
0.6886276840767944 1:1.003103 4:0.630516 5:0.675465 6:0.724937 7:1.278937 9:1.358373 18:0.280766 23:0.086235 28:1.152174 29:0.581549 30:-0.135584 32:0.829891 35:0.378577 36:1.691575 39:1.089115 41:0.731538 43:0.539753 45:0.759999 47:0.443334 48:0.829891 49:0.874702 51:0.110025 55:-0.09288 58:0.409425 59:0.801781 60:0.625418 61:-0.052306 62:1.38913 63:0.668788 64:0.865391 65:0.107664 
0.2735106213650521 1:0.497784 4:0.599166 5:0.574264 6:0.645298 7:0.70428 9:0.625402 18:0.356275 23:0.099386 28:0.891304 29:0.914513 30:0.047028 32:0.811742 35:0.638723 36:0.600645 39:0.881187 41:0.631219 43:0.603394 45:0.369104 47:0.359073 48:0.811742 49:0.996385 51:0.196225 55:0.606252 58:0.313792 59:0.777437 60:0.548495 61:0.233715 62:1.0883 63:0.564058 64:0.760925 65:0.238529 
1 1:0.197252 4:0.126294 5:0.029126 6:0.050613 7:0.935856 9:0.65932 18:-0.021433 23:0.348151 28:0.391304 29:0.299068 30:0.351894 32:0.521465 35:0.164422 36:0.275108 39:0.436602 41:0.228912 43:0.37141 45:0.291612 47:0.782308 48:0.521465 49:0.559597 51:0.331715 55:0.467476 58:0.758209 59:0.497103 60:0.090301 61:0.12678 62:0.265238 63:0.602064 64:0.57698 65:0.444976 
0.5393141032748923 1:1.090426 4:0.788278 5:0.865281 6:0.368171 7:0.83383 9:0.148838 18:0.288606 23:0.270019 28:0.434783 29:0.365921 30:0.470918 32:0.058443 35:0.311315 36:0.343539 39:0.445096 41:0.263895 43:0.001372 45:0.57418 47:0.441266 48:0.058443 49:0.673367 51:0.183663 55:0.562482 58:0.400098 59:0.049943 60:0.919732 61:0.050579 62:0.502479 63:0.439504 64:0.412491 65:0.051742 
0.6115250110237684 1:0.348848 4:0.487337 5:0.477505 6:0.520121 7:0.495597 9:0.530591 18:0.426628 23:0.0545 28:0.847826 29:0.580683 30:0.153476 32:-0.2783 35:0.720352 36:1.001875 39:0.907399 41:0.596236 43:-0.267747 45:0.521186 47:0.639445 48:-0.2783 49:0.234125 51:0.493129 55:0.202943 58:0.608197 59:-0.275265 60:0.337793 61:0.21452 62:0.744379 63:0.879278 64:0.857485 65:0.595621 
0.05348347881337732 1:0.988032 4:0.818111 5:0.622235 6:0.693236 7:1.029633 9:0.967254 18:0.314944 23:0.06577 28:0.630435 29:0.318067 30:-0.146945 32:0.513812 35:0.149274 36:0.650616 39:0.656599 41:0.421319 43:0.365294 45:0.444068 47:0.702904 48:0.513812 49:0.578255 51:0.276687 55:0.236523 58:0.674831 59:0.489712 60:0.648829 61:-0.034541 62:0.421897 63:0.684781 64:0.660679 65:0.273372 
0.5484833261619402 1:0.378989 4:0.332232 5:0.287506 6:0.325956 7:0.77542 9:0.710078 18:0.137101 23:0.073149 28:1.108696 29:0.612207 30:-0.303746 32:1.092589 35:0.604963 36:1.397549 39:1.145696 41:0.806135 43:0.827842 45:0.611917 47:0.608278 48:1.092589 49:0.952051 51:0.274452 55:0.035061 58:0.57547 59:1.048663 60:0.234114 61:0.0648 62:1.392913 63:0.881077 64:0.885829 65:0.291454 
0.05291535618676536 1:0.393174 4:0.493756 5:0.668628 6:0.443349 7:0.497958 9:0.157979 18:0.533732 23:0.121813 28:0.304348 29:0.473276 30:0.988259 32:0.250285 35:0.317291 36:0.173641 39:0.351626 41:0.158945 43:0.154688 45:0.459862 47:0.726505 48:0.250285 49:0.23335 51:0.616155 55:0.54532 58:0.692459 59:0.232002 60:0.561873 61:0.38733 62:0.288706 63:0.465692 64:0.518843 65:0.520792 
0.8427158834504912 1:0.429078 4:0.167298 5:-0.045062 6:-0.031707 7:0.529681 9:-0.191512 18:-0.076215 23:-0.019715 28:0.826087 29:0.667338 30:0.263184 32:0.175793 35:0.373582 36:0.86108 39:0.828599 41:0.578744 43:0.095155 45:0.641109 47:0.597949 48:0.175793 49:0.737598 51:0.132745 55:0.080665 58:0.557469 59:0.160515 60:0.183946 61:-0.032509 62:0.935863 63:0.592562 64:0.60744 65:0.085817 
1 1:0.20656 4:0.12853 5:0.03591 6:0.058405 7:0.950667 9:1.099193 18:-0.016983 23:0.269928 28:0.369565 29:0.263103 30:0.320255 32:0.471719 35:0.066899 36:0.264065 39:0.415622 41:0.21142 43:0.331654 45:0.257025 47:0.81382 48:0.471719 49:0.498275 51:0.268113 55:0.483794 58:0.784144 59:0.444506 60:0.053512 61:0.054135 62:0.163686 63:0.584179 64:0.558883 65:0.360173 
1 1:0.358599 4:0.488379 5:0.66006 6:0.43731 7:0.463744 9:0.004526 18:0.56217 23:0.126947 28:0.282609 29:0.427323 30:0.870104 32:0.447013 35:0.318187 36:0.107857 39:0.33157 41:0.159528 43:0.331232 45:0.416521 47:0.768014 48:0.447013 49:0.305335 51:0.672954 55:0.586901 58:0.728891 59:0.416446 60:0.541806 61:0.424651 62:0.273406 63:0.396389 64:0.40186 65:0.334529 
1 1:0.414007 4:0.171417 5:-0.038786 6:-0.023663 7:0.764035 9:-0.191512 18:-0.056495 23:0.738302 28:0.73913 29:0.576855 30:0.255599 32:0.312276 35:0.460135 36:0.74005 39:0.745157 41:0.539096 43:0.219963 45:0.605586 47:0.639354 48:0.312276 49:0.744625 51:0.212191 55:0.151927 58:0.593792 59:0.287951 60:0.364548 61:0.159214 62:0.826061 63:0.671367 64:0.647107 65:0.147457 
0.1238111901147152 1:1.060727 4:0.891393 5:0.822327 6:0.867613 7:0.616222 9:0.157862 18:0.378113 23:0.155392 28:0.195652 29:0.201225 30:0.657003 32:0.211508 35:0.142377 36:0.039044 39:0.218919 41:0.08723 43:0.136747 45:0.647462 47:0.598187 48:0.211508 49:0.4667 51:0.373625 55:0.312154 58:0.550564 59:0.191851 60:1.117057 61:0.157108 62:0.236398 63:0.12141 64:0.154821 65:0.012488 
0.3665688338535256 1:0.449911 4:0.454708 5:0.449576 6:0.480091 7:0.733115 9:0.427358 18:0.201077 23:0.131209 28:0.282609 29:0.297244 30:0.7368 32:-0.2783 35:0.132698 36:0.117349 39:0.303018 41:0.159528 43:-0.267747 45:0.360602 47:0.716885 48:-0.2783 49:-0.180385 51:0.454365 55:0.504376 58:0.675203 59:-0.275265 60:0.408027 61:0.160571 62:0.166047 63:0.587532 64:0.562276 65:0.529224 
1 1:0.20523 4:0.12853 5:0.063078 6:0.088494 7:0.888136 9:1.045103 18:0.002292 23:0.262389 28:0.304348 29:0.200754 30:0.375913 32:0.37332 35:0.03663 36:0.224718 39:0.351142 41:0.177603 43:0.270374 45:0.199389 47:0.85896 48:0.37332 49:0.375235 51:0.273353 55:0.529951 58:0.824388 59:0.346167 60:0.060201 61:0.066507 62:0.122746 63:0.510404 64:0.484233 65:0.304553 
0.9415742011684419 1:0.575355 4:0.320757 5:0.189008 6:0.225474 7:0.866192 9:0.781945 18:-0.011511 23:0.242472 28:0.347826 29:0.473182 30:0.741886 32:0.000497 35:0.079792 36:0.061307 39:0.37163 41:0.213752 43:-0.037511 45:0.521829 47:0.64423 48:0.000497 49:0.108898 51:0.268683 55:0.321896 58:0.598912 59:-0.009384 60:0.337793 61:-0.008325 62:0.22851 63:0.178418 64:0.386961 65:0.137428 
1 1:0.27305 4:0.261092 5:0.290677 6:0.323493 7:0.761707 9:0.728822 18:0.161938 23:0.347746 28:0.173913 29:0.11834 30:0.574182 32:0.168057 35:0.128277 36:0.102379 39:0.221144 41:0.069155 43:0.100864 45:0.098755 47:0.936419 48:0.168057 49:0.125507 51:0.465874 55:0.599906 58:0.905724 59:0.150414 60:0.250836 61:0.226316 62:0.118165 63:0.224248 64:0.225938 65:0.095291 
1 1:1.186613 4:0.854244 5:0.83948 6:0.729038 7:0.965571 9:0.132975 18:0.284627 23:0.304452 28:0.173913 29:0.093865 30:0.364943 32:0.155921 35:0.105719 36:0.123833 39:0.189164 41:0.069155 43:0.090842 45:0.587396 47:0.578488 48:0.155921 49:0.544537 51:0.284769 55:0.221358 58:0.529879 59:0.13884 60:1.083612 61:0.08017 62:0.258062 63:0.083536 64:0.113302 65:0.000535 
0.6301551074369669 1:0.216312 4:0.453387 5:0.481858 6:0.527568 7:0.379896 9:0.329731 18:0.491737 23:0.069415 28:0.521739 29:0.344476 30:0.529384 32:0.537537 35:0.771482 36:0.671827 39:0.585073 41:0.35835 43:0.405988 45:0.318669 47:0.750745 48:0.537537 49:0.58573 51:0.746276 55:0.42871 58:0.710757 59:0.502776 60:0.294314 61:0.401178 62:0.518488 63:0.818917 64:0.796408 65:0.931144 
1 1:0.282801 4:0.240886 5:0.188544 6:0.202192 7:0.501893 9:0.560123 18:0.054763 23:0.467093 28:0.23913 29:0.188169 30:0.47317 32:0.296204 35:0.101835 36:0.121009 39:0.257102 41:0.123379 43:0.20669 45:0.239867 47:0.744152 48:0.296204 49:0.482917 51:0.28932 55:0.391329 58:0.668062 59:0.256021 60:0.207358 61:0.154587 62:0.213984 63:0.03577 64:0.2767 65:0.082079 
0.001027610604505749 1:0.331117 4:0.230276 5:0.224163 6:0.176335 7:0.971272 9:0.758853 18:0.093593 23:0.223707 28:0.391304 29:0.243283 30:0.354996 32:0.345734 35:0.120295 36:0.334391 39:0.432541 41:0.249902 43:0.247593 45:0.297907 47:0.826131 48:0.345734 49:0.368983 51:0.317691 55:0.410035 58:0.754144 59:0.301825 60:0.200669 61:0.081888 62:0.34725 63:0.251354 64:0.338325 65:0.082778 
0.5137787550281796 1:0.805408 4:0.783622 5:0.958436 6:0.462392 7:0.631125 9:-0.023506 18:0.464056 23:0.239779 28:0.26087 29:0.18331 30:0.470469 32:0.176485 35:0.26235 36:0.155119 39:0.274706 41:0.141454 43:0.107824 45:0.314936 47:0.622071 48:0.176485 49:0.436658 51:0.384785 55:0.291137 58:0.53987 59:0.145308 60:0.842809 61:0.17116 62:0.403017 63:0.295081 64:0.266353 65:0.037291 
1 1:0.218972 4:0.429342 5:0.451107 6:0.505444 7:0.386998 9:0.3886 18:0.406565 23:0.045947 28:0.26087 29:0.101395 30:0.126043 32:0.358287 35:0.353864 36:0.305654 39:0.311148 41:0.141454 43:0.257959 45:0.090848 47:1.02529 48:0.358287 49:0.223455 51:0.609498 55:0.625051 58:0.963271 59:0.313433 60:0.354515 61:0.484638 62:0.329896 63:0.282373 64:0.271139 65:0.109202 
1 1:0.417553 4:0.537207 5:0.538919 6:0.603521 7:0.526342 9:0.396433 18:0.300364 23:0.08592 28:0.369565 29:0.181839 30:0.237008 32:0.394457 35:0.28807 36:0.390897 39:-0.157058 41:0.231827 43:0.28783 45:0.214321 47:0.779294 48:0.394457 49:0.439639 51:0.353639 55:0.951412 58:0.704963 59:0.346883 60:0.451505 61:0.240871 62:0.438243 63:0.239258 64:0.293854 65:0.034708 
0.4402128474114619 1:0.605496 4:0.573779 5:0.568942 6:0.618767 7:0.822044 9:0.601692 18:0.27929 23:0.035026 28:0.173913 29:0.168881 30:1.035665 32:0.171055 35:0 36:0.153642 39:0.188759 41:0.069155 43:0.10334 45:0.196706 47:0.782809 48:0.171055 49:0.224017 51:0.360571 55:0.565059 58:0.708653 59:0.140287 60:0.481605 61:0.079247 62:0.097165 63:0.171711 64:0.237919 65:0.111699 
0.8606550431749509 1:0.418883 4:0.676052 5:0.661317 6:0.741496 7:0.465612 9:0.458739 18:0.554058 23:0.010569 28:0.23913 29:0.573588 30:1.215328 32:0.432282 35:0.263923 36:0.032232 39:0.28544 41:0.123379 43:0.319066 45:0.511425 47:0.757543 48:0.432282 49:0.264189 51:0.385794 55:0.634119 58:0.682123 59:0.381862 60:0.608696 61:0.393813 62:0.10633 63:0.921195 64:0.8999 65:1.871474 
0.009772002374773787 1:0.518174 4:0.691587 5:0.685917 6:0.751953 7:0.599185 9:0.658064 18:0.448051 23:0.05883 28:0.478261 29:0.470051 30:0.522697 32:0.647003 35:0.260174 36:0.352976 39:0.519885 41:0.3222 43:0.496387 45:0.427964 47:0.76357 48:0.647003 49:0.579023 51:0.422303 55:0.465378 58:0.688452 59:0.58043 60:0.591973 61:0.248012 62:0.343585 63:0.885985 64:0.864272 65:1.320384 
0.6499549036181613 1:0.20656 4:0.385131 5:0.407353 6:0.463007 7:0.429498 9:0.478045 18:0.37121 23:0.09813 28:0.217391 29:0.139083 30:0.698668 32:0.293443 35:0.275346 36:0.258351 39:0.272296 41:0.183165 43:0.27705 45:0.12396 47:0.976067 48:0.293443 49:0.158016 51:0.60174 55:0.643573 58:0.925894 59:0.259955 60:0.314381 61:0.455954 62:0.250817 63:0.470163 64:0.443514 65:0.428357 
1 1:0.339096 4:0.518346 5:0.539046 6:0.592066 7:0.450881 9:0.471633 18:0.536684 23:0.150163 28:0.173913 29:0.09375 30:0.678405 32:0.423998 35:0.257566 36:0.249298 39:0.186205 41:0.141454 43:0.401452 45:0.094587 47:0.948775 48:0.423998 49:0.324512 51:0.630986 55:0.885305 58:0.897235 59:0.382171 60:0.354515 61:0.247614 62:0.133949 63:0.211952 64:0.182237 65:0.054917 
1 1:0.156472 4:0.055102 5:-0.029608 6:-0.021959 7:0.717384 9:0.465528 18:-0.054453 23:0.992854 28:0.26087 29:0.112306 30:0.301788 32:0.106914 35:0.098341 36:0.303084 39:0.290095 41:0.224875 43:0.099311 45:0.10054 47:0.912981 48:0.106914 49:0.124262 51:0.29161 55:0.553721 58:0.85965 59:0.085341 60:0.050167 61:0.136222 62:0.201875 63:0.228719 64:0.266565 65:0.096061 
1 1:0.088209 4:0.274611 5:0.328386 6:0.342713 7:0.284663 9:0.31718 18:0.465322 23:0.095177 28:0.173913 29:0.084896 30:0.809393 32:0.225423 35:0.509976 36:0.286958 39:0.230556 41:0.141454 43:0.212236 45:0.07553 47:1.003902 48:0.225423 49:0.006174 51:0.903222 55:0.677764 58:0.955121 59:0.19628 60:0.180602 61:0.603243 62:0.258698 63:0.27045 64:0.24143 65:0.130727 
1 1:0.126773 4:0.24673 5:0.258891 6:0.288156 7:0.382108 9:0.484448 18:0.327653 23:0.143338 28:0.108696 29:0.0874 30:0.942542 32:0.272734 35:0.250505 36:0.167597 39:0.166273 41:0.078888 43:0.257317 45:0.081002 47:1.000996 48:0.272734 49:0.110403 51:0.715049 55:0.699785 58:0.95207 59:0.240569 60:0.147157 61:0.391618 62:0.162582 63:0.102248 64:0.152644 65:0.050684 
1 1:0.826241 4:0.6472 5:0.553595 6:0.623975 7:1.065304 9:1.073195 18:0.269007 23:0.020943 28:0.173913 29:0.094249 30:0.651981 32:0.092883 35:-0.029443 36:0.177297 39:0.193568 41:0.141454 43:0.085942 45:0.198181 47:0.807394 48:0.092883 49:0.185672 51:0.26863 55:0.515191 58:0.748778 59:0.072207 60:0.48495 61:-0.051225 62:0.057135 63:0.161651 64:0.170765 65:0.041116 
0.1927599414339026 1:0.524823 4:0.340078 5:0.432544 6:0.270224 7:0.691095 9:0.766721 18:0.275616 23:0.253507 28:0.369565 29:0.74984 30:0.823845 32:0.648194 35:0.092131 36:0.064572 39:0.380882 41:0.329152 43:0.615081 45:0.711555 47:0.622244 48:0.648194 49:0.621488 51:0.295856 55:0.486517 58:0.554362 59:0.592045 60:0.428094 61:0.104057 62:0.16915 63:0.976899 64:0.956265 65:1.353394 
1 1:0.791223 4:0.534739 5:0.52287 6:0.552588 7:1.020215 9:0.770248 18:0.149782 23:0.160244 28:0.086957 29:0.058206 30:0.719261 32:0.141672 35:-0.056218 36:0.072271 39:0.102976 41:0.058032 43:0.132432 45:0.281191 47:0.750419 48:0.141672 49:0.274461 51:0.227916 55:0.415807 58:0.688951 59:0.117879 60:0.595318 61:0.032266 62:0.063873 63:0.113362 64:0.087489 65:0.020713 
1 1:0.280585 4:0.308939 5:0.279638 6:0.315699 7:0.48378 9:0.505932 18:0.139486 23:0.108639 28:0.304348 29:0.222319 30:0.498807 32:0.28549 35:0.18138 36:0.262554 39:0.335656 41:0.266586 43:0.269471 45:0.215191 47:0.890302 48:0.28549 49:0.208692 51:0.462651 55:0.586353 58:0.835836 59:0.25251 60:0.200669 61:0.149296 62:0.278178 63:0.411527 64:0.384182 65:0.284587 
1 1:0.261525 4:0.266151 5:0.260404 6:0.298501 7:0.775643 9:0.839763 18:0.160423 23:0.195112 28:0.282609 29:0.368838 30:0.801095 32:-0.2783 35:0.078152 36:0.121982 39:0.31245 41:0.245731 43:-0.267747 45:0.375277 47:0.696152 48:-0.2783 49:0.070493 51:0.412487 55:0.41725 58:0.631969 59:-0.275265 60:0.180602 61:0.15187 62:0.077038 63:0.72055 64:0.696874 65:0.814821 
0.8351533844332164 1:0.187943 4:0.352737 5:0.408587 6:0.439722 7:0.352576 9:0.434216 18:0.487764 23:0.080557 28:0.217391 29:0.145706 30:0.933842 32:0.346323 35:0.434885 36:0.304295 39:0.273628 41:0.183165 43:0.327438 45:0.125693 47:0.937741 48:0.346323 49:0.1517 51:0.743955 55:0.633699 58:0.885649 59:0.309457 60:0.250836 61:0.403767 62:0.226872 63:0.34877 64:0.32068 65:0.160646 
1 1:0.249557 4:0.262606 5:0.22498 6:0.262778 7:0.732448 9:0.458161 18:0.129278 23:0.226923 28:0.347826 29:0.23415 30:0.668919 32:0.183678 35:0.253969 36:0.413997 39:0.40118 41:0.308297 43:0.172458 45:0.202685 47:0.88735 48:0.183678 49:0.050494 51:0.431638 55:0.525547 58:0.832735 59:0.157202 60:0.160535 61:0.143288 62:0.330097 63:0.273431 64:0.321983 65:0.077874 
1 1:0.22695 4:0.103289 5:0.020262 6:0.035238 7:0.788674 9:0.75943 18:-0.045597 23:0.708331 28:0.543478 29:0.209181 30:0.153946 32:0.299173 35:0.354034 36:0.823631 39:0.591336 41:0.495995 43:0.282509 45:0.189851 47:0.823289 48:0.299173 49:0.259677 51:0.259472 55:0.404331 58:0.765469 59:0.265319 60:0.137124 61:0.146833 62:0.681577 63:0.262253 64:0.417628 65:0.055986 
0.04878103752653239 1:0.430408 4:0.404322 5:0.41985 6:0.472299 7:0.803679 9:0.780954 18:0.244765 23:0.115437 28:0.26087 29:0.232363 30:0.517507 32:0.269202 35:0.045679 36:0.068805 39:0.280611 41:0.224875 43:0.253951 45:0.214189 47:0.838014 48:0.269202 49:0.147446 51:0.313781 55:0.681245 58:0.780931 59:0.237263 60:0.384615 61:0.160053 62:0.181153 63:0.332674 64:0.304393 65:0.114176 
0.4691746636924706 1:0.214539 4:0.347326 5:0.314807 6:0.360429 7:0.430364 9:0.349219 18:0.269645 23:0.079262 28:0.413043 29:0.271586 30:0.577627 32:0.30947 35:0.471724 36:0.503988 39:0.470279 41:0.342283 43:0.271578 45:0.264539 47:0.828098 48:0.30947 49:0.244891 51:0.635642 55:0.471799 58:0.770519 59:0.274958 60:0.180602 61:0.23392 62:0.562639 63:0.248839 64:0.42805 65:0.148151 
1 1:1.291667 4:0.975554 5:1.047971 6:0.351636 7:0.375252 9:0.00706 18:0.248803 23:0.443404 28:0.130435 29:0.07274 30:0.496176 32:0.034035 35:0.131938 36:0.097155 39:0.154186 41:0.081205 43:0.018845 45:0.677335 47:0.621325 48:0.034035 49:0.435642 51:0.400441 55:0.262982 58:0.553396 59:0.017118 60:1.441472 61:0.178861 62:0.141717 63:0.235426 64:0.214328 65:0.095028 
1 1:0.334663 4:0.203872 5:0.147512 6:0.156319 7:1.003171 9:0.777847 18:0.010477 23:0.547265 28:0.217391 29:0.143892 30:0.568086 32:0.297708 35:0.089717 36:0.177596 39:0.234205 41:0.161537 43:0.260785 45:0.164936 47:0.867012 48:0.297708 49:0.34038 51:0.33433 55:0.513767 58:0.81138 59:0.263948 60:0.204013 61:0.081507 62:0.204516 63:0.168358 64:0.179966 65:0.023303 
1 1:0.265071 4:0.283418 5:0.291283 6:0.337172 7:0.608575 9:0.766114 18:0.24214 23:0.021571 28:0.173913 29:0.112082 30:0.626846 32:0.310454 35:0.042055 36:0.169486 39:0.199997 41:0.121371 43:0.272481 45:0.086242 47:0.973355 48:0.310454 49:0.197282 51:0.260153 55:0.687688 58:0.923046 59:0.275879 60:0.264214 61:0.257823 62:0.090688 63:0.067756 64:0.241708 65:0.086454 
1 1:0.015957 4:-0.006861 5:-0.105623 6:-0.101847 7:-0.326677 9:-0.191512 18:-0.134557 23:1.594781 28:0.304348 29:0.094505 30:0.070101 32:-0.2783 35:1.034709 36:0.437033 39:0.325204 41:0.241869 43:-0.267747 45:0.088033 47:0.918578 48:-0.2783 49:1.006111 51:0.845133 55:0.507395 58:0.865527 59:-0.275265 60:0.083612 61:0.737954 62:0.420774 63:0.299619 64:0.278055 65:0.06901 
0.9866956416635888 1:0.197695 4:0.238613 5:0.275814 6:0.291985 7:0.60126 9:0.489726 18:0.233965 23:0.149791 28:0.347826 29:0.443138 30:0.633945 32:0.340657 35:0.262082 36:0.163123 39:0.385889 41:0.234943 43:0.261026 45:0.405702 47:0.784437 48:0.340657 49:0.431634 51:0.459923 55:0.531414 58:0.75329 59:0.318729 60:0.200669 61:0.300112 62:0.345687 63:0.386999 64:0.442822 65:0.281272 
1 1:0.355496 4:0.165792 5:-0.067257 6:-0.055802 7:-0.326677 9:-0.191512 18:-0.134557 23:0.871894 28:0.73913 29:0.574902 30:0.213064 32:-0.174981 35:0.431144 36:0.740705 39:0.748186 41:0.571506 43:-0.179482 45:0.555613 47:0.638853 48:-0.174981 49:0.929089 51:0.24143 55:0.186579 58:0.60042 59:-0.176113 60:0.257525 61:0.116715 62:0.794159 63:0.797455 64:0.774691 65:0.329094 
0.9286989187844496 1:1.640514 4:1.233785 5:1.362839 6:1.029357 7:0.998913 9:0.490049 18:0.394147 23:0.153211 28:0.369565 29:0.236789 30:0.384665 32:0.412619 35:0.090295 36:0.341263 39:0.378443 41:0.253641 43:0.322503 45:0.591421 47:0.631001 48:0.412619 49:0.62292 51:0.294336 55:0.278844 58:0.592175 59:0.387789 60:1.488294 61:0.059534 62:0.325198 63:0.429923 64:0.402796 65:0.144484 
1 1:0.436613 4:0.466488 5:0.428321 6:0.461571 7:0.739749 9:0.303117 18:0.18959 23:0.141463 28:0.26087 29:0.244393 30:0.705457 32:0.26355 35:0.114647 36:0.126377 39:0.283759 41:0.160152 43:0.195154 45:0.313113 47:0.734045 48:0.26355 49:0.264428 51:0.461198 55:0.524085 58:0.700376 59:0.244733 60:0.414716 61:0.181856 62:0.12384 63:0.512193 64:0.486042 65:0.422591 
1 1:0.196365 4:0.126294 5:0.083358 6:0.110663 7:0.925904 9:1.037337 18:0.01163 23:0.191227 28:0.282609 29:0.190195 30:0.435919 32:0.443292 35:0.038906 36:0.208566 39:0.330333 41:0.17885 43:0.348707 45:0.187216 47:0.855979 48:0.443292 49:0.43343 51:0.287305 55:0.535931 58:0.828413 59:0.417226 60:0.060201 61:0.080686 62:0.111545 63:0.510404 64:0.484233 65:0.303112 
0.01886202149844217 1:0.218528 4:0.443542 5:0.461765 6:0.504423 7:0.357867 9:0.349336 18:0.47223 23:0.072584 28:0.434783 29:0.318629 30:0.651641 32:0.679748 35:0.631986 36:0.517289 39:0.496849 41:0.309735 43:0.550711 45:0.298719 47:0.765173 48:0.679748 49:0.621844 51:0.74386 55:0.486311 58:0.733063 59:0.644145 60:0.294314 61:0.395921 62:0.395896 63:0.751849 64:0.728544 65:0.923988 
1 1:0.340869 4:0.237124 5:0.274443 6:0.228275 7:0.549464 9:0.328639 18:0.173872 23:0.385334 28:0.5 29:0.333196 30:0.162644 32:0.366008 35:0.378292 36:0.413024 39:0.530774 41:0.340275 43:0.264336 45:0.315528 47:0.769791 48:0.366008 49:0.433122 51:0.377141 55:0.403309 58:0.730757 59:0.339194 60:0.311037 61:0.195627 62:0.568319 63:0.439504 64:0.435274 65:0.17035 
0.5322029854851592 1:1.088209 4:1.148859 5:1.597288 6:0.786464 7:0.282579 9:0.024847 18:0.585238 23:0.321135 28:0.413043 29:0.512637 30:0.628037 32:0.666281 35:0.537917 36:0.175892 39:0.389947 41:0.267976 43:0.512308 45:0.720004 47:0.454771 48:0.666281 49:0.821731 51:0.517624 55:0.243558 58:0.39997 59:0.625556 60:1.876254 61:0.491608 62:0.418793 63:0.718315 64:0.694612 65:0.672139 
1 1:3.30984 4:1.958868 5:2.344392 6:0.810223 7:0.64369 9:0.297029 18:0.681729 23:0.238349 28:0.804348 29:0.893686 30:0.362764 32:0.901208 35:0.407656 36:0.657428 39:0.785018 41:0.59332 43:0.706315 45:0.996941 47:0.408873 48:0.901208 49:0.922604 51:0.306085 55:0.0931 58:0.351776 59:0.849599 60:3.297659 61:0.083331 62:0.706794 63:0.378951 64:0.726247 65:0.308179 
1 1:3.30984 4:1.958868 5:2.344392 6:0.810223 7:0.64369 9:0.297029 18:0.681729 23:0.238349 28:0.804348 29:0.893686 30:0.362764 32:0.901208 35:0.407656 36:0.657428 39:0.785018 41:0.59332 43:0.706315 45:0.996941 47:0.408873 48:0.901208 49:0.922604 51:0.306085 55:0.0931 58:0.351776 59:0.849599 60:3.297659 61:0.083331 62:0.706794 63:0.378951 64:0.726247 65:0.308179 
0.09907332833989359 1:0.609486 4:0.612844 5:0.65068 6:0.615982 7:0.691387 9:0.773795 18:0.46132 23:0.143207 28:0.76087 29:0.733359 30:0.207768 32:-0.2783 35:0.344279 36:0.614178 39:0.767392 41:0.748762 43:-0.267747 45:0.702311 47:0.52899 48:-0.2783 49:0.457848 51:0.382975 55:0.272707 58:0.477904 59:-0.275265 60:0.468227 61:0.066248 62:0.571276 63:0.986586 64:0.966068 65:1.05288 
1 1:0.237145 4:0.153553 5:0.129616 6:0.140674 7:1.197956 9:0.474079 18:-0.016681 23:0.31091 28:0.369565 29:0.412874 30:0.444677 32:0.211508 35:0.311325 36:0.024286 39:0.404099 41:0.35835 43:0.217645 45:0.340129 47:0.664395 48:0.211508 49:0.282234 51:0.27395 55:0.457556 58:0.620086 59:0.191851 60:0.090301 61:0.063459 62:0.580342 63:0.139295 64:0.278365 65:0.025003 
0.2860941832750976 1:1.382092 4:0.957929 5:1.43025 6:0.245338 7:0.613762 9:0.306726 18:0.308119 23:0.155089 28:0.73913 29:0.561662 30:0.123094 32:0.735697 35:0.453867 36:0.697744 39:0.699345 41:0.727073 43:0.737109 45:0.548286 47:0.583653 48:0.735697 49:0.848939 51:0.399783 55:0.350187 58:0.535303 59:0.691756 60:1.58194 61:0.190626 62:0.790925 63:0.820833 64:0.798347 65:0.598543 
1 1:0.159574 4:0.133665 5:0.164849 6:0.131552 7:0.574927 9:0.655996 18:0.08655 23:0.4989 28:0.282609 29:0.312164 30:0.677265 32:0.473419 35:0.216671 36:0.12392 39:0.322072 41:0.245731 43:0.448544 45:0.292252 47:0.642873 48:0.473419 49:0.587611 51:0.316534 55:0.486205 58:0.647569 59:0.474428 60:0.123746 61:0.259591 62:0.310607 63:0.298022 64:0.26933 65:0.085012 
1 1:0.195479 4:0.170991 5:0.230077 6:0.201357 7:0.589978 9:0.489964 18:0.13189 23:0.30786 28:0.347826 29:0.407881 30:0.611723 32:0.288041 35:0.273243 36:0.11906 39:0.315689 41:0.257648 43:0.233356 45:0.358059 47:0.47144 48:0.288041 49:0.678201 51:0.262879 55:0.390193 58:0.517637 59:0.316629 60:0.173913 61:0.262621 62:0.376759 63:0.42724 64:0.411844 65:0.27687 
0.8375868708900564 1:1.445922 4:1.28134 5:1.503833 6:1.251949 7:0.635979 9:0.296505 18:0.682534 23:0.335233 28:0.630435 29:0.626548 30:0.399666 32:0.573762 35:0.350704 36:0.521598 39:0.635037 41:0.509402 43:0.486164 45:0.675529 47:0.305739 48:0.573762 49:0.929852 51:0.241632 55:0.024262 58:0.343643 59:0.615243 60:1.591973 61:0.166221 62:0.541345 63:0.932932 64:0.917329 65:1.351911 
0.5137741954975162 1:0.496897 4:0.351819 5:0.40323 6:0.396615 7:1.208291 9:1.020467 18:0.148917 23:0.167723 28:0.413043 29:0.280921 30:0.316154 32:0.47427 35:0.090839 36:0.351488 39:0.385901 41:0.315745 43:0.398133 45:0.769414 47:0.444243 48:0.47427 49:0.86182 51:0.13414 55:0.150403 58:0.489079 59:0.511261 60:0.307692 61:0.025554 62:0.349972 63:0.263436 64:0.388413 65:0.092851 
1 1:0.397606 4:0.531457 5:0.52399 6:0.567172 7:0.516756 9:0.391647 18:0.34672 23:0.077545 28:0.23913 29:0.195836 30:0.726308 32:0.367975 35:0.204825 36:0.211805 39:0.281118 41:0.075728 43:0.217441 45:0.192785 47:0.837429 48:0.367975 49:0.345949 51:0.521634 55:0.607581 58:0.780316 59:0.329726 60:0.438127 61:0.253924 62:0.272568 63:0.228719 64:0.227241 65:0.076866 
0.00305822153647345 1:1.704787 4:1.013936 5:1.244404 6:1.033746 7:0.77177 9:0.490883 18:0.06559 23:0.19978 28:1 29:1.16523 30:0.29348 32:0.728042 35:0.527947 36:0.875271 39:0.976716 41:0.650831 43:0.48776 45:1.094561 47:0.448363 48:0.728042 49:0.924188 51:0.245756 55:-0.108005 58:0.371778 59:0.666792 60:1.652174 61:0.090314 62:1.063165 63:0.930696 64:0.909515 65:0.476095 
0.3677700853155075 1:1.704787 4:1.013936 5:1.244404 6:1.033746 7:0.77177 9:0.490883 18:0.06559 23:0.19978 28:1 29:1.16523 30:0.29348 32:0.728042 35:0.527947 36:0.875271 39:0.976716 41:0.650831 43:0.48776 45:1.094561 47:0.448363 48:0.728042 49:0.924188 51:0.245756 55:-0.108005 58:0.371778 59:0.666792 60:1.652174 61:0.090314 62:1.063165 63:0.930696 64:0.909515 65:0.476095 
1 1:0.334663 4:0.65443 5:0.643612 6:0.700884 7:0.393634 9:0.306621 18:0.627989 23:0.100734 28:0.23913 29:0.130559 30:0.571056 32:-0.054269 35:0.427608 36:0.258428 39:0.290827 41:0.075728 43:-0.099557 45:0.112994 47:0.973241 48:-0.054269 49:-0.222469 51:0.6961 55:0.633133 58:0.922926 59:-0.065545 60:0.571906 61:0.504014 62:0.320109 63:0.196526 64:0.250166 65:0.057846 
0.02100570845178437 1:0.77305 4:0.627871 5:0.679015 6:0.658672 7:0.887463 9:0.901473 18:0.408655 23:0.156232 28:1.434783 29:1.422626 30:-0.173082 32:1.452015 35:0.570899 36:1.347748 39:1.416608 41:0.979461 43:1.031281 45:1.318373 47:0.463126 48:1.452015 49:0.998882 51:0.199585 55:-0.133178 58:0.38728 59:1.344518 60:0.625418 61:0.061357 62:1.091154 63:1.267433 64:1.266855 65:1.252523 
0.05463909879399101 1:0.224291 4:0.323205 5:0.399924 6:0.36316 7:0.452618 9:0.396042 18:0.385386 23:0.330747 28:0.826087 29:0.733902 30:0.23396 32:0.888056 35:0.874467 36:0.831276 39:0.882533 41:0.519378 43:0.60789 45:0.662339 47:0.629304 48:0.888056 49:0.77291 51:0.588944 55:0.233694 58:0.561774 59:0.816584 60:0.274247 61:0.353016 62:0.963611 63:0.734905 64:0.740124 65:0.39213 
0.7697333958001476 1:0.974734 4:0.847334 5:0.766029 6:0.847217 7:0.951959 9:0.985547 18:0.41704 23:0.040581 28:1.543478 29:1.218316 30:-0.294328 32:1.259366 35:0.588263 36:1.760321 39:1.482803 41:1.061618 43:0.88665 45:1.168932 47:0.400582 48:1.259366 49:0.99592 51:0.112493 55:-0.191919 58:0.321606 59:1.164175 60:0.765886 61:0.03027 62:1.368071 63:1.254858 64:1.245262 65:0.695634 
0.391798486437751 1:1.040337 4:0.786455 5:0.725615 6:0.738283 7:1.087112 9:0.844058 18:0.356403 23:0.113178 28:1.26087 29:1.544843 30:-0.059205 32:1.195958 35:0.379751 36:0.819002 39:1.215123 41:0.848009 43:0.839047 45:1.547624 47:0.378984 48:1.195958 49:0.987264 51:0.212794 55:-0.092222 58:0.298927 59:1.104818 60:0.70903 61:-0.026649 62:1.002687 63:1.139093 64:1.120385 65:0.708109 
0.7333008357137453 1:1.630762 4:1.064192 5:1.092941 6:0.449202 7:0.724498 9:0.62487 18:0.131254 23:0.22965 28:1.065217 29:0.881505 30:0.113637 32:1.091005 35:0.486073 36:1.168716 39:1.021156 41:0.700125 43:0.760254 45:0.891373 47:0.496749 48:1.091005 49:0.971551 51:0.294966 55:-0.023184 58:0.422586 59:1.006569 60:1.421405 61:0.041167 62:1.167034 63:0.862253 64:0.878495 65:0.355393 
1 1:0.507092 4:0.863372 5:0.86653 6:0.93873 7:0.427999 9:-0.034286 18:0.668098 23:0.10326 28:0.673913 29:0.680169 30:0.577807 32:0.735442 35:0.613784 36:0.67373 39:0.705088 41:0.404358 43:0.493316 45:1.775046 47:0.067908 48:0.735442 49:0.953831 51:0.269038 55:0.621567 58:-0.027718 59:0.67372 60:0.765886 61:0.409347 62:0.728167 63:1.1319 64:1.113107 65:1.745193 
0.06926217397397244 1:0.482713 4:0.615234 5:0.602192 6:0.649134 7:0.602423 9:0.623926 18:0.467309 23:0.088404 28:1.043478 29:0.976041 30:0.137976 32:1.365619 35:0.670488 36:1.055327 39:1.092374 41:0.683694 43:0.966419 45:0.906811 47:0.582659 48:1.365619 49:0.996968 51:0.437464 55:0.075429 58:0.512796 59:1.263641 60:0.451505 61:0.165015 62:0.765488 63:1.144196 64:1.128295 65:1.416752 
1 1:0.135638 4:0.133665 5:0.156383 6:0.164071 7:0.760864 9:0.425787 18:0.079053 23:0.607491 28:0.673913 29:0.902659 30:0.149688 32:0.978445 35:0.530285 36:0.196119 39:0.674824 41:0.404358 43:0.675749 45:1.233435 47:0.589039 48:0.978445 49:0.836463 51:0.398924 55:1.213949 58:0.519495 59:0.901199 60:0.12709 61:0.327038 62:0.614151 63:0.859157 64:0.851668 65:0.919511 
0.2390664224221565 1:0.936613 4:0.869467 5:0.846025 6:0.919654 7:0.857578 9:0.946949 18:0.48161 23:0.07347 28:1.369565 29:1.558501 30:-0.126223 32:1.409687 35:0.442021 36:1.073867 39:1.355095 41:1.167836 43:1.225798 45:1.448814 47:0.380483 48:1.409687 49:0.996373 51:0.228139 55:-0.09488 58:0.3005 59:1.304894 60:0.779264 61:0.056163 62:0.997199 63:1.310748 64:1.294078 65:1.297627 
0.9124127997865748 1:0.153812 4:0.235864 5:0.247354 6:0.288855 7:0.585808 9:0.573302 18:0.205687 23:0.069836 28:0.826087 29:0.706309 30:0.140622 32:0.613652 35:0.60306 36:0.753725 39:0.842066 41:0.683694 43:0.521459 45:1.098417 47:0.29733 48:0.613652 49:0.958669 51:0.198807 55:0.780365 58:0.213186 59:0.559709 60:0.147157 61:0.315426 62:0.796346 63:0.977441 64:0.956814 65:0.840833 
1 1:0.21055 4:0.204021 5:0.302937 6:0.21506 7:0.49463 9:0.53912 18:0.258629 23:0.376552 28:0.304348 29:0.130067 30:0.174157 32:0.368859 35:0.347973 36:0.353427 39:0.326671 41:0.218917 43:0.304864 45:0.174835 47:0.76357 48:0.368859 49:0.577104 51:0.455988 55:0.418785 58:0.702761 59:0.330554 60:0.264214 61:0.369257 62:0.350484 63:0.347525 64:0.31942 65:0.131823 
0.281945186513957 1:0.418883 4:0.399922 5:0.519751 6:0.403401 7:0.31023 9:0.394349 18:0.398861 23:0.593631 28:0.543478 29:0.453701 30:0.24514 32:0.667171 35:0.552399 36:0.386695 39:0.568078 41:0.431939 43:0.568813 45:0.41247 47:0.720855 48:0.667171 49:0.743442 51:0.452361 55:0.415076 58:0.657908 59:0.60981 60:0.511706 61:0.298385 62:0.766373 63:0.201892 64:0.41336 65:0.079315 
1 1:0.219858 4:0.316681 5:0.313633 6:0.321646 7:0.451854 9:0.494136 18:0.248634 23:0.238482 28:0.217391 29:0.092448 30:0.351369 32:0.311999 35:0.305211 36:0.279902 39:0.210398 41:0.141454 43:0.254554 45:0.133519 47:0.73832 48:0.311999 49:0.603162 51:0.446282 55:0.424549 58:0.676247 59:0.277325 60:0.250836 61:0.328117 62:0.247337 63:0.220039 64:0.217536 65:0.070616 
0.2198434419770694 1:1.930408 4:1.147545 5:1.672552 6:0.401487 7:0.613295 9:0.028106 18:0.593652 23:0.314373 28:0.717391 29:0.661021 30:0.253563 32:0.506678 35:0.42959 36:0.565224 39:0.693843 41:0.623445 43:0.452532 45:0.603739 47:0.535534 48:0.506678 49:0.707269 51:0.296742 55:0.104917 58:0.506239 59:0.487652 60:1.745819 61:0.050766 62:0.952406 63:0.473996 64:0.565785 65:0.085217 
1 1:1.930408 4:1.147545 5:1.672552 6:0.401487 7:0.613295 9:0.028106 18:0.593652 23:0.314373 28:0.717391 29:0.661021 30:0.253563 32:0.506678 35:0.42959 36:0.565224 39:0.693843 41:0.623445 43:0.452532 45:0.603739 47:0.535534 48:0.506678 49:0.707269 51:0.296742 55:0.104917 58:0.506239 59:0.487652 60:1.745819 61:0.050766 62:0.952406 63:0.473996 64:0.565785 65:0.085217 
0.2510715024659061 1:1.312943 4:0.787823 5:0.996291 6:0.326576 7:0.980817 9:0.61933 18:0.325317 23:0.159496 28:0.5 29:0.354703 30:0.560093 32:0.348983 35:0.254782 36:0.554226 39:0.495424 41:0.422615 43:0.307835 45:0.727756 47:0.484215 48:0.348983 49:0.534019 51:0.218624 55:0.298251 58:0.452352 59:0.334389 60:1.180602 61:0.067053 62:0.670356 63:0.792089 64:0.769262 65:0.400602 
1 1:0.128103 4:0.181425 5:0.230287 6:0.236195 7:0.480677 9:0.612362 18:0.243502 23:0.156473 28:0.586957 29:0.341628 30:0.411771 32:0.587793 35:0.605689 36:0.782188 39:0.524781 41:0.502947 43:0.526962 45:0.255931 47:0.705917 48:0.587793 49:0.680142 51:0.412886 55:0.621398 58:0.68515 59:0.566487 60:0.117057 61:0.328934 62:0.600687 63:0.676584 64:0.652385 65:0.371492 
0.1824851583978216 1:0.324468 4:0.413879 5:0.463109 6:0.44307 7:0.5308 9:0.566744 18:0.386209 23:0.302479 28:0.891304 29:0.693865 30:0.098126 32:0.917676 35:0.794818 36:0.902008 39:0.926848 41:0.741791 43:0.790462 45:1.210626 47:0.277641 48:0.917676 49:0.9789 51:0.272219 55:0.779691 58:0.292676 59:0.949507 60:0.337793 61:0.250703 62:1.008182 63:0.869218 64:0.847306 65:0.446811 
0.5681537733889802 1:0.179965 4:0.301095 5:0.366369 6:0.400861 7:0.53721 9:0.315779 18:0.333196 23:0.131639 28:0.826087 29:0.86467 30:0.155171 32:1.035225 35:0.866961 36:0.533444 39:0.811454 41:0.611395 43:0.816989 45:1.439102 47:0.386555 48:1.035225 49:0.9641 51:0.387896 55:0.171653 58:0.314031 59:0.961943 60:0.234114 61:0.39712 62:0.772299 63:0.945004 64:0.923992 65:1.048663 
0.614769065194035 1:1.257979 4:0.813558 5:0.675929 6:0.746968 7:1.322978 9:1.506175 18:0.277298 23:0.049314 28:0.673913 29:0.807142 30:0.281348 32:0.091018 35:0.3146 36:0.255829 39:0.67768 41:0.484872 43:0.037244 45:0.620887 47:0.548412 48:0.091018 49:0.273076 51:0.098617 55:0.034032 58:0.483988 59:0.072596 60:0.682274 61:-0.112391 62:1.313145 63:0.502356 64:0.668836 65:0.300829 
0.5871309530116184 1:1.932181 4:1.342051 5:1.247291 6:1.341478 7:0.995746 9:0.306163 18:0.410772 23:0.127222 28:0.956522 29:0.993437 30:0.169698 32:0.822355 35:0.308357 36:0.784719 39:0.895268 41:0.719843 43:0.641197 45:1.092006 47:0.409919 48:0.822355 49:0.938124 51:0.21672 55:-0.076447 58:0.338564 59:0.761441 60:1.655518 61:0.025432 62:0.878164 63:0.965508 64:0.944739 65:0.522768 
0.910216419062682 1:1.034574 4:0.988719 5:0.892994 6:0.993701 7:0.934811 9:0.92896 18:0.510363 23:0.002691 28:1.043478 29:0.821333 30:0.272915 32:-0.2783 35:0.451388 36:1.352894 39:1.105471 41:0.792141 43:-0.267747 45:0.873432 47:0.471093 48:-0.2783 49:0.226409 51:0.331049 55:0.003787 58:0.4028 59:-0.275265 60:0.645485 61:-0.054833 62:0.812803 63:0.642863 64:0.809925 65:0.268549 
0.4584938968247391 1:0.564716 4:0.684935 5:0.688492 6:0.732302 7:0.50951 9:0.563204 18:0.535105 23:0.06083 28:0.869565 29:0.815821 30:0.425246 32:0.639765 35:0.627415 36:0.904433 39:0.91433 41:0.647544 43:0.49041 45:0.740958 47:0.552144 48:0.639765 49:0.634758 51:0.393241 55:0.20609 58:0.487908 59:0.589459 60:0.61204 61:0.215251 62:1.041224 63:1.119381 64:1.143646 65:1.776067 
0.7192529206996688 1:0.74734 4:0.587684 5:0.713241 6:0.565463 7:0.817633 9:0.785923 18:0.456934 23:0.202237 28:1.195652 29:1.43015 30:0.046088 32:1.338911 35:0.465803 36:0.934941 39:1.215383 41:1.182554 43:1.334886 45:1.349994 47:0.420068 48:1.338911 49:0.996145 51:0.260526 55:-0.014472 58:0.349222 59:1.247985 60:0.638796 61:0.086048 62:0.773026 63:1.324162 64:1.307651 65:1.862486 
0.1707378978757236 1:0.73094 4:0.919962 5:0.94659 6:0.870057 7:0.590232 9:0.071176 18:0.741245 23:0.202412 28:0.804348 29:0.904943 30:0.18946 32:0.992707 35:0.556624 36:0.559153 39:0.833276 41:0.792141 43:0.991802 45:0.815492 47:0.5871 48:0.992707 49:0.89024 51:0.566719 55:0.26827 58:0.524613 59:0.921895 60:0.923077 61:0.279754 62:0.575675 63:1.030851 64:1.010858 65:1.507775 
0.4752605286509883 1:0.70523 4:0.71676 5:0.747461 6:0.756286 7:0.750247 9:0.730711 18:0.480231 23:0.109599 28:1.326087 29:1.301268 30:-0.037483 32:1.497255 35:0.65296 36:1.334821 39:1.358009 41:1.312692 43:1.491801 45:1.242834 47:0.413459 48:1.497255 49:0.988888 51:0.33354 55:-0.100764 58:0.342282 59:1.397128 60:0.605351 61:0.093006 62:1.020908 63:1.274979 64:1.257884 65:1.34895 
1 1:0.802305 4:0.718222 5:0.709976 6:0.774575 7:0.937965 9:0.952326 18:0.347554 23:0.090978 28:1.217391 29:1.146951 30:-0.097777 32:-0.2783 35:0.41499 36:1.134459 39:1.190491 41:1.204244 43:-0.267747 45:1.07416 47:0.415605 48:-0.2783 49:0.552437 51:0.205103 55:-0.053135 58:0.344535 59:-0.275265 60:0.652174 61:0.059846 62:1.006249 63:0.900889 64:1.066493 65:0.775662 
1 1:0.453014 4:0.719683 5:0.661159 6:0.726243 7:0.482069 9:0.299254 18:0.499282 23:0.146284 28:0.282609 29:0.139209 30:0.258286 32:0.395186 35:0.412315 36:0.281052 39:0.331874 41:0.271591 43:0.399668 45:0.127266 47:0.921255 48:0.395186 49:0.345161 51:0.639134 55:0.594684 58:0.875492 59:0.359091 60:0.555184 61:0.294028 62:0.427286 63:0.318143 64:0.289689 65:0.085513 
1 1:0.273493 4:0.341946 5:0.389154 6:0.380182 7:0.56054 9:0.382631 18:0.2283 23:0.468012 28:0.173913 29:0.095636 30:0.270659 32:0.26253 35:0.173009 36:0.13182 39:0.190038 41:0.163143 43:0.268207 45:0.121373 47:0.776122 48:0.26253 49:0.517959 51:0.456063 55:0.466133 58:0.723095 59:0.234142 60:0.297659 61:0.286779 62:0.117585 63:0.201892 64:0.203933 65:0.095476 
1 1:0.218528 4:0.097942 5:-0.010514 6:0.006883 7:0.893144 9:0.748402 18:-0.046474 23:0.620457 28:0.826087 29:0.406861 30:-0.040187 32:0.617131 35:0.437761 36:1.103013 39:0.851641 41:0.813831 43:0.619611 45:0.356327 47:0.684613 48:0.617131 49:0.695052 51:0.211009 55:0.184215 58:0.669934 59:0.600579 60:0.050167 61:0.031477 62:0.856919 63:0.678074 64:0.679342 65:0.238805 
0.6710251942417433 1:1.278369 4:0.820259 5:0.734322 6:0.818716 7:1.398416 9:1.555649 18:0.272296 23:0.043133 28:0.804348 29:0.380425 30:0.347313 32:0.408242 35:0.20174 36:1.310584 39:0.79334 41:0.792141 43:0.412606 45:0.656774 47:0.443544 48:0.408242 49:0.793024 51:0.082281 55:-0.130633 58:0.416799 59:0.396259 60:0.67893 61:-0.119438 62:0.854166 63:0.3092 64:0.662204 65:0.148155 
0.7881407999569762 1:0.467199 4:0.256032 5:0.181377 6:0.211237 7:1.170482 9:0.715124 18:-0.00183 23:0.122237 28:0.173913 29:0.132848 30:0.792543 32:0.043137 35:-0.076952 36:0.169758 39:0.203333 41:0.163143 43:0.050792 45:0.153621 47:0.830246 48:0.043137 49:0.047075 51:0.135199 55:0.516987 58:0.822855 59:0.03914 60:0.207358 61:-0.040302 62:0.132992 63:-0.039553 64:0.151829 65:0.044536 
1 1:0.551862 4:0.252466 5:0.108938 6:0.137251 7:1.238277 9:1.388211 18:-0.036696 23:0.286716 28:0.434783 29:0.399483 30:0.514302 32:0.06883 35:0.028069 36:0.284317 39:0.441209 41:0.423418 43:0.076253 45:0.403465 47:0.578327 48:0.06883 49:0.338477 51:0.055058 55:0.311047 58:0.558329 59:0.064271 60:0.217391 61:-0.088328 62:0.474314 63:-0.097678 64:0.351185 65:0.200512 
0.3198507378269496 1:1.336436 4:1.048048 5:0.999077 6:1.090872 7:1.136781 9:1.167344 18:0.493638 23:0.03161 28:1.108696 29:1.154827 30:-0.08072 32:0.993233 35:0.220496 36:0.761483 39:1.058833 41:1.038235 43:0.943859 45:1.17142 47:0.364317 48:0.993233 49:0.970299 51:0.153935 55:0.016667 58:0.38369 59:1.026884 60:1.010033 61:-0.0076 62:0.799554 63:0.977892 64:1.026093 65:0.812823 
0.1357099513439593 1:0.660461 4:0.598503 5:0.638649 6:0.596075 7:0.764836 9:0.601637 18:0.345904 23:0.250274 28:1.021739 29:0.890272 30:0.362494 32:0.983746 35:0.570093 36:1.279931 39:1.049532 41:0.954813 43:0.934819 45:0.881792 47:0.417369 48:0.983746 49:0.882117 51:0.317627 55:0.081749 58:0.439396 59:1.017168 60:0.531773 61:0.074666 62:1.17087 63:1.192581 64:1.174508 65:1.666516 
0.0953640993475471 1:1.390071 4:1.185662 5:1.140117 6:1.144407 7:0.885131 9:0.795632 18:0.153805 23:0.151129 28:0.847826 29:0.624263 30:0.278635 32:0.944002 35:0.363388 36:1.015141 39:0.877749 41:0.78797 43:0.896948 45:0.638985 47:0.510691 48:0.944002 49:0.929891 51:0.313063 55:0.148874 58:0.537389 59:0.976468 60:1.197324 61:0.044327 62:0.708815 63:0.668684 64:0.776166 65:0.390592 
1 1:0.010638 4:0.323846 5:0.372492 6:0.416579 7:0.066181 9:0.082894 18:0.462242 23:0.281579 28:0.043478 29:0.019873 30:0.324052 32:0.110102 35:0.704208 36:0.064275 39:0.096896 41:0.016322 43:0.10235 45:0.013261 47:0.877697 48:0.110102 49:0.27849 51:1.062274 55:0.703761 58:0.922763 59:0.122489 60:0.217391 61:1.206105 62:0.181308 63:-0.044918 64:0.026314 65:0.011556 
0.1213392144071123 1:0.640071 4:0.616184 5:0.562916 6:0.570501 7:0.637936 9:0.615088 18:0.345049 23:0.15044 28:0.782609 29:0.449259 30:0.099679 32:-0.2783 35:0.439044 36:0.990291 39:0.810752 41:0.725404 43:-0.267747 45:0.414491 47:0.604777 48:-0.2783 49:0.161934 51:0.267847 55:0.239039 58:0.636184 59:-0.275265 60:0.525084 61:0.084815 62:0.898667 63:0.896045 64:0.874451 65:0.694958 
0.3315015259877321 1:1.106383 4:0.871689 5:0.780487 6:0.872153 7:1.072573 9:1.225536 18:0.400611 23:0.008956 28:1.043478 29:0.800113 30:-0.193789 32:1.069975 35:0.166079 36:0.989938 39:1.019169 41:0.975669 43:1.016984 45:0.779479 47:0.506449 48:1.069975 49:0.988057 51:0.129215 55:0.091323 58:0.532935 59:1.105474 60:0.799331 61:-0.011131 62:0.671996 63:0.937272 64:0.920502 65:0.688992 
0.3996901474975836 1:1.534131 4:1.381903 5:1.424242 6:1.323059 7:0.776363 9:0.721179 18:0.492826 23:0.075506 28:0.73913 29:0.814521 30:0.346974 32:0.563809 35:0.446372 36:0.542051 39:0.758484 41:0.683694 43:0.534673 45:0.698002 47:0.502773 48:0.563809 49:0.636582 51:0.316545 55:0.263697 58:0.529075 59:0.58712 60:1.411371 61:0.06947 62:1.050701 63:0.161651 64:0.550677 65:0.269328 
0.2988140427318274 1:1.29078 4:1.077186 5:1.025593 6:1.095076 7:1.103219 9:0.587533 18:0.450174 23:0.124018 28:0.326087 29:0.322777 30:0.955831 32:0.169045 35:0.260772 36:0.305341 39:0.346308 41:0.287441 43:0.158514 45:0.312703 47:0.648159 48:0.169045 49:0.327841 51:0.286785 55:0.391093 58:0.681738 59:0.182851 60:1.020067 61:0.01233 62:0.624359 63:0.057323 64:0.225367 65:0.041471 
1 1:1.139184 4:1.400946 5:1.451225 6:0.584126 7:0.506669 9:0.037943 18:1.022016 23:0.155354 28:0.434783 29:0.370676 30:0.386095 32:0.477089 35:0.470366 36:0.303129 39:0.463943 41:0.391718 43:0.452041 45:0.375898 47:0.570944 48:0.477089 49:0.632032 51:0.600966 55:0.742107 58:0.600657 59:0.498313 60:1.628763 61:0.342859 62:0.460727 63:0.543433 64:0.517654 65:0.399656 
0.2297812507955766 1:1.8125 4:1.414398 5:1.274698 6:1.369621 7:0.905878 9:0.775011 18:0.29954 23:0.094215 28:0.826087 29:0.902578 30:0.264432 32:0.770585 35:0.375592 36:0.649854 39:0.797932 41:0.767115 43:0.731704 45:0.814931 47:0.467679 48:0.770585 49:0.886406 51:0.266055 55:0.171731 58:0.492225 59:0.798875 60:1.662207 61:0.06019 62:0.672015 63:0.609012 64:0.755478 65:0.413993 
0.001755393890065907 1:1.8125 4:1.414398 5:1.274698 6:1.369621 7:0.905878 9:0.775011 18:0.29954 23:0.094215 28:0.826087 29:0.902578 30:0.264432 32:0.770585 35:0.375592 36:0.649854 39:0.797932 41:0.767115 43:0.731704 45:0.814931 47:0.467679 48:0.770585 49:0.886406 51:0.266055 55:0.171731 58:0.492225 59:0.798875 60:1.662207 61:0.06019 62:0.672015 63:0.609012 64:0.755478 65:0.413993 
1 1:0.214539 4:0.299305 5:0.321166 6:0.363177 7:0.581783 9:0.656871 18:0.280315 23:0.070053 28:0.195652 29:0.085044 30:0.413072 32:0.36266 35:0.238544 36:0.253905 39:0.231282 41:0.104058 43:0.279823 45:0.086674 47:0.947536 48:0.36266 49:0.315036 51:0.550742 55:0.620346 58:0.888779 59:0.321092 60:0.19398 61:0.254097 62:0.271738 63:0.231543 64:0.202061 65:0.057076 
0.8349615078047823 1:1.028812 4:0.836399 5:0.760742 6:0.829869 7:1.094554 9:0.825168 18:0.301701 23:0.196624 28:0.195652 29:0.127758 30:0.606496 32:0.149517 35:0.043806 36:0.152621 39:0.215949 41:0.104058 43:0.097736 45:0.313167 47:0.709188 48:0.149517 49:0.27133 51:0.264896 55:0.317728 58:0.638503 59:0.122781 60:0.70903 61:-0.021924 62:0.203343 63:-0.049986 64:0.141612 65:0.043699 
0.3536507306073105 1:1.386525 4:0.893905 5:0.773682 6:0.865867 7:1.40729 9:1.568385 18:0.300746 23:-0.012505 28:0.521739 29:0.559409 30:0.270285 32:0.012524 35:0.203184 36:0.130881 39:0.522003 41:0.384527 43:-0.019297 45:0.626202 47:0.514292 48:0.012524 49:0.358947 51:0.14051 55:-0.019621 58:0.433852 59:-0.004679 60:0.662207 61:-0.153348 62:1.030826 63:-0.05632 64:0.515666 65:0.472657 
1 1:0.153812 4:0.145955 5:0.1862 6:0.183888 7:0.51104 9:0.461537 18:0.129182 23:0.54953 28:0.26087 29:0.235632 30:0.467137 32:0.410493 35:0.285953 36:0.081049 39:0.264529 41:0.160152 43:0.320687 45:0.290147 47:0.647253 48:0.410493 49:0.714409 51:0.376843 55:0.225788 58:0.573468 59:0.365596 60:0.197324 61:0.40533 62:0.285494 63:0.30622 64:0.277624 65:0.102468 
0.3274428774772258 1:0.592642 4:0.716101 5:0.674981 6:0.741891 7:0.587733 9:0.686844 18:0.492227 23:0.026524 28:0.978261 29:0.620149 30:0.124863 32:-0.2783 35:0.671715 36:1.265709 39:1.027522 41:0.777183 43:-0.267747 45:0.576953 47:0.616478 48:-0.2783 49:0.135836 51:0.463159 55:0.122825 58:0.541153 59:-0.275265 60:0.501672 61:0.104561 62:0.86562 63:0.899398 64:0.896377 65:0.538564 
0.6212004641264677 1:0.421986 4:0.287218 5:0.55095 6:0.057772 7:0.553732 9:0.624081 18:0.369973 23:0.29885 28:1.130435 29:0.906039 30:-0.077336 32:1.137345 35:0.854798 36:1.181244 39:1.150439 41:1.117485 43:1.135136 45:0.836842 47:0.518545 48:1.137345 49:0.988888 51:0.370459 55:-0.052285 58:0.438318 59:1.041868 60:0.414716 61:0.199174 62:1.328216 63:1.114015 64:1.09501 65:1.033797 
1 1:0.12367 4:0.225342 5:0.26099 6:0.272577 7:0.387887 9:0.439368 18:0.278144 23:0.383644 28:0.5 29:0.34556 30:0.291179 32:0.677081 35:0.609227 36:0.515759 39:0.555961 41:0.488487 43:0.679021 45:0.313635 47:0.811265 48:0.677081 49:0.609497 51:0.621391 55:0.457199 58:0.745688 59:0.613633 60:0.150502 61:0.407873 62:0.643447 63:0.577855 64:0.552485 65:0.394906 
0.2597195760108211 1:1.035461 4:0.821806 5:1.03703 6:0.506578 7:0.695122 9:0.080307 18:0.244884 23:0.297366 28:0.782609 29:1.073527 30:0.382529 32:0.628132 35:0.584611 36:0.486411 39:0.784099 41:0.770452 43:0.630514 45:1.006207 47:0.449391 48:0.628132 49:0.720011 51:0.479324 55:0.195338 58:0.365702 59:0.56809 60:1.301003 61:0.259591 62:0.747224 63:1.077128 64:1.057684 65:1.341341 
1 1:0.320479 4:0.378917 5:0.369488 6:0.375762 7:0.610938 9:0.61665 18:0.226569 23:0.23495 28:0.108696 29:0.065924 30:0.350741 32:0.217074 35:0.109331 36:0.064307 39:0.126493 41:0.098075 43:0.223161 45:0.117758 47:0.803522 48:0.217074 49:0.410803 51:0.433809 55:0.514054 58:0.737558 59:0.185637 60:0.344482 61:0.264871 62:0.090098 63:0.126776 64:0.126085 65:0.045074 
0.7107551980335307 1:0.415337 4:0.221274 5:0.150908 6:0.180554 7:1.303753 9:1.181264 18:-0.015258 23:0.171808 28:0.108696 29:0.08369 30:0.905905 32:0.064396 35:-0.127462 36:0.104068 39:0.140611 41:0.098075 43:0.071859 45:0.117628 47:0.871015 48:0.064396 49:0.07383 51:0.119104 55:0.570603 58:0.851356 59:0.055691 60:0.16388 61:-0.040961 62:0.012957 63:-0.009372 64:0.119648 65:0.028183 
0.1359678620846428 1:0.458777 4:0.22434 5:0.13037 6:0.162265 7:1.208395 9:1.099568 18:-0.008749 23:0.124215 28:0.326087 29:0.246809 30:0.575068 32:0.130038 35:-0.019378 36:0.244932 39:0.344433 41:0.314971 43:0.13691 45:0.240318 47:0.700058 48:0.130038 49:0.242851 51:0.112917 55:0.433951 58:0.671843 59:0.119085 60:0.16388 61:-0.073955 62:0.308646 63:-0.019433 64:0.247498 65:0.077296 
1 1:0.175532 4:0.196201 5:0.232977 6:0.225951 7:0.539759 9:0.650788 18:0.196632 23:0.328004 28:0.26087 29:0.190365 30:0.456263 32:0.458499 35:0.1755 36:0.178731 39:0.298064 41:0.249902 43:0.46241 45:0.175009 47:0.789916 48:0.458499 49:0.572649 51:0.421436 55:0.520619 58:0.766198 59:0.436295 60:0.130435 61:0.234809 62:0.110661 63:0.503697 64:0.477446 65:0.357844 
0.9431548112371786 1:0.293883 4:0.186917 5:0.194504 6:0.228373 7:1.236203 9:0.686037 18:0.028538 23:0.268698 28:0.217391 29:0.18098 30:0.745207 32:-0.2783 35:0.155865 36:0.162945 39:0.249078 41:0.206523 43:-0.267747 45:0.176318 47:0.785714 48:-0.2783 49:-0.245469 51:0.416373 55:0.520112 58:0.761786 59:-0.275265 60:0.227425 61:0.163565 62:0.225429 63:-0.04626 64:0.198435 65:0.074541 
0.6289679655338361 1:1.195035 4:0.858764 5:0.921458 6:0.390393 7:1.020096 9:0.241086 18:0.257916 23:0.22316 28:0.282609 29:0.236773 30:0.422471 32:0.071736 35:0.192829 36:0.115815 39:0.310988 41:0.299607 43:0.093586 45:0.392149 47:0.590663 48:0.071736 49:0.393449 51:0.255794 55:0.270743 58:0.607054 59:0.078451 60:0.849498 61:-0.022785 62:0.502448 63:0.001526 64:0.230235 65:0.082483 
0.3357094065815348 1:1.417553 4:0.953533 5:0.860634 6:0.953976 7:1.360207 9:1.539739 18:0.345938 23:0.008324 28:0.369565 29:0.261901 30:0.373458 32:-0.00708 35:0.052216 36:0.270846 39:0.377076 41:0.38998 43:0.012227 45:0.459339 47:0.523849 48:-0.00708 49:0.335479 51:0.093366 55:0.16217 58:0.536897 59:-0.001193 60:0.832776 61:-0.098297 62:0.613143 63:-0.084265 64:0.362915 65:0.254714 
1 1:0.313387 4:0.468725 5:0.543908 6:0.528012 7:0.399899 9:0.458489 18:0.268872 23:0.088472 28:0.608696 29:0.487874 30:0.415628 32:0.487025 35:0.850234 36:0.617534 39:0.633209 41:0.638507 43:0.52228 45:0.768804 47:0.400831 48:0.487025 49:0.716293 51:0.448693 55:1.264326 58:0.407721 59:0.498107 60:0.461538 61:0.416744 62:0.773534 63:0.619876 64:0.595005 65:0.281047 
1 1:1.097074 4:0.919353 5:1.493013 6:0.323763 7:0.416106 9:0.107148 18:0.863596 23:0.325712 28:0.23913 29:0.224985 30:0.854913 32:0.218289 35:0.362143 36:0.133404 39:0.257639 41:0.25442 43:0.24487 45:0.49489 47:0.447518 48:0.218289 49:0.745247 51:0.312601 55:0.204051 58:0.456745 59:0.226546 60:1.491639 61:0.308845 62:0.269092 63:0.490284 64:0.463874 65:0.414787 
0.1362949059373209 1:1.454787 4:0.939771 5:0.939537 6:0.922489 7:1.281965 9:0.311576 18:0.285417 23:0.17723 28:0.304348 29:0.417167 30:0.772917 32:0.158836 35:0.182598 36:-0.058654 39:0.326097 41:0.3222 43:0.183498 45:0.35831 47:0.546097 48:0.158836 49:0.512492 51:0.199821 55:0.28438 58:0.560258 59:0.166467 60:1.157191 61:0.007632 62:0.49294 63:0.195185 64:0.20874 65:0.014835 
0.3933270913768733 1:1.454787 4:0.939771 5:0.939537 6:0.922489 7:1.281965 9:0.311576 18:0.285417 23:0.17723 28:0.304348 29:0.417167 30:0.772917 32:0.158836 35:0.182598 36:-0.058654 39:0.326097 41:0.3222 43:0.183498 45:0.35831 47:0.546097 48:0.158836 49:0.512492 51:0.199821 55:0.28438 58:0.560258 59:0.166467 60:1.157191 61:0.007632 62:0.49294 63:0.195185 64:0.20874 65:0.014835 
0.133518318737087 1:1.12367 4:1.001883 5:0.928785 6:1.018233 7:0.947859 9:1.066396 18:0.52743 23:-0.006104 28:1.23913 29:0.908145 30:-0.075035 32:0.812288 35:0.435561 36:1.468239 39:1.245959 41:1.001558 43:0.66394 45:0.944984 47:0.473408 48:0.812288 49:0.887659 51:0.233008 55:-0.064278 58:0.398076 59:0.745657 60:0.812709 61:-0.01192 62:1.289005 63:0.840096 64:0.990176 65:0.402689 
0.1815409116508439 1:1.302305 4:1.262078 5:1.156388 6:1.277658 7:0.92136 9:0.732485 18:0.591579 23:0.039054 28:0.26087 29:0.187336 30:0.504117 32:0.299379 35:0.048378 36:0.183004 39:0.280332 41:0.160152 43:0.225762 45:0.347481 47:0.694403 48:0.299379 49:0.433608 51:0.288704 55:0.33464 58:0.630132 59:0.265512 60:1.110368 61:0.043673 62:0.271787 63:0.081169 64:0.211845 65:0.029245 
0.1205246426461011 1:0.756649 4:0.648797 5:0.565793 6:0.636072 7:0.940153 9:1.083642 18:0.307271 23:0.008596 28:0.891304 29:0.790106 30:0.175339 32:1.201839 35:0.189685 36:0.84694 39:0.88418 41:0.702391 43:0.996732 45:0.720388 47:0.592235 48:1.201839 49:0.966676 51:0.219181 55:0.193273 58:0.52285 59:1.110323 60:0.565217 61:0.034002 62:0.499284 63:1.133261 64:1.114484 65:1.101301 
0.9786068725456013 1:0.66977 4:0.701148 5:0.938894 6:0.382995 7:0.496714 9:-0.076412 18:0.630798 23:0.180825 28:0.130435 29:0.146919 30:0.797069 32:0.31421 35:0.202154 36:0.01948 39:0.143847 41:0.047964 43:0.238432 45:0.64634 47:0.607227 48:0.31421 49:0.593755 51:0.436902 55:0.289653 58:0.538593 59:0.279395 60:0.976589 61:0.374817 62:0.140196 63:0.198538 64:0.168665 65:0.051681 
0.5878498943314725 1:0.606826 4:0.760405 5:0.730328 6:0.814819 7:0.678194 9:0.712011 18:0.515399 23:0.001281 28:0.5 29:1.031922 30:0.943358 32:0.56389 35:0.156657 36:0.289283 39:0.532664 41:0.365829 43:0.451734 45:0.980797 47:0.558775 48:0.56389 49:0.628285 51:0.480908 55:0.422082 58:0.487716 59:0.513127 60:0.615385 61:0.177957 62:0.280942 63:1.124076 64:1.105189 65:2.412423 
1 1:0.328014 4:0.607277 5:0.581505 6:0.649886 7:0.381055 9:0.242309 18:0.400564 23:0.044962 28:0.195652 29:0.108183 30:0.373525 32:-0.2783 35:0.43519 36:0.15545 39:0.220811 41:0.209234 43:-0.267747 45:0.095728 47:0.950943 48:-0.2783 49:-0.276815 51:0.768244 55:0.663031 58:0.899511 59:-0.275265 60:0.461538 61:0.389237 62:0.328219 63:0.094583 64:0.20748 65:0.041048 
0.9280613646993297 1:0.710993 4:0.96421 5:0.921807 6:1.002858 7:0.439697 9:0.123855 18:0.338217 23:0.135716 28:0.326087 29:0.238267 30:0.525732 32:0.376531 35:0.340426 36:0.28998 39:0.282545 41:0.344794 43:0.40822 45:0.222326 47:0.683555 48:0.376531 49:0.571614 51:0.517056 55:0.490253 58:0.618741 59:0.337736 60:0.90301 61:0.284643 62:0.276875 63:0.518625 64:0.492552 65:0.362296 
0.2007458667072604 1:0.712323 4:0.674602 5:0.818596 6:0.306108 7:0.330598 9:3.4e-005 18:0.06373 23:0.246724 28:0.652174 29:0.796311 30:0.429472 32:0.424496 35:0.55256 36:0.457501 39:0.663233 41:0.683694 43:0.457733 45:0.927162 47:0.49033 48:0.424496 49:0.523982 51:0.520464 55:0.26037 58:0.415845 59:0.382637 60:1.093645 61:0.408538 62:0.680052 63:0.798796 64:0.822064 65:1.116026 
0.003000130946533909 1:0.712323 4:0.674602 5:0.818596 6:0.306108 7:0.330598 9:3.4e-005 18:0.06373 23:0.246724 28:0.652174 29:0.796311 30:0.429472 32:0.424496 35:0.55256 36:0.457501 39:0.663233 41:0.683694 43:0.457733 45:0.927162 47:0.49033 48:0.424496 49:0.523982 51:0.520464 55:0.26037 58:0.415845 59:0.382637 60:1.093645 61:0.408538 62:0.680052 63:0.798796 64:0.822064 65:1.116026 
1 1:0.194592 4:0.316681 5:0.314818 6:0.346225 7:0.432195 9:0.334697 18:0.29805 23:0.283943 28:0.108696 29:0.033335 30:0.33223 32:0.138377 35:0.215111 36:0.192863 39:0.123949 41:0.118861 43:0.162379 45:0.046285 47:0.856405 48:0.138377 49:0.327265 51:0.518976 55:0.541754 58:0.800242 59:0.114795 60:0.244147 61:0.376269 62:0.103239 63:0.173947 64:0.143781 65:0.05505 
1 1:0.043883 4:0.268179 5:0.320859 6:0.366697 7:0.141421 9:0.244004 18:0.580529 23:0.117044 28:0 29:0.008056 30:0.387611 32:0.008349 35:0.460164 36:0.037896 39:0.056816 41:0.005894 43:0.028154 45:0.001874 47:1.120902 48:0.008349 49:-0.275369 51:1.116618 55:0.796244 58:1.120905 59:0.003328 60:0.130435 61:0.700415 62:0.042989 63:0.00172 64:-0.024448 65:-0.004 
0.6185292703083136 1:0.132979 4:0.202078 5:0.206636 6:0.228571 7:0.507617 9:0.247397 18:0.184376 23:0.180089 28:0.456522 29:0.198657 30:0.130276 32:0.396087 35:0.476113 36:0.586323 39:0.516523 41:0.480354 43:0.428406 45:0.177019 47:0.869966 48:0.396087 49:0.37309 51:0.551448 55:0.485586 58:0.857409 59:0.380168 60:0.110368 61:0.302444 62:0.582634 63:0.470163 64:0.443514 65:0.229414 
1 1:0.310727 4:0.260736 5:0.286418 6:0.265416 7:0.651057 9:0.70242 18:0.118569 23:0.24839 28:0.26087 29:0.256496 30:0.587591 32:0.514577 35:0.105582 36:0.17426 39:0.278048 41:0.277014 43:0.550721 45:0.308317 47:0.769086 48:0.514577 49:0.637058 51:0.3938 55:0.579748 58:0.75148 59:0.495329 60:0.237458 61:0.151738 62:0.172729 63:0.443336 64:0.416369 65:0.315587 
0.445282938428952 1:0.379433 4:0.202327 5:0.071767 6:0.096895 7:1.065273 9:1.086924 18:-0.031161 23:0.342843 28:0.282609 29:0.193856 30:0.908605 32:0.106359 35:-0.007983 36:0.367444 39:0.306717 41:0.299607 43:0.129327 45:0.173919 47:0.747104 48:0.106359 49:0.17611 51:0.141552 55:0.509578 58:0.728398 59:0.098583 60:0.143813 61:-0.030909 62:0.246247 63:0.119175 64:0.219502 65:0.027513 
1 1:0.270833 4:0.157249 5:0.190589 6:0.221775 7:1.095833 9:0.67763 18:0.029808 23:0.357213 28:0.130435 29:0.094838 30:0.783409 32:0.056642 35:0.138775 36:0.122803 39:0.164679 41:0.141454 43:0.078006 45:0.098317 47:0.876173 48:0.056642 49:0.043572 51:0.461508 55:0.579685 58:0.863927 59:0.050264 60:0.247492 61:0.225667 62:0.133197 63:-0.059673 64:0.116576 65:0.040106 
0.3863177263025204 1:1.100621 4:0.742579 5:0.665319 6:0.741296 7:1.230867 9:1.41455 18:0.271616 23:0.007122 28:0.978261 29:0.404497 30:0.033321 32:0.689177 35:0.232608 36:1.63632 39:0.834808 41:1.022593 43:0.730956 45:0.633663 47:0.4315 48:0.689177 49:0.875341 51:-0.00563 55:0.146346 58:0.44708 59:0.708901 60:0.668896 61:-0.068248 62:1.101787 63:0.579857 64:0.745065 65:0.104936 
0.1839986744326076 1:1.135195 4:0.830015 5:0.80253 6:0.405045 7:1.263423 9:0.310553 18:0.299795 23:0.285047 28:0.369565 29:0.152593 30:0.299566 32:0.148858 35:0.200595 36:0.495711 39:0.395597 41:0.38998 43:0.173198 45:0.433601 47:0.566683 48:0.148858 49:0.485828 51:0.256647 55:0.224338 58:0.589028 59:0.159262 60:0.765886 61:-0.037153 62:0.576376 63:0.118233 64:0.277478 65:0.038181 
1 1:0.393174 4:0.423892 5:0.408668 6:0.458845 7:0.882336 9:0.144325 18:0.199861 23:0.103735 28:0.652174 29:0.583092 30:0.124114 32:-0.2783 35:0.404248 36:0.457124 39:0.678807 41:0.683694 43:-0.267747 45:1.239227 47:0.173518 48:-0.2783 49:0.640272 51:0.184536 55:0.604396 58:0.176186 59:-0.275265 60:0.32107 61:0.13957 62:0.69687 63:0.698194 64:0.674252 65:0.419698 
0.08901311167060852 1:0.888741 4:0.419717 5:0.72492 6:0.224961 7:0.835385 9:0.838357 18:0.441379 23:0.173234 28:1.021739 29:0.694598 30:-0.153417 32:1.094038 35:0.406416 36:1.09438 39:0.996362 41:1.06778 43:1.148884 45:0.681751 47:0.492479 48:1.094038 49:0.994997 51:0.169598 55:0.126317 58:0.511111 59:1.120746 60:0.712375 61:0.045563 62:0.877839 63:1.078246 64:1.06334 65:0.819496 
0.5883293093934912 1:0.368794 4:0.743268 5:0.730907 6:0.811348 7:0.367002 9:0.383966 18:0.655848 23:-0.000928 28:0.608696 29:0.300026 30:0.13435 32:0.562123 35:0.84184 36:0.797007 39:0.654184 41:0.638507 43:0.599801 45:0.265402 47:0.335169 48:0.562123 49:0.966496 51:0.265912 55:0.778854 58:0.345928 59:0.579656 60:0.605351 61:0.475129 62:0.844469 63:0.450043 64:0.462568 65:0.070673 
1 1:0.113918 4:0.199826 5:0.327904 6:0.14642 7:0.289393 9:0.182133 18:0.232975 23:0.452016 28:0.217391 29:0.167052 30:0.633149 32:0.254484 35:0.464698 36:0.159974 39:0.217321 41:0.141454 43:0.203664 45:0.228375 47:0.618783 48:0.254484 49:0.603694 51:0.48388 55:0.145712 58:0.536418 59:0.217439 60:0.247492 61:0.638123 62:0.308936 63:0.356148 64:0.328145 65:0.239115 
1 1:0.133865 4:0.205064 5:0.255969 6:0.293486 7:0.602734 9:0.420254 18:0.196229 23:0.123582 28:0.152174 29:0.179955 30:0.696922 32:0.432602 35:0.170879 36:0.036239 39:0.144881 41:0.083357 43:0.361265 45:0.350919 47:0.596377 48:0.432602 49:0.708058 51:0.272581 55:0.242544 58:0.51289 59:0.382158 60:0.117057 61:0.31282 62:0.097376 63:0.389682 64:0.362077 65:0.279874 
0.6742479103609557 1:0.556738 4:0.639622 5:0.614554 6:0.687863 7:0.706166 9:0.694073 18:0.439574 23:0.006937 28:0.456522 29:0.944352 30:0.914388 32:0.212529 35:0.103276 36:0.21988 39:0.490328 41:0.354477 43:0.166542 45:0.89844 47:0.61644 48:0.212529 49:0.370423 51:0.4541 55:0.449537 58:0.533959 59:0.17864 60:0.528428 61:0.156674 62:0.22416 63:1.124076 64:1.105189 65:2.180233 
0.3734678052514314 1:0.811613 4:0.93228 5:0.858812 6:0.953791 7:0.757801 9:0.642557 18:0.592936 23:0.002641 28:1.152174 29:0.845338 30:-0.047476 32:1.246048 35:0.596179 36:1.383336 39:0.986577 41:0.974179 43:1.081008 45:0.661432 47:0.430946 48:1.246048 49:1.001057 51:0.208105 55:0.523834 58:0.33918 59:1.134411 60:0.812709 61:0.149047 62:1.07669 63:1.127429 64:1.108583 65:0.815601 
1 1:0.465869 4:0.721165 5:0.710735 6:0.758288 7:0.428831 9:0.254594 18:0.553787 23:0.217051 28:0.26087 29:0.122183 30:0.485681 32:0.369108 35:0.382575 36:0.340135 39:0.284389 41:0.277014 43:0.400557 45:0.11933 47:0.911278 48:0.369108 49:0.302886 51:0.681514 55:0.633699 58:0.843552 59:0.323441 60:0.595318 61:0.314154 62:0.375505 63:0.295787 64:0.267068 65:0.083796 
0.588720402165405 1:0.475177 4:0.22734 5:0.044121 6:0.067204 7:1.642016 9:1.076572 18:-0.050142 23:0.261012 28:0.826087 29:0.812344 30:0.110829 32:0.030381 35:0.411049 36:0.576564 39:0.828085 41:0.86444 43:0.050897 45:0.56112 47:0.607329 48:0.030381 49:0.216042 51:0.184161 55:0.070399 58:0.524391 59:0.010195 60:0.314381 61:0.04988 62:0.902537 63:0.710267 64:0.686468 65:0.256784 
0.3096832739853272 1:0.627216 4:0.726833 5:0.63132 6:0.690173 7:0.543813 9:0.411751 18:0.292883 23:0.124609 28:0.217391 29:0.135338 30:0.734272 32:0.279877 35:0.195147 36:0.263377 39:0.258111 41:0.231827 43:0.308446 45:0.142323 47:0.908796 48:0.279877 49:0.218129 51:0.530577 55:0.606574 58:0.840946 59:0.240922 60:0.73913 61:0.25003 62:0.235385 63:0.416509 64:0.389223 65:0.263652 
0.1351817480330043 1:0.8125 4:0.685161 5:0.782954 6:0.675252 7:0.791489 9:0.782035 18:0.327648 23:0.074392 28:1.086957 29:0.925361 30:-0.121538 32:-0.2783 35:0.465865 36:1.01438 39:1.101971 41:1.13556 43:-0.267747 45:0.917878 47:0.530052 48:-0.2783 49:0.431048 51:0.358213 55:0.033987 58:0.443246 59:-0.275265 60:0.638796 61:0.045963 62:1.009634 63:1.026827 64:1.006786 65:0.801343 
1 1:0.217642 4:0.604316 5:0.627288 6:0.672055 7:0.228603 9:0.199779 18:0.731712 23:0.093408 28:0.652174 29:0.259428 30:0.078383 32:0.772492 35:1.346472 36:0.98091 39:0.699279 41:0.683694 43:0.81696 45:0.253375 47:0.730304 48:0.772492 49:0.773824 51:0.86589 55:0.316877 58:0.653521 59:0.696479 60:0.444816 61:0.623189 62:1.104919 63:0.496991 64:0.569125 65:0.220658 
1 1:0.217199 4:0.320877 5:0.348203 6:0.353136 7:0.500222 9:0.525609 18:0.308453 23:0.235785 28:0.130435 29:0.053037 30:0.208895 32:0.184205 35:0.177106 36:0.1384 39:0.15238 41:0.141454 43:0.209685 45:0.079758 47:0.856555 48:0.184205 49:0.370415 51:0.50553 55:0.52754 58:0.786091 59:0.152447 60:0.244147 61:0.323925 62:0.100338 63:0.184722 64:0.154685 65:0.058576 
1 1:0.238032 4:0.186865 5:0.159478 6:0.184931 7:0.867523 9:0.704462 18:0.067722 23:0.276029 28:0.26087 29:0.273723 30:0.821019 32:0.195181 35:0.064747 36:0.159029 39:0.292231 41:0.277014 43:0.221016 45:0.205037 47:0.788553 48:0.195181 49:0.14658 51:0.231269 55:0.525815 58:0.757613 59:0.179121 60:0.137124 61:0.128736 62:0.187533 63:0.284289 64:0.255434 65:0.096529 
0.9113875412442262 1:0.191046 4:0.155708 5:0.129236 6:0.159683 7:0.811272 9:0.933031 18:0.062744 23:0.128648 28:0.391304 29:0.20302 30:0.260845 32:0.324541 35:0.178667 36:0.437847 39:0.445492 41:0.412574 43:0.354551 45:0.176365 47:0.880252 48:0.324541 49:0.297659 51:0.302076 55:0.530472 58:0.853901 59:0.303263 60:0.086957 61:0.132518 62:0.362814 63:0.40871 64:0.381332 65:0.142455 
1 1:0.265957 4:0.147362 5:0.167495 6:0.196439 7:1.023146 9:0.799485 18:0.014932 23:0.269131 28:0.086957 29:0.065772 30:0.814964 32:0.030891 35:0.102652 36:0.087086 39:0.122765 41:0.096267 43:0.051424 45:0.070425 47:0.92064 48:0.030891 49:0.005235 51:0.463099 55:0.607708 58:0.89631 59:0.021457 60:0.270903 61:0.265137 62:0.096756 63:0.034222 64:0.074743 65:0.007778 
0.08312391336119877 1:0.64805 4:0.423031 5:0.323177 6:0.363704 7:0.907583 9:1.020676 18:0.082548 23:0.079696 28:0.673913 29:0.461388 30:0.384855 32:-0.2783 35:0.119039 36:0.781258 39:0.68039 41:0.706287 43:-0.267747 45:0.498452 47:0.572413 48:-0.2783 49:0.279937 51:0.146975 55:0.208327 58:0.580736 59:-0.275265 60:0.324415 61:-0.063121 62:0.474179 63:0.29914 64:0.593806 65:0.163604 
1 1:1.297872 4:1.146109 5:1.329771 6:0.910776 7:0.644268 9:0.470678 18:0.547991 23:0.138865 28:0.152174 29:0.135181 30:0.864803 32:0.234065 35:0.100406 36:0.119901 39:0.184676 41:0.164047 43:0.261155 45:0.149385 47:0.803729 48:0.234065 49:0.3217 51:0.433131 55:0.589751 58:0.82363 59:0.239081 60:1.374582 61:0.149541 62:0.145138 63:0.248839 64:0.219563 65:0.08413 
1 1:0.425532 4:0.43776 5:0.419222 6:0.46843 7:0.83841 9:0.476844 18:0.220134 23:0.109548 28:0.543478 29:0.425393 30:0.223548 32:0.656728 35:0.300171 36:0.436257 39:0.573222 41:0.570727 43:0.69746 45:1.382496 47:0.179703 48:0.656728 49:0.933969 51:0.185944 55:0.655569 58:0.168372 59:0.663377 60:0.304348 61:0.087522 62:0.611501 63:0.509957 64:0.493034 65:0.2049 
0.5030380365473743 1:0.77172 4:0.774179 5:0.738572 6:0.809141 7:0.962063 9:0.113498 18:0.395477 23:0.078183 28:0.73913 29:1.426088 30:0.546145 32:1.089958 35:0.191484 36:0.321767 39:0.765836 41:0.774067 43:1.144673 45:1.381665 47:0.449012 48:1.089958 49:0.858449 51:0.308358 55:0.291143 58:0.45116 59:1.098283 60:0.675585 61:0.093019 62:0.362718 63:1.111333 64:1.092295 65:1.306678 
0.2243826712470129 1:1.221188 4:0.791258 5:0.671427 6:0.746695 7:1.289122 9:1.470972 18:0.265374 23:0.006682 28:0.652174 29:0.213149 30:-0.031782 32:0.360247 35:0.111931 36:1.067853 39:0.640702 41:0.683694 43:0.39141 45:0.398961 47:0.524327 48:0.360247 49:0.69183 51:0.070757 55:0.101925 58:0.530244 59:0.365751 60:0.715719 61:-0.087751 62:0.684127 63:0.471281 64:0.51355 65:0.070784 
0.5921672787777316 1:1.039007 4:0.908891 5:1.285757 6:0.367127 7:0.407828 9:0.096678 18:0.634502 23:0.35727 28:0.26087 29:0.246321 30:0.94129 32:0.191828 35:0.347754 36:0.16172 39:0.280691 41:0.277014 43:0.217555 45:0.513148 47:0.423777 48:0.191828 49:0.737318 51:0.322463 55:0.221974 58:0.424661 59:0.196681 60:1.367893 61:0.289334 62:0.268452 63:0.349441 64:0.355291 65:0.169578 
0.2000000000000002 1:0.359929 4:0.742935 5:0.737618 6:0.819377 7:0.372653 9:0.383566 18:0.731037 23:-0.000497 28:0.717391 29:0.383896 30:0.126695 32:0.768282 35:1.001164 36:0.951309 39:0.764665 41:0.751473 43:0.812615 45:0.329741 47:0.306471 48:0.768282 49:0.996257 51:0.303602 55:0.77746 58:0.301484 59:0.775363 60:0.625418 61:0.513717 62:0.940514 63:0.604299 64:0.579243 65:0.172588 
1 1:0.437943 4:0.850116 5:0.803217 6:0.897505 7:0.329384 9:0.340038 18:0.865107 23:0.03377 28:0.282609 29:0.139828 30:0.591966 32:0.26423 35:0.540187 36:0.402298 39:0.335065 41:0.199551 43:0.212288 45:0.16773 47:0.698463 48:0.26423 49:0.534418 51:0.654968 55:1.34214 58:0.627241 59:0.229512 60:0.551839 61:0.311 62:0.283683 63:0.496991 64:0.47066 65:0.376772 
0.2801110778919602 1:0.648936 4:0.713608 5:0.651902 6:0.724716 7:0.698263 9:0.498934 18:0.375156 23:0.083295 28:0.130435 29:0.09483 30:0.550518 32:-0.2783 35:0.032644 36:0.054853 39:0.147634 41:0.063991 43:-0.267747 45:0.253451 47:0.7842 48:-0.2783 49:0.060197 51:0.377665 55:0.374635 58:0.717269 59:-0.275265 60:0.622074 61:0.146868 62:0.021407 63:0.193356 64:0.2096 65:0.104762 
1 1:0.079787 4:0.17792 5:0.238008 6:0.181526 7:0.21378 9:0.291099 18:0.212901 23:0.450113 28:0.217391 29:0.149218 30:0.596683 32:0.275396 35:0.501671 36:0.178731 39:0.216494 41:0.141454 43:0.222168 45:0.197451 47:0.619867 48:0.275396 49:0.648369 51:0.419732 55:0.160934 58:0.544711 59:0.239901 60:0.173913 61:0.625651 62:0.301209 63:0.295787 64:0.299869 65:0.218708 
1 1:0.121011 4:0.266062 5:0.287752 6:0.327493 7:0.453865 9:0.000854 18:0.207107 23:0.105439 28:0.152174 29:0.176981 30:0.668711 32:0.238128 35:0.262749 36:0.048977 39:0.145371 41:0.083357 43:0.189193 45:0.320862 47:0.586942 48:0.238128 49:0.651111 51:0.396709 55:0.224985 58:0.510139 59:0.205226 60:0.187291 61:0.489754 62:0.130007 63:0.409802 64:0.382437 65:0.307429 
1 1:0.443706 4:0.686445 5:0.676626 6:0.731616 7:0.430377 9:0.16605 18:0.50176 23:0.238838 28:0.26087 29:0.136194 30:0.429195 32:0.221553 35:0.398796 36:0.299563 39:0.283386 41:0.306483 43:0.270673 45:0.127376 47:0.907412 48:0.221553 49:0.21005 51:0.693406 55:0.636259 58:0.853802 59:0.192657 60:0.575251 61:0.325306 62:0.362833 63:0.31859 64:0.300321 65:0.152834 
1 1:0.093085 4:0.09591 5:0.06661 6:0.091467 7:0.718483 9:0.776496 18:0.029111 23:0.337991 28:0.391304 29:0.222277 30:0.345879 32:0.502997 35:0.314113 36:0.437348 39:0.452858 41:0.447937 43:0.573833 45:0.201091 47:0.868251 48:0.502997 49:0.500543 51:0.297761 55:0.49619 58:0.812681 59:0.456123 60:0.033445 61:0.257529 62:0.368329 63:0.543938 64:0.518165 65:0.345646 
1 1:0.057624 4:0.1369 5:0.248887 6:0.192539 7:0.315589 9:0.38205 18:0.27717 23:0.289976 28:0.152174 29:0.061116 30:0.590925 32:0.189899 35:0.389706 36:0.256367 39:0.203128 41:0.188605 43:0.236577 45:0.054806 47:1.006814 48:0.189899 49:0.017231 51:0.704813 55:0.682374 58:0.958178 59:0.163025 60:0.133779 61:0.635058 62:0.219706 63:0.26896 64:0.239922 65:0.149446 
0.6279759692359305 1:0.200355 4:0.29344 5:0.308798 6:0.322817 7:0.480186 9:0.503532 18:0.289011 23:0.208445 28:0.108696 29:0.047186 30:0.310563 32:0.189824 35:0.173444 36:0.127536 39:0.128743 41:0.141454 43:0.236496 45:0.072272 47:0.85385 48:0.189824 49:0.384825 51:0.496525 55:0.539913 58:0.797559 59:0.162955 60:0.22408 61:0.330889 62:0.085829 63:0.159415 64:0.129077 65:0.05291 
1 1:0.113032 4:0.181685 5:0.212902 6:0.237729 7:0.454643 9:0.246559 18:0.224632 23:0.161336 28:0.369565 29:0.144675 30:0.291222 32:0.277107 35:0.441257 36:0.532576 39:0.432653 41:0.38998 43:0.305587 45:0.126175 47:0.90779 48:0.277107 49:0.227819 51:0.579332 55:0.531005 58:0.889972 59:0.261117 60:0.093645 61:0.326169 62:0.518457 63:0.386057 64:0.358409 65:0.15495 
1 1:0.169326 4:0.11194 5:0.15101 6:0.035845 7:0.655101 9:0.349433 18:0.047567 23:0.660304 28:0.521739 29:0.830173 30:0.550928 32:1.029313 35:0.399808 36:0.125362 39:0.568564 41:0.548134 43:1.082071 45:0.766295 47:0.615944 48:1.029313 49:0.717684 51:0.473536 55:0.409302 58:0.583519 59:0.987555 60:0.117057 61:0.225742 62:0.528662 63:0.97988 64:0.959282 65:1.565857 
0.670045129751254 1:0.380319 4:0.191581 5:0.474236 6:0.028026 7:0.580598 9:0.420676 18:0.322153 23:0.369474 28:0.173913 29:0.134759 30:0.516827 32:0.245948 35:0.116172 36:0.072123 39:0.214244 41:0.18664 43:0.273421 45:0.163835 47:0.834261 48:0.245948 49:0.301337 51:0.394503 55:0.519776 58:0.812762 59:0.231024 60:0.364548 61:0.200735 62:0.090247 63:0.450043 64:0.423155 65:0.423703 
0.7697339290389637 1:0.339982 4:0.170991 5:0.087553 6:0.113357 7:1.027958 9:0.995707 18:-0.021342 23:0.308075 28:0.195652 29:0.126883 30:0.875888 32:0.07926 35:-0.054513 36:0.221183 39:0.221894 41:0.209234 43:0.101353 45:0.123319 47:0.786798 48:0.07926 49:0.123408 51:0.123367 55:0.570066 58:0.762924 59:0.070046 60:0.120401 61:-0.019777 62:0.119941 63:0.107997 64:0.174899 65:0.033865 
0.2156773013576737 1:0.324468 4:0.376563 5:0.332352 6:0.380612 7:0.604863 9:0.649877 18:0.252961 23:0.06364 28:0.630435 29:0.353225 30:-0.038795 32:0.70036 35:0.49556 36:0.653762 39:0.607447 41:0.707269 43:0.786424 45:1.134946 47:0.32069 48:0.70036 49:0.932432 51:0.121242 55:0.626044 58:0.32357 59:0.713684 60:0.307692 61:0.21542 62:0.755928 63:0.445013 64:0.503623 65:0.103343 
0.149145263426205 1:0.439716 4:0.467137 5:0.445416 6:0.499651 7:0.844388 9:0.459121 18:0.270996 23:0.116697 28:0.521739 29:0.334053 30:0.175584 32:0.696214 35:0.336245 36:0.494999 39:0.548877 41:0.589391 43:0.781958 45:1.345972 47:0.184672 48:0.696214 49:0.91501 51:0.225777 55:0.685801 58:0.180744 59:0.709495 60:0.344482 61:0.111552 62:0.604847 63:0.564058 64:0.538524 65:0.255781 
0.09936217951023321 1:0.690603 4:0.737142 5:0.701378 6:0.771612 7:1.003837 9:0.120926 18:0.360991 23:0.068506 28:0.652174 29:1.250017 30:0.606757 32:0.720371 35:0.156535 36:0.275719 39:0.684842 41:0.730845 43:0.80798 45:1.248204 47:0.470409 48:0.720371 49:0.723811 51:0.344058 55:0.3415 58:0.480782 59:0.733906 60:0.625418 61:0.116902 62:0.249718 63:1.082294 64:1.062912 65:1.496691 
0.7228317301209676 1:1.054078 4:0.920205 5:0.889341 6:0.828305 7:0.556099 9:0.25394 18:0.409746 23:0.32641 28:0.152174 29:0.093025 30:0.690836 32:0.225423 35:0.046036 36:0.155712 39:0.180041 41:0.188605 43:0.274842 45:0.795683 47:0.497347 48:0.225423 49:0.67035 51:0.238226 55:0.246174 58:0.509068 59:0.233754 60:1 61:0.105424 62:0.161867 63:0.135782 64:0.130161 65:0.018899 
0.7045985355194881 1:1.03945 4:0.874982 5:0.720858 6:0.561535 7:0.671206 9:0.153569 18:0.115216 23:0.342058 28:0.217391 29:0.172044 30:1.099578 32:-0.008906 35:0.157246 36:0.204838 39:0.232956 41:0.259332 43:0.022433 45:0.563666 47:0.425669 48:-0.008906 49:0.700771 51:0.231857 55:0.254941 58:0.433803 59:-0.003038 60:1.023411 61:0.124172 62:0.210836 63:0.235426 64:0.20599 65:0.043293 
1 1:0.069149 4:0.169014 5:0.208199 6:0.184264 7:0.206089 9:0.30571 18:0.244443 23:0.337011 28:0.217391 29:0.162063 30:0.530071 32:0.293993 35:0.532617 36:0.129993 39:0.215608 41:0.141454 43:0.238622 45:0.206654 47:0.623893 48:0.293993 49:0.645056 51:0.449451 55:0.160631 58:0.541784 59:0.253976 60:0.167224 61:0.660499 62:0.294458 63:0.291954 64:0.281933 65:0.17015 
1 1:0.191489 4:0.143185 5:0.159703 6:0.170441 7:0.867126 9:0.685068 18:0.044999 23:0.633421 28:0.304348 29:0.385076 30:0.865314 32:0.510942 35:0.096239 36:0.19423 39:0.255039 41:0.218917 43:0.43058 45:0.406926 47:0.653702 48:0.510942 49:0.59253 51:0.374654 55:0.595172 58:0.573085 59:0.454605 60:0.140468 61:0.21759 62:0.203424 63:0.765262 64:0.742116 65:1.042284 
0.171594801908661 1:0.687943 4:0.865988 5:0.803974 6:0.893736 7:0.738597 9:0.427279 18:0.565447 23:0.007135 28:0.695652 29:0.416883 30:0.291575 32:0.628914 35:0.458668 36:0.952977 39:0.563995 41:0.567499 43:0.534963 45:0.359052 47:0.489236 48:0.628914 49:0.843248 51:0.246003 55:0.784845 58:0.400387 59:0.563702 60:0.755853 61:0.206906 62:0.737509 63:0.885985 64:0.864272 65:0.598276 
1 1:0.567376 4:0.689358 5:0.652043 6:0.715526 7:0.500882 9:0.370546 18:0.33617 23:0.10879 28:0.152174 29:0.082497 30:0.689365 32:0.210779 35:0.137244 36:0.198705 39:0.19592 41:0.188605 43:0.259068 45:0.087274 47:0.967563 48:0.210779 49:0.085809 51:0.53123 55:0.659589 58:0.902655 59:0.177022 60:0.668896 61:0.257262 62:0.15116 63:0.336028 64:0.307786 65:0.160508 
0.02651394622446182 1:1.025709 4:0.83157 5:0.748839 6:0.835156 7:1.083739 9:1.183692 18:0.365191 23:0.011112 28:0.73913 29:0.659467 30:0.140426 32:0.838463 35:0.09471 36:0.593687 39:0.745702 41:0.825147 43:0.935183 45:0.769032 47:0.598246 48:0.838463 49:0.845863 51:0.220796 55:0.229193 58:0.514853 59:0.757487 60:0.715719 61:-0.017398 62:0.425587 63:0.707372 64:0.683539 65:0.367644 
1 1:0.086436 4:0.093675 5:0.120386 6:0.147254 7:0.673952 9:0.764842 18:0.06528 23:0.350761 28:0.413043 29:0.252371 30:0.352782 32:0.456412 35:0.343061 36:0.442415 39:0.474596 41:0.471513 43:0.523654 45:0.228051 47:0.871348 48:0.456412 49:0.455164 51:0.281598 55:0.48497 58:0.801624 59:0.404177 60:0.0301 61:0.270141 62:0.364248 63:0.540387 64:0.514572 65:0.369755 
1 1:0.100177 4:0.291965 5:0.350818 6:0.388052 7:0.31584 9:0.164005 18:0.351828 23:0.080917 28:0.043478 29:0.04025 30:0.94097 32:0.112466 35:0.339204 36:0.039858 39:0.085886 41:0.070727 43:0.153169 45:0.035565 47:1.005451 48:0.112466 49:-0.081539 51:0.8734 55:0.734655 58:0.942438 59:0.086105 60:0.197324 61:0.589325 62:0.120824 63:0.02215 64:0.066311 65:0.01904 
0.1429117086457562 1:0.215426 4:0.581027 5:0.583018 6:0.622522 7:0.279079 9:0.268737 18:0.704058 23:0.107703 28:0.630435 29:0.269728 30:0.135645 32:0.704136 35:1.245383 36:0.922654 39:0.67569 41:0.707269 43:0.790491 45:0.266273 47:0.727499 48:0.704136 49:0.752607 51:0.837831 55:0.323096 58:0.650575 59:0.633266 60:0.428094 61:0.604605 62:1.053053 63:0.510404 64:0.562493 65:0.266914 
1 1:0.199468 4:0.270375 5:0.303005 6:0.306882 7:0.497401 9:0.530714 18:0.238282 23:0.220567 28:0.086957 29:0.035812 30:0.216351 32:0.170691 35:0.13982 36:0.095345 39:0.106324 41:0.117878 43:0.215887 45:0.061374 47:0.872161 48:0.170691 49:0.344912 51:0.456624 55:0.548001 58:0.802478 59:0.13995 60:0.214047 61:0.317179 62:0.047455 63:0.161651 64:0.131339 65:0.049013 
0.4438424449336472 1:0.343528 4:0.224722 5:0.177245 6:0.209703 7:0.989963 9:0.804871 18:0.039298 23:0.268569 28:0.543478 29:0.561587 30:0.725502 32:0.252325 35:0.190877 36:0.550806 39:0.531498 41:0.570727 43:0.280005 45:0.572052 47:0.682697 48:0.252325 49:0.132034 51:0.275369 55:0.433076 58:0.646458 59:0.233961 60:0.160535 61:0.022071 62:0.51391 63:0.445775 64:0.504124 65:0.194627 
1 1:0.211436 4:0.17131 5:0.168414 6:0.185494 7:0.891107 9:0.749439 18:0.07987 23:0.271191 28:0.23913 29:0.300169 30:0.947461 32:0.134019 35:0.05208 36:0.144846 39:0.269373 41:0.25442 43:0.15788 45:0.219328 47:0.773991 48:0.134019 49:0.064285 51:0.244853 55:0.535753 58:0.742322 59:0.120425 60:0.130435 61:0.16377 62:0.137543 63:0.336611 64:0.308376 65:0.154858 
1 1:0.178635 4:0.143695 5:0.116625 6:0.147057 7:0.800682 9:0.960854 18:0.058982 23:0.12706 28:0.326087 29:0.160713 30:0.295385 32:0.416615 35:0.134423 36:0.372288 39:0.382301 41:0.344794 43:0.449597 45:0.135733 47:0.930729 48:0.416615 49:0.332663 51:0.292305 55:0.575752 58:0.906904 59:0.391625 60:0.080268 61:0.144608 62:0.285852 63:0.370351 64:0.342517 65:0.124931 
1 1:0.265071 4:0.281702 5:0.342826 6:0.381996 7:0.73687 9:0.352947 18:0.135579 23:0.200817 28:0.478261 29:0.485951 30:0.422372 32:0.806421 35:0.313509 36:0.313767 39:0.514173 41:0.502947 43:0.851985 45:0.527176 47:0.662084 48:0.806421 49:0.74022 51:0.425596 55:0.686805 58:0.624814 59:0.76571 60:0.204013 61:0.177598 62:0.449076 63:0.784041 64:0.761118 65:0.782771 
